svm_type c_svc
kernel_type wgkm
L 10
k 7
d 3
M 50
H 50
nr_class 2
total_sv 15240
rho 0.229139
label 1 -1
nr_sv 7656 7584
SV
0.1857338943116108 GTGCGATCCTGTTCCTCCCTCACGGTGGCCTGTTGAGGCAGGGGATCACGCTGACCTCTGTCCGCGTGGGAGGGGCCGGTGTGAGGCAAGGGCTCACATTGACCTCTCTCAGCGTGGGAGGGGCCGGTGTGAGACAAGGGGCTCACGCTGACCTCTGTCCGCGTGGGAGGG
0.07384684258286803 GCGCGGGGAGGGCGCGGGGAGGGCGCGGGCCCGCCCGCTCCAACCATCCCGGCCGTTGCGCAACTCAGGGCGTTTGCAAAAACCACGTCTGGGAGGACTTGGCCGCAACGCGGCGAACGGGCGCGCTCGGGGAGTGTGGGCGGCGGCGAATGAATGAGCGAGTGAACGAATGCACGCCCGCGAGAGCGCGGGGTGACCGCGTGGTTGGTGCGCGCCTCCCGGGGCGCCGCGATAGAGGTAGAGCGCCTGCGCTCGGCGGCGGGCCGGCACTT
0.9790430042543196 CAGGCCTGTAAGCTGGGCAGGCTGTGGGGCAGGAACTCCCCAGGGTGAGTGGGCTGGTCTGAGGGCTAAGGCCCCTGCTCCCAGCTCCGCCCCACCCGCCTCTGGGAGTCCCTTGTGGTGTGTGGACATAGGTCAGTCCCTCCCTGCTGCCTCCTCCCTATCCCAGTCCAGGCCCCTGGGAGTTTTGCGTCTGCCCAGGGCTGTGGCCTGGGCCTGTC
0.6543769391937463 CAGCCCGTCCGCTGTCCACAGTGGGGGCGCCAGGGGAAAGGGGTCAGCTTCCCCGCCTGGGGCTGTGTCTGGTTCTGATTGCACTGCAGTGAATCTGCCCTAAACCAAACGTCAGAAAGAAAAGCGGCAGACGTTTCATCACAACACAGAGACAGACAGGAGCCC
0.9572489102426975 AGGAGGGAGTCCTGGGCCTGGAGGAACGTGGGAGGGGCAGGCGCCTCCTAGCAGCCTCAAGAAATGTGGGCCAGGCAGGTCTGGCTACGGGCAGGAGTGTGTCTGGGACTCTGAACTGCCAGAAGCACTTGGCGGCAAGCCACATGCTGTCACAATGTTGCCTGGCCCCCATGAGGAGGTCCCGTGGGTGGTGGCGGGTGGTGGCTGGTTGTGGGGCAAGGCTGCGGGACTGGGACCGCTGGCTTCCTGGGGCCATCGAGGCTCCCAGAAGAAGAAATCAAGAGGATTTTAAGAAGCAGAGTTCTCTTTAGCCCGA
1 GCAGGTCCAGACAGCTGTGCCTCACCAGGAACTGGGCCTGTGCCACCTCTTGCACAGAGTGGCCGGGTTGTCATGGAGTTGACAGAGAATGCATGGAGACTGCCCCTCCCCAAGCATGCCCCCCCAC
0.5150942866461339 GGTGCTTCCTCCCTCCAGGAAGCTCCAAGCCCAGGGTAGGTGCTCCCCTCCCTGAGCCGAAATCCCTACACTGCCAGCTCACTCTGTCCCGTCCAGGGCGTGGCCTGCTGGGCACCCAGCACACAGCAAGTGTTGGGAAACAGCCACTGAACGAAAGTGAAAGAATGAGGCCTCACCTGTGCTAATTCAGCTGAACCTGACAAACCTGCCCGAAGCCCCCTCCCAGGTTCCTCTAGGAGGCACCTCCTCCCTGGGCGCAGCCCTTGTCT
0.5158258920525461 GCTGAGTAGCCAGGAAGTGGAATGTTTGTAGGGAAAAGAACTCCCGTCCCCTGGGTCAGCTTACCCATCTTGCGTAAGTCCAGTGATTAAATCAATAATGTTTCCATAGTTGAGGATTGAGTACGGTTTTTCTGTATTCCCAATAACAGGGATTTTTAAACATCATATTTCAGTCTTACTATGTAGCCTTGAAGAAT
0.1869379309566936 CTTTTCCTTCCAAAGTCGAAAGCTCCTCTGGCTTTGCACAACCTTTTGAGCACGACCTTCTCTCTCATCACGGTGATGCCTGTTGCCCCCTAGTGGTCACCAGCAAAGGGAGTGGTTGAGCCGACGATCCCAGGTTGCAACTCAGACCCAGGCCTGGCCC
0.1918116895183587 GGGGTCTCAGGAGTAGGGCAGTTCTGTTTTTAATAGGCTTTAAATGGTTTGGGCCTAAGATGGGCTGCCTTTCATCACCAGGGTGAGCTAGAGTTCAGGAGAATTTTGACCTTATTTGATTGCAAAACTTCAAAGTGATGGGCATTTTCAGTATGCTTACTTTTCAATGTGAGTAGAAAAACATACAAACCAGAACAGCTGGAATTTAAACTCTGGTAACACAGACCTCAAGTCCGGTCACCTTCCCTTCTCCCTGTCAGCCAGTGATCTC
0.6804764331278207 ACATCAGGACAGCCAGGAATTCAAAACACAAAACACAGCTTCCTGCATGTTGCACCCCAGGCGGCTCTGAGGCTCAGCCCAAGGAAGGTTTGGGGCTCGGGCCAGAAAGACACGATTCACTCTGACTTACACAAGAGGGGAGTGTACAAAAGTCATGCAGTCTCAGGGGAAGGCACTGGGCTAAACCCTCATGACTGTAAAATGAAGAAATAGGCATGAAGCATGACTAGGGTGTTTAT
0.6691707930866773 CTCATCCAGATTACAGGAAAATGCTGCAGGGGATTCTGCAGGCCCAACCCCCACCTGTCTGCAAGCCAACAAGTACTACTAGTAATTACTGTGTGTCAGCCTCCTAATGCCATCTAAATCTTAGCTTTCAACAGAATGATTGTGTAACTATCGCCTCTGCAGAAATTGCCTTGGAATTCTAAACTTACATTTCAATGGTCACTTAAAATTATTTATATGTTCTAG
0.4269421891689896 CTCAGGCGACCTGAGCTGGCCCCGACGTCTTTTGGCTTTGGAGAGGCCACGGATGCCCAAGGACAAAGCCCCAGCGGGCCTGTGGGAGGAGGTTTCTCGGGGCGCCAGTGATGCAACTTAGGCTTATAGTTTAACCGT
0.824913243708049 ATTAAGGGCATTGGGTGTTCCCAATTAGCAGGTTGCGCTGGTGGCCAAAAGTATTTCTCAATCACGTAGAGTTTTTCTGGGACCTTCCTTGTTCATGGCTGAGTAAAAACAGGCCCTACCATCTAATCATTTAGACTCTCCTTTTGTGCCCTTTCTGCCCCAGGGTCTTGGAATGTGAAATTCCTTGAACAGCC
0.3422054322357436 TTCCCCTCTAAGGGCAAGATGGTAACACCCTGTTCCTATGCCTGTAGTCCCAGGTACTCAGGATGCTGACGTGGGAGGATCATTTGAGCCCAGCAGGGCGAGGCTGCAGTGAGCCGAGATTGCATCACTGCACTCCAGTGTGGGCGACAGAGTGAGGACCCTGGCTC
0.9787695662224881 CCAGCCCACAATCCACACTTGAATTTCATCACCCGTCCCTGCAGCTTTCCTGGCGGGCCTGGGCCCTGATCCAGGATGGCCGAGTGCTGAGTCATGCACCCCTCTTCACCCGAAGCTCCTCCGCCCACACCTTGTACAGGCGCCTTCTTATCTCCCAGGTCCGAGTCTAACCGCAGCTCCCCACCTGCTCATCC
0.2783207343955402 TTTTTTTTTTTGAGACGCAGTCTCCCTCTGCTGCCCAGGCTGGAGTGCAGTGATAGATCTTGGCCCATTGCAACATCCGCCTCCCCTGTTCAAGCGACTCTCATGCCTCAGGCTTCCAAATAGCTGGGATTACAGGTATGCGCCACCACGCCCAGCTAATTTTTGTATTTTCAGGCTGGTCTCAAACTCCT
0.05805968656256509 TCACACACCATAATCTTCCAAAATCATTGAATTCCAGGTGTGACTAAAGCAAAGTTTCAGATTGCAAGTTGACACTGTTACCTGAAAGCTGCACACAACTGCTGAATCACTTTTTAAACAAGCATGAAAACAACAATTTCTCTTGTTCCCAGTACAGCTTTGAGCCACAAAAATTAATTACATCACCTAGGAAATTAGCCCTGCGTTTTGCATCCAAAGGTCAATGTTCAGACTGAGAAATGGTTTAGTGCTTCCAAACACAGGGCTCAGCACATAAATATTTATCATGCAGAGGACAGGAACTCATTGTACATGGCTTGTTTACCTTATCAGCCAGTTACCTGGGGCAAAGAGTCCACTGTCTGCTTCCTGTCCTAATTTCCCTTGCCCAAGACCTTGGGCAATTGTTTATTTGACAGAGTGTTCTGTCCCATTCCCTTTCTTCTGGGAATAAGGGCACAGGATACTAAACAAATAGATCACCTGGTCTGGGAACACC
0.5892646243908621 CAAGTGGAGCAAATCAGAATACAGAATGCCAAATGTTGCCTGGAACATGCTGAGCATAAAAATTACTCTCTGTTTATCTGAAATTCAAATTTAACTGGGTATTTGTATTTTATTTGGCAACTGTGTGACCCAATGAGGCTTTACCCAGCCCACGAACAGGGAGGCTGCAGCTGCCTGGGTGCCAACCATGCCTGGATTCTACCACCTTAGTTCTAGAACCTCGGCGGCCCAACACCCTTTGGCTCCAGCATTGCCCAACGTCTAGACCCTGGGTTCATGCTCTGGCTCAGCTCAGAGGGCAACCATGACCCTGTAGGTTCTAATTCCCCCTTGCCCCAGTTCTTCCAGAAGACCTAAAGTCCAGGGTTTGCTTCCACAAGTACGTTATG
0.1148831696823384 TGTCTGAAGATCTCAGCTGCAACCAGCAGAACCATAAATGCCCAACAGCCCACTGAGGCCACCTAAGAAGCCTGTCTCCACCCAGGTCCAGCTTCTCTCTTACACAATCGGCAACAGAATGACGCCACACAAGATCATTAAACATTTCAG
0.07813077660994895 TCACAGGATTAAGTGACCTCAAATCCTTGTGAACAGGGAGCAACAAAATCCGTAATTTGGGCAATGATACTGAACAGAGGTATTTCTGGCTGTTTCTCACAACCTCAGCATAGCTTCATGTCCAAAGATCTATTGTGCCATCTGTAAACAACAGAGCATTTGCTAAGCTGGGGAAGGAAGTCAGCCAAAACGTGAAGGCAGATTCTCAAGGCAAAGAAGGCCCTCTCTG
0.0009560454512640795 AGGTGCAGTATCATGAAGAAACTCAGGCAGCCCTATGAAGAGGTTCCATGTGCAAGGAACTGAAGCTTCTGCCAACAGCCAGCAAGAACTCTGCCAACCTTGTGAATGCACTATGTTGCAATTGGATCCTCCAGGCCCTATCAAGCCTTCAGTTGACTGCAACCTGAGAAGGGACCTCAAGC
0.7593016496947145 AACCTATTTCTCTATTCTCCTTTACAGCAAATATCCTCAAAAAGGTGCTATACTCACTCTCTCAAATTCTCCTTTCATTCTCTCTTAAACCCACTCCAATAAGAATGATGAAACAAACCCTGCCCTGAAACTAATCTTGCCAAGATCATCTGTCCACATTGCTAAATCCAATGATCAGTTCTCAGTCCTAAGCTGATTTTTAGCAGATTTTTGACACACTTCATCTACCCCTCCTGCTTGAATACGTTTTTCTCATCTGGCTTCCAGGATGCCATATA
1 CGAGAATCGAATCGACTGAACCCGGGAGGTAGAGGTGGCAGTGAGCCAAGATTGCGCCATTGCACCCAGCCTGGGCAACGGAGACTCTGTCTCAAAAAAAAAAAAAAAAAAAAGGAGAGCCAGCTGGACTCCAAAAGAGAGCCCATCTTTCTACCGAGCCCA
1 GGAAGAGAAGCAGGCAGGAGGGACCTCAGCTGCCTAACGGGGTGGCCAACTGCTGCCTTCTGGGAATGCAGTGTTGTCCATTTTCCAATCCCTCAGAATCCAGAAACTAGGGCCAGGCACGGTGGCTTATGCCTGTAATCTCTGTACTTTGGGAGGCAGGAGGATTGCGTAAACCCAGGAGTTGGAGACCAGCCTGGGTAATACAGCAAGACCTTGTCTCTAAAAAAAAAAGTTTTAAAATTAGCCAGGCATCGGCTGGGCAAGATGGCTCATGCCTGTAATCCCAGCACTTTGGGAGGCCGA
1 GTGGCATGCACCTATAGTCCTAGCTGCTCAGAAGCCTGAGGCAGGACAAATACTTGAGCCCAGGAGGTTGAGGCTGCAGTGAGCGGTGATTGCGCCATTGCACTCTGGTCTGGGCAACAGAACGAGAGGCTGCCTCAAAAACATAATAAAAGAAAGAGAATCACGTCCAGTGTGAAGTTCGTACTCTGGGGAAGGGTCCTTGGTTCTAAGTAACAAGGACACATAGGGCCCCTCTTAGGGAAGCAGGATGTGAGGGACACAGGAACACACCTCCCCAAGTCCCCGTAGGAAGAGAGCAGACTTGAGATCTGAACTCCACTTACTGAAGGACTATTATGCAATAAAGGGAATAGACCTAGTCTTTGTGGCTCCAGAGATGAGGACGACTACAGAGAGCATTCCCAGGGAGGCCGAGGGCATCTCAGTTTCAGAGAAGAAACCAT
0.9492961441077001 AGTACATTATTTGGAATATAAAAACTAAAATGTAAGTAAAGCATTTTCATACAAATAATTTCAACCGCAACAAGGCAATTGGCTTCTGATTAAGTTGGCAAGAAGAGGTAATGAACTCATTCCGATTGACATATTTGGAGATTCTCTTGCCAAATCCAATTGGCAGCTTCATAATTATGGAAACGTCCATGTTATTTCCACTCAACCAGGGTTAGGGCTGCTGGTATCTGATTCAATGTTTACTTCATG
1 GTTTAGGCATTGGAGGCAAAGGCAGATTCAAGAAGAAACTTCCTCTGCCCCAGTGTTGACAACCAGACTGATGGCCACGCCCCACGCTTTCCCAATAGGAGAACAATGAGACTGAAGGCAGTTGATGTGAACACAAGAATCAACAACGTAGAGGAGACACAGTCCCAGGTGTAAAGAGGGGAGCTGTCTCTCCCTGTGGCCTCAACAGGA
0.2617164166302515 TTTGGATAGTCGCTGAACTCTAGAACTGACGGGAAACTTAGAAAAGGTACGGTGCAGAGGTTGCAAACCGGCTGCCCAGAGGCCAACTTGGCAATCAGATGTGTTTGTGTGGCCTATACAGGATGTCCTGAAGGTGTGAGCCAACGTTTCAGAATTTGGTAGCTTTCACAAACATTTTTTTAAAAATCAGCCATCTGG
0.3782635479114884 AGCGAAACTCCATCTCAAAAAAAAAAAAGAGAAAATAAACTGATTTCCTTGGGTGCTTTACTACTGTTTCCTAACTGCAGCTGCAATCGCATCTACATTCAATCTGGCATCAGAAACTGGCCTCCCTCCAAGGCAGGACAACAGCCCCACAGACCAGGTTAAAATTCTGTCGCTTGCAAAACTGTCCCAGGTTCCAATCTTGCTTTAGTATCTTAGAGGGGAAAGA
0.7377527144678042 GCAAGGCCTAGGGCCTCGCGAGGCTTCTCTGAGGAGCGAGGACCAGTCAGTCACAGCCAGTTTCCACTGCCTCCACGCTCCGGCCTAGGCCAGCCCCTCTCCCCAGTCATTCGCTCGGGGCTGGCTCCGCCCCAGAACTGCGCAACCTCCCCGCCCACATCCGCGTCCTAACCAATGAGCGCTCGAAATTTGGGTCCACACCCCCGTCACGCCCCGCCCCAGACTCGCGCGCCCGTGACGTCACGGTCCGGCCCCC
0.6306116752842839 CGAGTGACAGCCCTGGCAGCTTTCAGGGTGACTGGCCAGACCAGAAGCCAAGTTGTGGGGGTTGGGAGGCTGCTTGAGCAAGCTAGTCATTGTTCATGCAACACAAAACATTCCCGCCCCTAACGCCAGAATGGAGCTTCCAGATCCCTTTTTTTTTTTTTCCTTGATTGCTAAATGAGCTTCCAAGGTAAACTGCCTTCAAGATTCCATTCTTGTTGGGGTGAAATTCCGTGT
1 TACTGTTTGTTCTCCAAAATCCAGCTTTCCGTTGAAAGTCAATGAAACATCTCTAAAATGCAGACATACCCAGGTTCATTGGGAACACAGTCACTGTGAGTATACATGATTATGTCCTGCTAACCCTATTGGGAAAGAATGCTGGGCTTGGCCCTAGTAAGTAGACTTGGGTTAAAG
1 TGTATTTAATAGAAAAGGATCTAAGGTCCTTTAAGGGGGCATGGCCATCACTTGTTTGATTTTCAGCTCTGCTTCTCCTTTGCCCTCCTTTCCAAAGCTGGTGGAGGTAGGATTGCCACAGAACATGCTGGCAGCCTGGGGGAAAAACTTGAACTTTTCTTTTTTTTTTTTTGAGACAGAGTCTCGCTGTGTCAC
0.7325179563798568 ATGGAGAGGAGATAATAGGATCTTTTCATGTGATGTCTATATAGCAAGGTGCTATGCCCCTGGTAGCTTCTAGGGGGCAGCAGCCGCTTGTTGTTCTGTCTCTTGCTGGCGGGGAGAAGGTTGGACAATTGAGCAATTTGCTCTGGACTCCAGCTCTTAAAGTGGTGCCTGCAGGTCTCCAGGGAGTCACTGGAATC
0.8996317785034322 ACAGGCTGCTCTGGGAGCCAGGAGTCGGACCTAGGTAACAACAGCCTGGAAACAAATCCTGGCTCTGCCCCTCACCCCTCCCTTTTTTTTGGATCTTGTTCTGTTGCCCCGGCTTCAGTGCAGTGCTGCAATCATAGCTCACTGCAGCCTCTACTTCCTGTGTTCAAGCAATCCTCCCACCTCAGCCTCCCAAGTAGCTGGGATTACAGGCGAGCACCACCACACCTGGCTAATTTTTTATTTTTGGTAGGGATG
0.9803890146468547 AAAGTCTTTCCCCTATTCTTCTAGAGTCTCCCATCCAATGTTCCCTCCTGCTCAGTGCTTGGCAGGTTTACCAGTGTCAGGGGCCAAAGGAGGGATTGCATTACCCTAGCAGATGGTGTGCCACGCTGAAAGAGGGTGTTGTCCACGTGAGTAGGAGGTGCTACAGTCTGAAAGTTACAGACTATGACTCT
0.6354399439842534 GTGTCCAGCAGCTCCTCCCAGTAGCCCTCAGCCTGCAGGTCAATGACCTGTGCTTTGCGACACCACCTGGGAGAACTGGAGTTAGGACAGAGCGAACGCTCCCCCCTTCCCACCTCCTCCACCCCCTTCTCCTTACTCAAAGGAGGAGGCGAAGTACTTCTTG
1 TTTATTTTTTTGAGACAGAGTCACACTTTGTCCCCCAGGCTAAAGGGCAGTGGTGCAATCTCAGCTCACTGCAACCTCTGCCTCCTAGGTTCAAGCAGTTGTCATGCCTCAGCCTCCCAAGAAGCTAGGATTACAGCCAACACACCTGGCTAATTTTTGTGTTTTTAGTAGAGACCAGGTTTCACAACATTGGCCAGCATGGTCTCAAACTCCTGACCTCAGATGATCCAACTGCCTCAGCCTCCCAAAGTGC
0.4709989019910558 TGGCCTGGCCACCCTTTCTGGGACTCTTGACATAGGGGTGCTGGCATGGGTATCTGCAGGCAGGTAGGAGTAGAGGGATTGAGAAACCTGAGATGGAGTTTGGTCCCTGAGCTGCTGTTGCCACCGTGTGGCTTTGAGTTGCCTTGACCGTAAGCTACTAGGTTTTCAGTTCCTGGTTTGCTATTGGAATGGCTTAGCTTGGTTCCCTAGACTTCCCCCAGGTGGAGCTG
1 AGGACTAGTGGGGCACAGACTTGCTCTCGTGGGTCCTGTGTCTGGTGGACGGGACAGACGGTGGCGTCATCAAATCAGTACACAAGGTCATTCCAGAGTCAGATCACGCTGTGAACCACAAGGAGTCTGAGCCAGGTACTGTGGCAGAGTGGGAGGGGAGGGCCACCACTAGCTAGGTGGTCAGGGCAAGCCTCTTTGAGAAGGTGCCCTTTGAACTTGGCCTGAGTGAT
0.9639891549489191 CTGTCCCAACTGCCCTTATGAGCTTAGCTGAGCTAGTAAGCCTATGTTCTCATCTGTGGTTGTGGAAAGTATTCCCTGCCTGGCCTTTGTCACAGAGCCATGGGTGTGAAAGGCTGAGAACCTGCCGGGCATTCTTACGTCAGAGGTGACCCTGCCATCCTGGCACCTGGCACAGTGGCTCCCCGTAGCA
0.7659845920157539 TATGCAAATACTGCTACTCAGTGCTCTAAATGATGTTTGTGTAAAAGCGGATTTCACTACATCCCTGCCCGCATCCTGTTGACTCATTCACTGCTTATCACCGCTCTCTCCAGAACCCTCTGTGTACTAAGCCCCATTACTTAACAGCTTGTCTCTTGACCTCTCCATGACCCTGAATGAGGCAGGCCAGGCCAGGCTGAGATTA
0.6293090343827659 TTGCCCTCACTGACTTCATGACAATGACTCACAGAATCAAAGGGTAGAAGGGACCTAGGAGGTTGTCCAGAACCTAACCTCCCCCAGTGCAGAAATCTCGACACCATGTTTGCTTAAAGAGCAACCTGTTCCAAAGGGCAGGAAGGTGTTCCTCTTGCAGGGCCCAGGTCTGCATTTTCGAGCCCTCCCCACGGGCCTAGCATGGGCCTC
1 CCAGAGCAGATCTCTTACTCAGCCGATGAGTATTTCGACACACCTGTTCACTCCCATTTATTTAAACAGATACTGGAACCCAGAGGCTATTTTCACTGAGGTTATCAAAGGAGCTGGGTAGAGAAGTTGATAAATTGCTGAGTAATTACATTGTCTTTGTTGGTTATAGGTCAAAGTCCTGCTGATAATGCATTTTGAAAGCCCAGTGAGGAAG
0.1329320953108025 CCATCCTGGCCAACATGGTGAAACCCCGACTCTATTAAAAATACAAAAAAATTAGCTGGGTGTGTTGGTGCGCACCTGTAATCCCAGGTACTCAGGAGGCTGAGGCAAGAGAATTGCTTAAACCTGAGAGGCGGAGGTTGCAGTGAGCCGAGATTGCGCCATAGCATTCCAGCCTGGTGACAGAGCGAGACTCCGTCTCAAAAAA
0.9759638586888817 TTTTTTTTGAGACGGACTTTCGCTCTGTTGCCCAGGCTGGAGTGCAATGGCGCAATCTCGGCTCATCGCAAGCTCTGCCTCCAGGGTTCACCCATTCTCCCACCTCAGCCTCCGGAGTAGCTGGGACTACAGGCCCCCTCCACCACGCCCGGCTAATTTTGTTTTTGTATTTTTAGTAG
1 CGCTTGCTTCCTGGCGCTCCCCACCCCCCAGCGTCCCTTTGGCTCCATCTTTCCAGAAACTTCTCTGAGAAACTCAGCAAAAAGCATCCAATTTCGCCACTGCTTCCCCCTCCGCGCATGCGCGAGACGCCAAGCGGAAAGCCTTTGGCGCGCCGGAGTGTGAGAGTGGTGCGTGAGCGCGCGCGCGCTCGCCGTGCGGGGGCGGTTCTCTCTGACAATGA
1 TCTCCTTGAAAATGCAGTCCCAGAAATGCACAACTAATGCTTTTGTTAAGGGTCGTTGCCCAATATGCTAAATTGTAAGAAACCATCTCCCTCTGCTGGTAATATGGCATAACGACAAAGCTTAAATATAGGAGTCACTTGCATTTAGGAAAAACTATTGCTCCAGAACGAGGTTATGTCTGACAGTTTCTGTATACTTT
1 AGTCTGTTTTTGAAACTCCAGAAAGTCAGGGGAAAGCGCGAACGCAGTCCCCCACTACCACAAATTATGCAGTCGAGTTTCCCACATTTGGGGAAATCGCAGGGGTCAGCACATCCGGAGTGCAATGGATAAGCCTCGCCCTGGGAAAACCACCTTCGTGATCATGGTATCTCCCCTGCCAGGTAAGTATGAAACGTTGTGCCTCTGCCCCGACACAGCCTCATACGC
0.1284301720412503 GGATCTTACATGGTACAGAGAGGATTCTTGGAAACATGATTGAGCCTCTTGGAGAAAACAGGTCATTCTGTGCCTGTGTCAGAAATCAATAAATGGCAGTTTAACTCTAGTCCCACCCCCACCTGATTGCAAACATGGAAAGTTGCTAAATACTTTGGTACCTCTCTCTTCCAACTTTAACAAAATGTTAAAATACCCATTTCTGTTTTCC
0.5263676194928394 AGAGAGGATTCTTGAAAACATGATTGAGCCTCTTGGAGAAAACAGGTCGTTCTGTGTCTGTGTTAGAAATCAATAACTGTGAGTTTAACTCTAGTCCCACCCCCACCTGATTGCAAACATGGAAAGTTGCTAAATACTTTGGTACCTCTGTCTTCCAACTTTAACAAAATGTTAAAATACCCATTTCTGTTTTCC
1 CTGGAGAGAACACTGTCCTCTCCTGAAGTAAAATCACTTCTACCTGACCACGGCACTGCAGCTCATGGGCAGCACATGCTGTGGATATTTGTTCATTCATTTAACAAATATTTATTTAATATCTGTTGCATGCCAAGCAAGGCCCTGCAATGTTTAGGGACCTTGACATCTTCCCTTCACATCTGAGTCATAATACAAAGAGGACTCTCTGACCCCACTGAGCTGGCAATGCCTCGGGATTTTTACCTGTTGGATCTGGCAGCTC
0.1487936904347732 TGACCACTAAGTAGGGAGGCCTCTCAGGGGGCTAGCTGTGCTAGGCCCTTGCAACTGACCTGTGGGACCTGAGGCCTGGCCCCTCATGGCTCCTGTCACCAGGTCTCAGGTCAGGGTCCAGCAGGCCCTGAGCTGACGTGCGGAGCCAGAGCCACCCAATCCCGTAGGGACAGGTTTCACAACTTCCCGGATGGGGCTGTGGTGGGTCACAGTGCAGCCTCCAGCCAGAAGGATGGGGTGGCTCCCACTCCTGCTGCTTCTGACTCAATGCTTAGGGGTCCCTGGTGAGTGCCCCCAACCTTGATCCCCATCTGCCTTCAGGAGGGGCTTGGCCCCATTCTCCTATTCTG
0.3419450447223741 GGATTACAGGCGTGAGCCACTACGCCCGGCTGGTTTGCATCATTTTTCTATGGGTGGTGCAGATCCAGACGCCTCTAAATGGTTAGGCAGGGACTTGTTCATGATTTTTCTGGGTCGAGCCTGGGTACAGCTGGGCACAGTAGATAAATATTTGGTGAAGAGAGTGGAATTGCTTCAGAGTTCCCAGAGGGCAGCAGTGGGGTTAATAGCAAGAGTTAAAACAGGGAACACGCGAAGGCCGCAAGAGGCGGAGACCACAAGGTGGCGCCAGATCCCCATCTTGGAAGCAGGGAGGCGGCGCTGGCCG
0.3818170075772241 AAGCTCTCACAGTGGCAGAAGGCTTTCTGCCTGGTGGACGCTGTTCTAGGTGCTATATAGGCAAACCTGCATTTAATTCTCCTGCATGGTTGTATTCCTATTTCATAATCAGAGCCAGGACTCAAATCTGGGCAGTCTGACTCTGGTGCAAAGGTCGGCAGCCTCCCAGGAGGGAACCCAGTCAACCAGGCATGTGTTTACTCTCCCGTGCTCCAGGACTTTTCAATCCAACAGGGACTTCCTCATTTGGGTAACCAGGTGAGCCAGAGACTTTGGATTTGGTCAGCCCTTCATTCAAAACATCCATGTA
0.2229366582143511 GAGGAAATTATAGGAGCTGTAGGAGTAAAGGGCTTGGATTAGCACTGGGCCCTTAGCACGCAGTTAACACGTGTTCGGTGTCTGATGTTGATTTTGGCACTGACATTGGGCAACCCAAGGAGCCACTGCATTTCTGCTGTGCCCTGTGGCTGGCACCTGGATTCCACTTCCTCAGTAATGCTTGTCATGAATGGGCCAGGTCAGCAGGGACAAGAAGAGCAAAGGCAGCACCCGGGCACTTCACTCCCACCCAAG
0.2331124867149141 CTCTAGGGCCAGATCATAATGGCCTGAATGTACCCAGCACTTCTTACATGCTGCGCTCTGAGAGCTTTCCCTCCCCAGTGCCATTCATCCTTGCAACACTCTCACAGGACAGGCGCTGATACAATCTGCATTCTAGAGATGTGGGAACTGGCACAGAGAGGACATGACATCAGCCCAAGGTCACAGAGAAAGATGAGCAGAGCCAGAGTTAACCCCAGCTGGCTTCCAGAACCTGTGTTCTAAT
0.3723756697116303 TGACAATGTCTGGGAACTTGTGTTTCCTGTCAGGGCCAGGGTTTTTTTCGTAATTGTCAGGGCCGGGGGTGCCCCTGACATGCAGCGGGTAAAGGCCAGAGACGCTGCTAAACATTCTACAGTGCACAGGACAGACTCCACAGCAACCAAAATGTAGCCCCAAATGCGAATAGTGGTGAGGTTGAGAAATCCTGTCTAGGGCATGCGGCCAGCTGCTGTATCAAAGGGGTAACTTGAGCCCAGGGAACCAGCTGCAAAATGCTCTTTCTCTTTCCCCTCTCAATT
1 GCAAGTGTGGCCCCAGTCTCAGCCTAGAAGAGGAACCCCTCTGTCCCATGTCCTCTTCCTGCGCCCTTTCCTATCCCCTCTTCACCCACAGAGGACACACAGCAGTGTTGCAACTCACTTGTGCTCAGAGCACCACCATGCCATCCCTTGGGGGAAGGGAGAGGGCCACTGATTAACTCAGAAAGGGCACAGCTCATCAGGAAAGACACTGCCACTAACAGCCCCAGGGGTCAAGCAAACAAACCTCAAATGGGAGGGGGGGCTGATCCACAGGTGGGCAGCCCCACCAGACTAGGAACCC
1 GAGGGAGGAGGGAAGAGTGACAAGGACCCAGCTAACAAAAGACACGTGGGGCTTGTGCAACCAAGGATGGGTAACAGGGCAACGGTCACCTGTCTGTGCAGAGCCGTCATGGTCCTCACTAGCTGGGAAGGGGCAGGTTCCAGCGCAGCTGAGGCAGGTAATTAGACTGCAAACACGCGCACCAAAAGAATTAGTGACTAAATACAGCTCAAGGGGATGGACTCATTACTTAATCCC
0.9780379463152208 TACCCTTGTCCAGACCTAGATACAGGGCAAAAAGGCATGCCTATGGGAGCCCCAGTAAAGTCCTTATAAAGTGAAGACTTCTTGGTGAGTCAGCCCGAGCCAGGCGGGCCCAGCTCATTCATTGCGAAAGTATTTTCTTTTCAGTGCTTTTCTGCAAAGCCTTTCACTGCCGCGGAGGTGAAGTCATCGGCTGGTAAACGCTCTGCCTTGCGGTAAATTTCCTCTGAACTTTCTGCTTCTGTTTAACTCGCCAAACCTCAAGGCGAGCTGGCAGTCAGAGTC
1 TTTGGAACAATGTGGCGGGAATTTCCACACTGCTGAGGGTTGGACAAACAGCCTAAGAGCTTCCGTTTGGCTCTGAGGTGCTGGGATTTCAAGTTGATTTATGTAATGGGCCCCCTGCCTGCAATCTCAGCCCCTCCAATCCACTCTCCATGCT
1 ACTGCCTGGGACAATAATGAATGCTAGTCTCCTAAGTGAGAGCAAAACAGCTCCTGTGGGTTCAGATTGCACACCCGCCATGGAGAGACTGTGCCCAATAAATGGCCACTCTATTTGCTGTGGATGCAGCATATGGATACTGGCCAAGCCTGACTTATCAACTTAGTATTCTCAAGATCTAACTTTTGATTTCCAGCAGCTAGTTAACTATTAATTCAGGCTCTTGGGAAATACTGGAAAGTGATATGTTAGGAATGGGGGCAGGGGTTACCTAGGAATCTAACAAGACGCCCCCTCCCAC
1 ACAGTTTGGGGGCTTTTGTTGTTGTTGTTCTTAATTTGAATTAGTTGTCAACATTTAGAAGATATTATACTTCACAATCAGATTTCTAAATTTTCCTACGGTTAGAAGATGTGGCAACACTAGGCCTAAATACAGAGCACCAATCAGGTGGGTAAGGCTGCCCCCTCCAGGCAGGCCAGGAGCACTGCAGCTCCCATCCAGCCAGTGTTGCTCATGGATATTTCATAACCCGCCTCATAGCATTTTCTTTGTTGTGTTTTTTTTTAGACAGCGTCTCACTCTGTCACCCAGGCTGCAGTGCAGTGGTGCGATCACGGCTCACTGCAGCCTCTACCTCCCGAGGCTCAGGTG
0.8998063862823662 CCTGGGCAACAAGAGTGAAACTCCGTCTCAAAAAAAAAGATGTTGCATCAGACCCAGGGACCTCAAACACATGGGCTGGCCAGGTTGTGGAGCCCGCTGATTGGCCACGGACAGATGGGGGGATGGTCTCGGCAGGGACTTTGAGATCTGCTTCAGATCTTCCCTGGGGCAGTTTGGAGGGTAGAAGGCAGACTCTGTGGCTCTGTGCAGCCTTGGCTGAGTTACTGCAACTGAACCTCGGCTG
0.2152366514483197 ATAAGAAATCAGTCAAATAAAACCCCACCATCTAAATATCTGCTACAGTGTTCAGACATCCGACGGTATTATGAAATCATCTGCATACAGGAAAACTTGGCCTACTAGGCAAACTCCAGGGCAAAGTCTGATTTGGAAACCATCAAGTGAGATGTAACCAGTACCTACACTCCAAGTTTGGTAGAGTAAACACACCATCTACAACAATGTCAATGTCAGAGTACAGGTGCCCACTAAGTAGGGCAGGGAGCCCCAGAAGATGTCTCAGAATGGGGCCACAGGAG
0.1318560786220476 CATGTTAAGTCAACAGAAAAGAGGAAGAAACAAGAAAGTAAAAGCATATAATCTAACAATTTCACAACAAAGGCCTCGCTGGCCTTCTGCCAACCTCCAGAAAACAGTGCTGGACTCTGTGTACCCGCAGTGTGGCTGGGACTGCAGACACCAGGAAGACCTTGGGACCTGTGGAGCCTGGATGGTTCAGTTGTCTGAGCCAAGGAGGGCTGGATTAGG
0.1506779783085565 GAGCCGCTTCACCCAGCCGGCCAGTGCCTCTCTCTCTAGCCAGCTTAATGGGAAATCAAATTGTCAGAAGGTAGCTGAGTGAGGTTGAAATCAGACCAAGGGAAGTTATTTGGGGTTAGAGCCTAAAAAATAACCTTTTAACATCATTGGGCAACCACCGTTAAGAAAACATATTGGCTGGAACAACCCAAGTATTACAGAAATAAAGTAGAATGTGAAAGTTCATCTTACTGCAACCCCTGAGAAATGACCACTGTTAACAGAGCATT
1 AGCTTGCAGTGAGCCGAGATTGCGCCACTGCACTCCGGCCTGGGTGACAAAACGAGCCTCCGTCTGAGAAAAAAAAAAAAAAAAAAAAAGACACATTGCCCTGCCAAAGTCAACCCCCCTAAAACACCCATG
0.1529934875456668 AGGTCGGGCACAAAGGCAGCAGAGGCACAGCAATGGACTGGCGCCTTCCTTTCCTCCTCTCCTGCCTCCCCCTGGGGCTGGGCATTACACAACACTGGAGAGCAAAAGGCAGGTACTGCTGACGTTAACTGCAT
1 AAGACTATATACTGGTCATCAGGCAGCACCTGTGGGCATTTTCTTATTTCCCCCCACTGCTCCCATTTGCCTGGAATTCATTATTAAATCTAACTCATAGTGGCCTTGCCCAACACAGGGGCGAAGTTCAAACTACTGAAAAATGGGTCACTCAAATCGCCTGTGCAGAAGAATCCCAAATAATTTATGGAGATACTCCTCCCTCAAGGCGGTGAAAC
0.733410003967475 TTATTAAAATGGACCTGGAGCCTTGGCCGAGGGCTCCCATACTCCCTGCTTCCCAACAGAGGACAGCCTTAGGCCTTAGCTGACCACTTCCAAGCCCTGCCCCCCTTCTAAACCCTTACACAATGACTATCAGAGCCGACAGGGCCTCAAACCAACAAACCA
1 TTCCAGTAGCGTGGCACCACCTTCTGACCCACCCCTCAGTGTGTCCACCAGTGAGAGTGGTTCCTAAGGGAGAGTGTGAAGCACACGTAGGCACTGTCTTACACCACACCTGCTGAGTCCAAACCATGGGAGGCTCCTCTCCTAGACCCTGCATC
0.1818965815458478 ACAAATACTTACCATTATGTTACAACTGCCTACTATTCAGTATAGCAACATGCTGTACAGGTTTGCAGCCTAAGAGCAGTAGGCTACACTATACAGCCTAGGTGTGTAGTAGGCTAGAACATCTAGGTTTGTGCAAATACTCTTTTGTTTGCACAAGGAAGAAATTGCCTAATGATGCATTTCTCAGAACAAATCACCGTCATTAAATGATGCATGACCTACATTCCCTAAGAGTACAAACCACATTCCAGTATTTATCTCTTCATGAAC
1 CAACTTATAAAGACTTTAAAATAAATGTGAGTGGTAAAAATCAGAAACATATAAATATTTAGAAAAAGGGCTGAGTGCAGTGGCTCATGCCTGTAATCCCAGCACTTTGGGAGGCTGAGAATGGCTTGAGCCCAGGAGTCGAAGCTGCAGTGAGCTATGATTGCACCACTGTACTCCGGCCTGGCTGATAGAGGCCCTATCTCAAAAAAAAAAAAA
0.6998529545253669 AAAGTGAGACATGTAACCCTTCCTTTCACATGACCCACAGAGGACACTGCAGGGTTATTGGCCTAATTTCAATATATCTCAGGAAAGAGCAAGGTCCATGGGGAGAGAGGGGAATGGCCTTTCAGTGGAGCAATCAGCACACAGTATTTTTTACTAGGTTTTCCTTATTACATGAGCATGGCACCTCAAA
1 CCTCCAGCCTTTTTCCGTTCTTTCTCTAAAAAGGGGAAAACAGCCTCCCCTCCCAGAGCTGATAGATCTGTGCCTCTTATACCTGCTTGCCCAATAACCCTGAGTTTCTTTTCTCTTTACCTTGTCCTCTCTGCCCTCCTCCTGGTAGGAGGCCCTCAGGCAGGTAACCTCTGAGGCTAATCTTTAACATTTCTGTGACTACAAAAACTGGAGCTGTGCTTGTGAGATCCTCAAATAGGGTTCCACCATTAGAGCCAC
0.08996685637307228 CTGATGGCTTAAAAACACGAGTACAGGCCTTGCAGTTAGATTGAGGTGCAAATTCCAGTCCCTCTACTTACTGGCTTAGCTGTGTGACCTTGGACACATGGCTCAACCTCTGTGAGTCACCTTTCTCATGCTTAAAACGGCAGTAAATTACCTCTACCTGCCAGGGTTGTTGCAATGATCTGAGGAGGTGCCTTATGCAAAGCACAGTTCATGTGCTCGGGGCAAACAGTGGAAAAACAAACCAGGAAATGCTTCTCTGTCTGTCTGTGCCTCCTACCTGCCACAGGAGAACTGAGGGTAGAATCTGTGTACCCTTCTCAGCA
0.9638950574607524 ACACAGGATGGGGGTGGGGTGGGCGGATGGTGAAGTAAGTTTCTAAGAACAGCTATGGAAAGAGAAACAATTGGGACATGTGTCAACACTGTTACAATATTAGTGCCATCCAATTCTTGGAGTCTAGCACCAGATATGCACCATGCATGCTCTGAGTGCTGCTCCTCTCACTGAATATTTGCAGTCTTCCTGGGAGGGACTTATC
0.4257149693491769 CCCACCTCAGCCTCCCAAAGTGCTGGGATTGCAGGCAATTCTTTTAAATTTAATTCAGCTGAAGTTTTTCTTTTATCAATAGGGCTAATAATCCCCACCCTGCCAGTATCACTAGGATGTTGTGAGGATCTGACGCAATTTGAGTTACGGGAATGTTGAGAAAGAAAAGGGCGTAATGGAGTAACGAGATTAGTTTTCCTGTTATGGTGAGGTCAGTGGCCTTTCTGGGGTCAAGAAGAGGGGACTTTCCTTGGCACCAAGAGGGTAAAAGTGTCTCCTCCTGACCTTGGGTATTTTGGACCATGGGATCTGAGGTGTACCAGGAGACAGGAAGTGTGATCAGAAAA
0.822752806021968 TCACCCACAGGGCTGAGGCCTCACCACATTTGCTGCAATACCCGCTGCCCTTGGGCTCACGGCCATCCTATCTGCGGCAGCCTCTGTGTGAACTCTGCCCCGTGACCCCAGCTGGAATGGAGGATGCCTTCTCCAGCAGCCTCCCATC
0.2578835356723191 CAACATCAAAAATCACAATTAAAACCAATTTATTATATCTACTAGCAACACATTAAAAACCTACTTTTCCTGAGTTTTCAAAACTTTGTCAACAAGTACTTGCACAATCTCATGAACTTTAACTTTATGAGAGAAATCTGAAACTTTCCATTAGGACTTTGCTGAAAGTGATTGCTTGACAGGAGTGGTTTTAGGCTAGTGATCACATATAGGGATTTTGCTGGAATCATATTTGCT
0.5703760631481555 CCTGCTTGACAGCACAGGCTGGAGAGGGAAGCGGCAGCCGCCCACTCCCCAGGGGAGACTCGGAGGCCGCGCTGGAACTTTGAGCCCCGCCCACGCACTACATCTCCCAACAGCGCCTGCGGCGGCGCGGCTCTGTACGCAATACAACTCCCGAGAGGCCCCGCGCCGCCCCGCGCCGGGGCGACTCGGGAGTGCGGTC
1 TCCTTGTAGCTAAGAGTAACTGGGGCCTTCCCCCTCAGAGGTTGGCTGTTTTCCCTCTTTGGGGATGGGTGGATCTGTGTGTAAATGGTTTCCTGGAAATCCCACGCCCAGCAGACTACCCACTCACAGCCAGGAGAGTATTTCCACATCTCAGGCTGGGTGCATGTGACTCCAAATCCCATGTAAAGGAAAGGGCTTGCTTAATAGTTCTGCTCTCAAGTGGGGGCCAGCCCTGAGCAGAGAAGACAAAGACAGAGTGGGATTAATACAAACTCTGCTGCTTGCTGGCTGCATTTATTCCCCTCTCTGAGCCTTGGTCTCCTCATCTGGAAAACGGAGATTCTTAT
0.637701854093364 AAGGCCAGAGATGTGATGGCAAGAAGCAAGTCTCACATGCCCCAAGCAGGCTCAGCCTAGATGGGAAACACTCCCCCTTTCAGTGGGGCATGGAAGTTGACAACCTCATGAAATCCTTGCGAAATGCACAGTTAACTTGGAAAACACAGAATGTCGAGCTGGAAGGGGCCCACAGA
0.1542212474544634 GCCCCCTCCCACACCATAGGTCTCAATGGCCATGTTTACCCTGCCGGTCACTTTCCCTCCATGACCTCTGCTGATGAAACCAGGGGTGGAGACCCAGCCACTGGACCCAATCCAGAAACTGGGCCGGGCTGTCAACCTCTGCCAGGAACTTGGAAGT
0.5501264802726619 GGTAGAATCTGAGATCCATCAGCTCTAGAGTTTGGGATCTTGAGTAACAGTTTCGCCACGTTTAACAAATGTCCGGGGCCTGGAACGGAGACACTGGCGCTTCTATCGCGCCATCTGCTGGCCAAAACGTAGAGCTCAACTGGCGACGGAAAGGCGTTGGTTCCCAGGCTTGACAGGAT
0.5148292101782832 AGGAAACCGAGGTTCTGGGCACTGATTTCATTTGTTTGAAGTCACACAGCTTGTGAGTGGTGAGGCTGGAATTTGAGCCCAGATGGGCTGAACCCAAGGCAGAGCTTGCAAAGTTGTGACATCAGTACAGTGTGTTATTGTACCCGTCCAGGGGCCACAGC
0.7553868520166787 CAGCTCCGGGAGGAACAGAGCGAGCATGGGAATGTTGAGATAAAGGGCGTTGTGCAACATGGTGAACAATGTCCTCAGCTTCGTCAGTGACACTGACACATTCTTCAATAACTATTTGTCACATCCACCCTCTATAAAAACTAGGGTATAACATCAAATCACAACTCAGCAAAGATATTTTTGCATGTGACA
0.4843382753022711 CCAGAGCAAGTATCGCCCTGATTTGCTGGTGACTCTGCAATAATCACCTCCCTCAAACTTCCACACCTCTCCCAGCAAGGCAGGAAGGAAACACCACGCCTGGCCTTGGGCAATCCCAGGGACCAGCCAGGATTCCATTAACCCCAGAAGTGAACCCTGGATTCCATTGGTCAGGCC
0.1235200576061029 TAAACTAGGTTTTCTAAGTGAGCAGTTCCTTAATCTTGACTTAGTAAAACATTAAAATATTTGGCATCTGCCATTGACCCCTATTCTGCAATATTGGAGTTAATCCAGCAGTTTCTGATTAAATACCAGTATTATGCAATTCAAGAATTACCACAGGGGTGTGAAGGGAAGAGGGTGAGGCTAGTGAGGAACACCCAGACAGCAAAGTAAAGAAAATACTCCT
0.1125704433466987 CCACCAACCAGATGTAATAGCTGCTGACACTTGCTGTATTTGTTTTATCTGTCTATTCCAAAACATTTCAAAGTAAGCTGTAAACATTTTGACATTTCACTAATTCAACATTGTGTCACCCAGGCTGGGGTGAAGTGGCACAATCTCGGCTCACTGCAGCCTTGACTTCCTAGGATTAGGTGATTCTCCCACTTCAGCCTCCCAACTTGATGGGACCTCAGGTGCA
1 TAGATAACGTTATCGTAGCACCTAAGATTGGTCTTTTGAGGCATTTTTCAGACTTTCGCATTCTGGCAACTAACTGACCCCACCCAGACTCGTGACCCATGACCCAACCGCTTCTTCTGTCCCACTCCTCCCCCAAGAGGCGGACTCAGCTGTTGAGGAGTGTAGTCCACACCCCTGTGATTGCATCTCCAACCAATCAGCAGCATCCATTCCCTAGTGCCCTGCCCACACCAAACTATGAAATACCCTAACCTCTGAGCTGACCCTTCAGGAAAACTT
0.2516793582817518 GGCGAATTCCACAACCTCCACCTCCTACGTCCGGATGCGCACTGAGGGACTACGTTAGCAGACGCGTCAAAAGTACCAGAAGCTGGCCCCCGGCGCATGCGCAGAGATGTTCCGTGGTGGGCGCGGCTCTTCTCTTGCCCAACCACCGCCCTGCCTCCTCCCTCCCCAAGCCGCGCCCTGTGCCTCGAGCGCTTGCCTCCAGGGTGCGCATGCGCGATGGGGCTCCAGGGGGAGGTGTTTGATACATCAGGGTGTCCCGTTGCCCTTGGCTTCCCCCCTGATCTGAGATAATTGC
0.7397839544060372 CCACCACCCCAACACTGTTGGGGGGCAGGGAGGGTAAAAGGAGCTGAGGGAGGTTAGCCCGGAGAAAACCTGGCTGCCACACCTATGTCGGGAGCTATGCCGAGGCTTTGCACACGTTACGTAATCCTTAGGACAGCCATGTGAGGCCATGAACTGACCTGATCGAGATGTGAAAAGCTAGGACAGCACCCCGGGGCTATTTCACACAGGCGGGGCCTGCTCCTGCCTCTCCCTGAGCCAGGCTCATTCATCCAATGCCCAGTGATTGAGTGCCCACCACATGCCA
0.2934936506320518 TTAAAAAAAAAAAGCAATTTATTTTTCTGTACTAGCTGTACTAGGGCAGAGTGTCTTTATATTTCAGCCTGTCTTTCACAATATCTTGGTGTACAAAAATGGAGAATCGGGGGTTGTACGGATTGCTTGGCAGATTTCTTATTTGCTGATGAATGACATCAAAACAAACAAACAAAGAACAGAGCTGGGTCCAGGAGAGAGAC
0.8417363589247882 GAACTCCTGGCCTCAAGCGACCCTCCCACTCGGCCTCCCAAAGTGCTGGGATTACAAATGTGAGCCACTGTGCTCTTAACCACTACCCTAAAATGCACTTTGCAACACAAGGTGGCAAGGGCTATTTATCGTTTCCTAATTTTATACTGTTT
0.03379259763792027 AACAGTAGAAGTAAAGACAGTGGACAGTTATGGCCAGATGCAAAGCCCCTTTTATGTGCTGTAGGTCCATGAGGCTGTTCTGCCAATATGTTCGTCTGTGGATGAGGAAACAGGCCTGGGAGAATGCTACTTGCCCAAGGCCACCCAGTTGGCTAGTGGTGGACCTGGATCCAAGCCTGCTCTTATCTGCTCCACAGTGCTGATA
1 TCCAGCTCGTAGACAATGAAGACACCAAGCACTCGAGGGATGAGATTGAGCAACAAGGTGGCAGAGCTAGAGAAGAGGCCTGATAAGAGTGTTCCAGAGCATTAATAATTGTGATAAAAATAATCTCTGTCTCTTGTGAAGGTCTTACAGTTTACAAGGCA
0.1812193905132055 CCAAGGCTCAAAATGGACGCTTGGAAGCACTTCTCGTTCCTCAATCTAGAACTACAATTCCCGATGTACAGTGCGCGAGATTGCGCATTACAACTCTAAAACTACACCTCCCAGAGTTCTACGCGACCGTCCAGCCCCGCGTGGTCGTGCGAAACCGCCCAAGG
0.5643379689363399 TGTGATTCACTTGGAGGAATGCATCCTACAAAAGGATGGGATGGTGCAAAAGATGTCCCACGGCTCTAATTCTTCCCTTTATTTACAGGTATGTGTTGTTGATTGGGAAATAGAAATGATTTGAACATGGCATTGGCCAGCAAGAAGAGGAATGAAAGGGTCAGACGAACGTTTCCCTTTAAATGCAGGTGTTTGTAGTTAGAAGTAGATAAGTGTCTGCCAAGAATTGAGTAGATGTTTGCTTTAAAACAAGGTTTTATTTAAACCTGTGAGGCACATACCTAAAAATAACATAAGCCACCTGTTATGCAATGGTACTTGCCAGTCTGCATAGGAATGGGGCAAGATAGGAACTAGAGAGGTGCTTGAGACTACAGTCTAATAACTTCATTTCTTTGAAATCAATAATTTTGGACTTGAGGACAGAAGAAAAGGAAAAA
0.512023570850382 CTAGAGCTATCTCCAGGGGTGGGGACGACAGGGGAAAACCTCTCCGTGGCATCTAAGTGCAAATGCAGTACAGTCTCAGACGGAACCTGTCAGGTTCATGACAAAGGGATATGAAGAAATCAGCTGTGATGCGAGAATCAAAGTCCATAGGGGAGGGAAGAACTACTGCCTTTGCCCTTAAACTGTCTCTGTC
0.03173015439089145 GGGGCTTGTGCGGTATGGCCCCGCCCCCTCGCCCACGTTCCCCGCGCACGAGACGCGCGCTGTCGCCGCCCACGAGTTCCCCGGGCTGCGCGCGCCTCCCTCTCCCGCCCTCGACGGCTGCCATAGCAACGGCGCTGGGCTCCGCCTCCGGAGGGGGTTTGTTTGCGCCATCTGCAGCTGTTGCTCCTGCCTGTCGCGGTGGTGCGGGCTCCGCTGCCCTCCCCGGCTGCGCTCC
0.7234853595390776 AGTTACCTGTGTGGTAGTTAATAGTTAAACCATAGAATGAAACAGGCCTCCTAAACTGGAGTTTAGAGATAGAAGCCAGATGGAGCTCTGGACGATGCCGGAGGCCATCAGGTAGAAGCAGCCAACAGAGAGTTGGAGAGATCGGAGAAGGACCAGGATTGTGTAATATTTCTGGAAGCCAAGGGAGGAGGGACGAAGTCAAATTTATATTTCAAAGAAAATAGGTAGTTGGGTTTGTCATAAAGCATTTTATTGGGATC
0.7010796579387355 ATGAACTCATTGGTTTCACAAGTCATTTGTGATGTACTGTTTTTGATTGGCCAGTCATGACAGCCGTGGGACACCTCCCCCCCCCGTGTGTGTGTGCGTGTGTGGAGAACTTAGAAACTGACTGTTGCCCTTTATTTATGCAAAACCACCT
0.2357454742284553 AGTGACAGTGGCTGGACCATGCAGTTCCCCCAGCCCTCTACTCATTCTTCAGGTTGGAGCTTAGGATTGTCTCCTTCAGGTTGCCTTTCCTGACTGTGCTACTGCGTTCCCCTCCCCCACTAGAGCACACATCACCCTGTGTGGCAATTCCCTGTTTACATGTCTTGTTTTCCCCACTAGACCATAAGCCACAAGGGGGAGGGACTCTTGTCTTATCCGTCGTCATTATTCCTGCTGCTTATTGAAGGTGTTGCCTGCCACAGAGAAGACCTCAGTAAATATTTGTGGACTGAGTGAGTGAATGAATGAGTGAATG
0.07680574267666371 GAGGCGGAGGTTGCAGTGAGCCGAGATTGTGCCACTGGACTCCAGCCTGGGCGACAGAGAGAGACTTTGTCTCCAAAAAAAGAAAGTCCAAATACATGCAAATAAAACTTGGCATAACAGTCTTGCCCAAGCCATCAGTCCTGCCCCTTCTGCCACCAGGTTACAACTG
0.4931238765168536 ACACGGAGGGGATACCGCTCACTACCAGGTAAACTGTCGCCTCCTCCTCCGCCTCGCCGGGCACCGCCATCTTGGATTGTCACATGATCAGCTAGAACCAAGTCTCGCGAGAACACCGCGAGCAACGTTCCAGCCCCTGCGTTGCGAGATTGTGAAAATTCTAACTAGTCCTT
0.4553214407372121 CACATCATATCTGGATTTTATTTATTTTTTATTTTATTACATACTTTTTTTTTTTTTTTGTCACCCAGGCTGGAGTGCATGCAGTGATGCAATCTTGGCTCACTGCAACCTCTGCCTGCCGGGTTCAGGCCATTCTCCTGCCTCAGCCTCCTATCCTAAGTAACTGGGACTACAGGCAAGCACCACACCCAGCTAATTTTTGTATTTTTAGTAGAGAC
0.4549386910101239 TTGAACTCCTGGCCTCAAGTGATCCACCCAACTCATTATTACACACATATTTTTTAGCGATAGTGTCTCAGTCTGTCGCCTAGGCTAGAGTCCATTGGCGCAATCATAGCTCACTGCAGCCTTGAACTGCTGGCCTCAAGCCATCCCCCTGCCTCAGCCTCCCCAGTAGCTGGGATAACAGACTTG
0.8383299914409008 CTAGCTGCCCCCACCTTGCTGCTGCCTGCTTTGCAGACGTTGCCCACTTGTGATCTGGGCAGAAGTGTTGCTCTGCTGCCACGTGGCTCCTCTGTCCCGGGCATCTTTCTCAGATGGTGGAGCACAGGGGATGAGAGAAGGTGGAGAGGCCCTTGGTTGTGTCATGTTCCTGGACCTTGGCCAGTCCAGTGTGGCAAGCCTTCTGCTGCATGCTGTTGGGCAGCCTGGTGCCCTGGATGGGGAGAGAGAGGCTCTG
1 AGGAAGGAAGGAAGGAAGGAAGGAAATAAATAAATAAATATGATCTCTGAACCTCTGGCTACGCTTTCTGGTGAGTGTTTTGTGAAGAGTTTTGCAATAGGCACAAGGTAGCTGTTATTCTAATTATAGCCACACTGAAACCTCCCCTTTCTCTGCTCGTCTCCCTCCCTCACTCAAAGATACTGGGCCCTGTTCCGAAGGGTCCTTCCCAT
1 ACCAAGCAGAGACCTCTGAGGCTGCATTTCAGGAAGCATGGGGAAGGGGTGGAGTAGAGTAGTAAACCAAATGAAATTGTAGGTTGGATCAGGGTTAAGTTTTTGGGACTTTATCCTGTGGCATGGGGAGTCATTGAAGGCTATTGAGCAAGGGTGTGGCCTGATTACATAGTGATTCAGCCAAGGTCACACAGTCCAGCTTCCCTCGATCCTTCCCTCCCCCTACCCACTGCCCCTCCCTTCCACGTGCTCTTCCATCTTTGCCTCCAGAGGCCTAGCTCTGGCACGACTCTAAGTCACTAGCATAGAGATGATCACCTCCACTGCCCACACCTGCCCTAGCCTTGTTCAGGTGTCTTTAAAGACTCAACATTTTTTTGTTTGTTTGTTTGTTTTGAGAAGCAGTCTCTGTCGCGCAAGCTGCAGTGGCGCAATCTCGGCTCACTGTAATCCCCGCCTCCCAGATTCAAATGTTTCTCATGCCTCAGCCTCCAGAGTAGCTGGGATTACAGGTG
1 GTTGCTGCTGGAAAGGAAGTGACTTCAGCAATTTGGCCACAAGGCTGGGCACTGCTGAGCCCAGCTCAGCTCAAGGCTTGCCCAACCCACCTCCAAAGCACAAATGGAGCCACATGTGCACATCACTCCCACTGTGCACCCAGAACCCTGAGCACACACTTAGCCAGTGTACACACAGATCCCCGTGTGCATACACCGTACCATCGCA
0.3767315394687632 AGCGGGGCTGACTTCTTCCTCTCCTCTCTTCCCCTCCCCTGAGTCTCAACACCACCCACACACTCACTCCGTTCTGGACAGATTCTGCCCCTTTGCTCAATCACACAGTGTCTCAGGCCTCCCCTGCTATGCCCTTGGGATTGCCTCTGGGTCCAGC
0.8012743568121038 AAAAACCAGTGTTCACATCTCAGTTCACAGCGGAGCATGTAACAAACAGTACACAGTTCTTGGCATGAGCTACCTGGAGAGGCTGTAATCAGAAGGTGCTGAATAAGCATAGAGTTGGGACACGAGGAGGTAGTTATGTAACTGGAATGTTCAGTGCTGTCCGGCTAAAAGAACCTAATGTCTCTTTCTCTTCTCATGGGGATGGCC
0.03124011477969283 TTAAATGGATTCTTAATGGCTGCTGGCATTTACTTTAGAGAGGTGAGGTTTTTCTAGGCAGTTACAGTGATGCGTTTTGACAACCTCCTACTTTGGCAGAGTTCTCAGCATTTCCAGGTCTTGTCGGCTGTACAGGGCAAAGGGTGTGTTAGAGATATTTCCCAACTGGAATGGGAGGCTCCAGCCTCCCTCATTTGTTCCAGGTCACTCCCTGTGATAGACTAAGCTCATATAAGGGCCCAGCCCTGTTCTGAGTCCAAGAGTTATTTTTGT
0.21891025254595 CGACTTCGAAGACTCGCCCCCAGTCAAAGAGCCCCGGGGATTCGTTTCCGTACGCAGCCTGGAAACCAGCCTGGGCCTATCCTGCGCGCCGCTGCGGGCTACTATTGGCTGCCAAGAAACCCCGCCCATCTTCCTGCTCATTGGCCGGTGCGGTTTACGTAAGAGGAGCCTGTTGCTGAGCGAAAAGTCTGTTCTGCAATTTTCGCTAAGGAGTTGTTAACGCTGAAACCGCACTGGGCGTCCTGGGGTCAAAAAAACAATACTAGC
0.2439765661346016 ACCAGAACAACAACCAGGAGATGTTGCATGCAACTTAGGCACCCCACTTCAGTCATCTGTGATGCCTCAAGGACCAGAGTTCACAGTCTGTGCTTGGCACCCCCGTCAGAGCTTTGACAAGCAATGTGTTTGTTAGACATGTTGTCCTTTCCAGGCTCAACCAAACAGCTCCAGCCTGCCCGCGCTGACCAGCAGAGCAGGCCTCCAGGCTGAGTCACCGCCCAGGGGTGTTTCACAACCAACCTGTCTGTGCATTGAGGCAGCAGAGGCAGGAAAGGTCACTGGGTGGCCCATGTCACCTTGAGCTCCTGGACAGAAAGGTGGAGCCTGGCTCACCTGTACCCATCCAGTTCTCACCCGAGTT
1 GGATTTCAGGCATGAGCCACCGTGCCTGGCCACAAATCTTGTTGTGGGCGTTTCATTTATCTTGAGTAAACATCTAAGAGTCAAATTGCTGGGTCATAGGACAAATGACCAGTATGAGGAAACATTGGTAAGAGGATCAAGGAAAACAGGCCCTGTATGGGAACAGGGTAAGTAGGAAAACATAACAGTGTCTCCTGCATCTTTAGCATTC
0.3155182219203251 AACTATTGGGTTCCCTGCATCCAATCCTTCACAATGCTGTCAGGTCTAGAAGCATAACCCTACTCCCCGCACCCTCCTATTCAAATACCTTCAATGTTACCCAGTGCTTACAGGATAAAGGTCAAATTCCTCTTCCTGGTATCCATGGCCCTCTATGACACAATCCATTTTGTTAAACTCTAACTCTCCAGTATCAAACTCCACGTTTCCTGGGCACAGTACCCTGTGCTTTCCCAACTCCATGAAAGCCATGCTCACAGGCTTTCAATAGGAATGCGTCCCACCCTACATCCCCAAAAGGTTCAGCTTAAGTGCTACCTCTGATCCCAGATGAAGTTCTGACTCTG
1 CCATAGAATCCTTTCCTGAACACTAAATCTCCTTTGAAGAACTCATTTGTTTCCTTATTTGGTCATCTTCCTATTACACAAGATTTTTTTTTTTTTTTTTTTTTTTTGAGACAGAGTCTTGCTCTGTTGCCTAGGTTGGAGTGCAGTGATGCAATCTCTGCTCACTGCAACCTCCACCTCCCAGGTTCAAGC
1 GGGGTCAGGCTGGTCTCAAACTCCTGGCCTGAAGTAATCTTCACACTTCAGCTGGGATTGCAGGCACAAGTCACCATGCCTGAGCCCCAACTACGACATATACTATTCCCAGAAACCTAAATTTCTTCACTTCAAGCTCTAATCTATTCTTCAAAGCCATTTCAACACATCTTTTCAAGCAAATCATTCCAAGTTTTACTAGAGTTTAAAGCGAAAGCAAACATTTCTTAATTCAAAGTGCACATGTCATAATGCTTAATTTATTCAAGAGCAGAACTGTTTTCTGCCTCCTCCCCCAATTCATTTAGCACAGTGGTGGACATTTTGTTGATGGGTTATCAATACATTTGGTTGATGA
0.2644219875319045 CAAGGAGTTCAGAGAGACCCAGGGAGGCACCTGGCCCTCTGCCCTGACTCATCCTGGACATCTGTGGTCTATGTCTATGGAAGTAGGTCACCGTCAGAGCCCTGCCAGACATTGCCCCATACAACCTCAGAGGGCTGACCCCACCCCTCATGGCTGAGGCCACTTGGCCCTGCTCCCAGGCTCACTGCCCGAGCCCTGGATTGGTCCTGACCTATAGCGGTTTTACTCC
0.08965889676300849 TCATCTGTCCCTTGCCACATCCCCACTGACACACTGCCCACCCTCCTCACTTCCGTCTCCTCACCCTGTCCAATTCCCCCACGGAACTTCTCACTTCCCAGCATGATTGCTTGTGTACTATCTGCATCCCCCACCAGAACACAAGCTCCATCTGAGACGGGGATTCATTGCATCATATGTCAGCGGAATAGAGAAAACACATGCTCACACCTCCTAACTCTGCTCAAACTCGCAGGGAAGCCCAGCCAATTCTGTGAAAGTTCATGGTGAAATCACATTGACTTTTAAATGCCTGCACACGGCATTTCCCAAACTGGGATCAGGCAACACTCATTTAGGAGGTGTTGGCAAGCAGTTGGCAACCTGATACCGACAGACCATATCTGCCAGGTTGTCCTCATTTCACCGAGCGCCTCTGACAATTTCATCTC
0.6307210724610237 CAGCCTGGCCAACATGGTGGAACCCCTTCCCTACAAAAATACAAAAATTAGCCGGGCATGGTGGCATACGCCTGTAGTCACAGCTACTCTTCAGGCTGAGGCAGGAGAATTGCTTGAACCGGGAGGTGGAGGTTTCAGTGAGCCAATATTGCGCCATTGCACTCTAGCCTGGGTGATAGAGCCAGACTCTGTCTCAACAAAACCCAAGGGCGGAGGTTGCAGTGAGCCAAAATCATGCCACTGCACTCCAGCCTGGGCGACAGTGTGAGACCCTGTCTTAAAA
0.1066406866214543 ATGAACAAACAGTACCACACTACAAAAAAGGAAATAGCAAACAAAAGGGCAGAGCAGAACTAACAGCTTGAGTAATCACCACCTTGAGGCAATGGCAGCCTACACTAATGTTTTGAGTCAAAGTGTGCATCCTAAATTGGCATTTAATCTGCTGCTGATGACAGCGTTGCAACACCATTCTAAGCAATGCTCAGGGGAAAAGGTTTTAAGATCAAAGTCAATTCTTGTCCATACATCTTCTTTCAAGAGTTTAAAGTTCAGATATCTGCTATCTATTAACTTCCCATTCATCTCAGTCCAAAATTA
0.9105871940696939 TGACTTTCTCTTTGCTGACTGTTTATTCACTCATTGCCTTACTTGCTCATGCTTCACTCTTCTCTTACCTGCTCACTCATCCACTGGGTCATTACGTCACCTACTCTTTCAGCAGACATTTACTTCCACCCAATCCATACCAGGCCTGTGGATGTG
0.4950013856143388 CGGGACCTCAAATGTGAGAACGCCTTGTTGCAGGGCTTCAACCTGAAGCTGACTGACTTTGGCTTTGCCAAGGTGTTGCCCAAGTCACACCGGGAGCTGAGCCAGACCTTCTGCGGCAGTACAGCCTATGCTGCCCCCGAGGTGCTGCAGGGCATTCCCCACGATAGCAAAAAAGGTGATGTCTGGAGCATGGGTGTGGTCCTGTA
1 CTCACCCCATTTACTGTTTATCCCTGTCACCCTGTTTATTTTCTGTGCAGCACTTATCAATCTGCAACAATACTATTCATTTTCTTTCTTTTTTTTTTGAGACGGAGTCTCACTCTGTTGCCCAAGCTGGAGTGCAGTGGTGCAATCTCAGCTCACTGCAAGCTCCGCCTCCTGGGTTCAGGCC
0.0008907823315246895 GTCCCATTCTCCATTTGACCCCATCTGAAAAACATGGGCACAGACCCTGTGAGGTCAACACCTGGGATTCCTGCTCCTTTAAGCCTTTCCCAGTGGAGGGCGTGGCCCTGGCTGCAGGTGAGCGCTGTTGCCACATCAGCCGGGTAAGCCCTGCCCTGTCCCCTCCCCCAGCTCTGGAGAGAGGCCCTAGAGGCCCCAGAGGACGGTGGGAAGTGGGCGGGGAGAAAAGGCGGAGCCTGCTTGGCTGGAGAGAAGGGGACAGCCCTGGGCTGGGTGAAGGCACCTGAGTGTTGAGAACACC
1 CAAAAAAAAAAAAAAAAAAAAAGATAGTGTGATGGTTGCACAACCTTGTGAACATACTAAAACCCACTGAATTGTGCACTTTAAAAGGGTGAATTTTATAGTATGTGAAGTACATCTCTAAAAAGAAAAAACAGAACAGGCTGTGTGGCC
0.3510497475804488 GCCCCTTCCTGGGTCACCGTCGCCGCCGCGTGCCGGGAACTGTCACGCGAGTCCAGCCAGGTTGCATCAGCTGGGCTCGGCGCTCCGCTTACTCGGCCTGGACCCCTCCGGCAGCGGCCGGAAAAAGTGAGGAGCAGCAGAGAGTCGAGCAGGTCGATGAGACGGGAAAAGGTGGAGCCAGTGGGCACGGTGGGCGGTG
0.5245976071408726 GTGAACTTGGGGACAAAGTACACACTCTGCAACTAAGTGAAGGTTGGAGATAAGCAATCTCATTGCCACATCTCAATTTTTTCTTAGTACAGAGTCTTCTGTCAAAACTCAAAGTCCAAAATATCTAGCTTTCTGGTTTGACTCAGAGATTCAATTACATGAAGGGAAAACTAGATAGAAATGGGCAGGCAGAGGTATCATTTGATACAGCTACAGAAT
1 GGAGAATGATGACTGTGACAGAAGGAAAAGGGGCTGGAGGTCCTTCTTTACTTAGAGGGAAGAGTAAATAATATATATGGAGTGAGCTTGACAAAGGTAAATTAAAAATTAACCCAGGACCTGGGAGAGAGTGGAAAGGGCCAGGAGGTGGGGACATGATGAAACACCAACATTCATTAAGCACCTTTGTGCCACATGTCAGTAAAGAACAGTTTGGGGGAAAAAAGAAGGGGGTGAAAA
0.3880691733064868 ATGTCCATATCCTGATTGTATCTTTCAAGTAACTAGCTTGTTTTTTATTTTACAGGCTCATAGATGGAAAGGACTGGCCTTGTCTCAGATGAGACTTTGGACTTTGGAGTTAATGCTGGAATGATGCAAGACTTTGGGATACTCTTGGGAAGGGCATGATTGTATTTTGAAATGTGGGAAGGACATGAGATTTGAGAGGAGCCAGGAGTAGAATGATATGGTTTGACTCTGTGTCACCACCTAAATCTCATGTCAAATTGTAATCCCCAGTG
0.899517064442616 TCAGCTTGCATATAACTGTTCTCAATCTCCACTGCCAGTCTTGTCTTCTACCACATCCTGGGGCCACTAAGCTTGAACCAAGTGACTTCTTCTGGAAGAAACTGTGTACTTTCATACCACAGGGCCATTGCTCAATGCTGTTGCCCTGTTCTGAATTTCCTCCCCATCC
0.4405032722572884 GGGGGGCAAGAGGAGCATGCTGGAACTCTGGCCCTCTGCCAGAGTGAAGAGTGAAGCAATCACATTAATGCCATACACCAGCAGAGACACCAGAAAGGCCTCACCTTAGGAGTAAGGACCACACTCTAGAGCAAAACCTACTCTGAACC
0.4193040780091442 TCAAGTGATCCTTCTACCTTGGCCTTCCTAAGTGTTGGATTGCAGGCCAGACCCATTGCACCCAGCCTCAGCCTCTTTTTTTTTTTTTTTTTTGTGAGACAGTTTTGCTTTGTCACCTAGTCTGGAGTACAGTGGTGCAATCATGACTCACTGCAGCCTTGACCTCCTGGGCCCAAGCGATTCTCAGCCTCCCGAGTAGCTAGGACTACAGGCATGCTTTATTTTTTTGTAGAGAC
1 GAAAACAACTTTGCACAAAGTTTTTATTTCAAAATACAATAATCAGGCTAGGCACCGTGCCTCACACCTGCAATCCCAGCGCTTTGGGAGGCTGAGGCGGGCAGATCACCTGAGGTCAGTTCGAGACCAGCCTGGCCAACATGACGAAACCCTGTCTCTACTAAAAATACAAAAAAATTAGCCAGGCATTGTGGCGCAAGCTTGTAATCCCAGCTACTTGCAAGGCTGAGGCACAAGAATCTCTTGAACCCGGAGGACAGGGGTTGCACTGAGCCAAGACCATGCCACTGCACGCCAGCCTGGGTGACAGAGTGAGACTCTGTCTCAAAAAATATATATAGATAGGCATA
0.3295876222337574 TTCATGTCCTGTAATTGGGGGAGAGTTTAAGGTTGTACTTTGGAGTTTACTTTAGATGTGTTTGAGTTTGAGTTAGAATGTTATTTGCTGTAACTGATTCTCTTTTTAGATGTATTTGCAGAGCACACACGTGGAAAAGCACATAACCCAGGCTGTTGTGCAGTGGAGCAATCATTGCTCACTGCAGCCTGGACCTGGGCCCAAGCCATCCTCTTACCTCAGCCTCCCAAGTAGCTGGGACTGCAGGAGCTCACCATCATGCCCAGCTAATTTTTTTTTTTTTAAATCTTCTGTAGAGACA
0.03196154369023672 ATTAATGTGCCCAAACACACACAGCTAATAATGGCAGGGCTAGGATTCAAATCAAGTCTGATGGATTCCAAAAAACTTGGCTTTGAATCCCTGCTGCATCACTTACAAGCTGGGTGACTATGTGCAAATTGCCCAATCTTCCCCTTCTGTCCAAACAGGGATAACGCTTGGGGGATCACTGTGAGGACTCGGAGTTATAGAAACAGCTTTTTGCA
0.5472636625327971 CTGGTTTCTCCTCGGTCAGCCCAGCCGGTGCTTCCCCCGCCCCCACCCACGCTGCAAGAGGCGAGGGAGGGGTGGTGACTCAGTGTGCATGTGTACATCTGTCCCTGTGGTCCCGGCAGCTCGCCGGGTGGGGCAGGAACCAGAAGTCTCGCGGCACCTTTCCCCCACCCCCAGGTGTGTTGCAAGTGGCCTGGCCCTCCCCCACCGTGGGGAGCAGTGCTGCCAGCTTCCTGGGCGCTTCCTCACTTTCAGGAGATGGAGCCTCAGGGAAAGTCCCAGCGGGGCCTGGCCATCCTGGAGCTGTGGGAACTGGCACTGGGAAT
0.2568011329229093 GCTTTACATTCCAAAACTTTAATGTCAATTAAGCAGCCTTTTCACTTGATATAAACTCACATACCCAGGAACACTGTGGGCTCAGAACATTATTTCACAAGCAGGTATTGCTGGCACGTTGTTTGTGTCACGTTTAGATTCCGATTAAATGACATCATTTTGTTCCTCAGATCCTGACATACACAATGAAAGTATTTGAAAGTTACATAACCAGTTGCACTTAATGAGTCATCCTTTGTCAATATTAGAATGAGGGAACCAGGATATGACT
0.2474689221613557 TGCTGTGACTCTGAGGAAAGATCCCTGGTCTCCAAGAATACAACTGGAGCCAGACCATTGCACCACCACCCTCCTTTCCCAAGAGCCTCTTTGGAACCATCACTCATTCCATAGTTCCAAACATCCTTGTTTTTGTTTAATTTTTATCTGATAAAT
1 AAAAAAAAAAAGAGTGATTAATTAAAGAACTGACAAGCAGTGACCAAGGGTCAGTTTGAAATTAGGCAATATGAGTAGAGCTCTGTGCCTTTCTCTGCAGCTTAAAGTCAAAAGCAAACTAAGTAGATTGTCAGGGATATTCAGTATGGAGGAGGGCAATGAAGGCTAGAATGGTGT
1 CTCAGAGTTCAATAGCACTTAGTTGCTTGTCATAGCCAAATTCGTTTCACTGATTTCTAAAAATAAGCCTTCCACCTCAGATACTCTGGATGTGAAGGCTGGGACTGGACACTGATCGGCTGGGCTCTTGCAGAGTGTGTTCATCAACAGTGGACTGGTGTTGACAAGGCAAGCCTGGAA
0.9241424545035153 CTTTTTACGTTTTTGTTTTCAAATCTTTTTTGTTTAGGAATTCATGAAGAAAGTAGAAGAAAAGCGAGTGGACGTTAACTCAGCAGTAGCCATGGGAGAAGTCATCCTGGCTGTCTGCCACCCCGATTGCATCACAACCATCAAACACTGGATCACCATCATCCGAGCTCGCTTCGAGGAGGTGAGTCCCTGGTTCAGAGGAGGACTGCACACGCCCAGTAAACTATCACTATAGTATAGTATAGTATTTTTCCCCCAGGTAAGGAATCTTTCACTCACTGTGAATAACTCAGCAAA
0.7275858902433759 AGCTCCTGTGGGTTCCCTGTACATTCCCCAGTGCCTGTTGCATAAGGGCTTTTCCTGCCACTGTGACATTGGTAGGCCTGGCCCAGCCTTGATTCCAGGCTGCTGGCTGTGACTGTTGTCCCTAGGGCATCTTGGGCAGGGCTGAGGCATCACA
0.4366416277745108 GCACAGTGATAAATAATTTGGCACCCCTTCAGGGTGGCTCCTGGCAGAGCAGGGGATGGGGTAATACCCGGAATGGGGTAGCAAACCCATAACCTTTGGCACCTTGGATGACGTAAATTACCTTCTCCCTTGGTACAAAGCCTGTGCTACTCAGCTTCAGGGGCAAAGTAGGCGGAGGTGGTGCCACGGATCGGATCAGACGGCAGGGGAGACGCACAGGATAGGCTGTCA
0.8644439121427898 CTCATTGTGTTCTATTCTGAAACGCCTGGGTTTTGAAACATCGTGGTGAATGTTTTCTTTTTCAAAGGGCAAATCTCCATCTTTTGCTCTCCTCCCTTAAGCCAGGGCTGTTTTGATGACTGATATTCTGCACACCACTGGACTAACCAACCATCTGTACTTTGATCCCAGAATTCATTTTGATTCTGCTGTTTGTTTAGAACTGAAAGCTTTCTAGCTTGTTTGGATGTGGTTGTGATTCAGTGAAACTGGCACTGATTTTCCATCTGTTTGCCATTGGTTGGGACTTCTCCAATGTGTTAGGAAAGCTGCTGTGCTGAGTTGCGAAGAGAAATTCACATGTCCATGGTCTTGCACAAGGGCTCATTTGCTCACTTAGAAGGTTTTATGTAGAGCCTCTGCCTGGGTGAAAGACATGAGCTTCCCTGGAAACAATTGAAAAACATCTTCTGCCTGGCCACTCAGTCTTGAGCTCTAGTAGGTTA
0.9858075267337905 CTCTCAGTCCTCAGATGTGGAAATAAAAACAAAACACCTGTATGGCTGCCATTCTCTTCAGCCCTCGCTCTCCCCTTTCCACAGCCTCCACCCCTGACCCCCATCCTCTTTTCCTACCTCTCTGTTTGGTTTAGAAATTGCTCAATAAGTCATTTGGGGTTTGGCATCCTGCCCAGCCACTTCCCAAAC
0.8861929531964658 AAAGGGTGAGATAGTAAATATTTTAGATTTGAAGGTCATACAGCCTCTGTGGCAACTACTCAACTCTGTCCTTGAAGCTGAAGTAAATGAATGAGTGTGACTATGTTTCAATAACATTCTGTTTACAAAAACAGGAGGCCAGTCCATGGGTTACAGTTTCCTAATCCCTGCTGACAATGGTCTTAACTATCTCTTTTGTGGTAGATATGTAACTACTTGTCTTTAATTTCGGTGCTTTTAAC
0.572872406916612 CAGTGCCTCCTGATTGGGTGATGACATTTCTAACATTACAATCAAATCAGATAACTGTTTAAACAAGAACTTGGTGATGAAGGTTGGTGGACTGTTACAAAACAGGTCCTGTGCTGTGTGAGCCCTTTCTGTAGAGCAGTGCTTCTCAA
0.09872499801206479 CCACCTCATTTTTTGACCCTTGCCCCATAGTCCCATGCCAGGCAATGAGGCAAGAGACAGACTGGTTTGCATGACTTGCTGGTGATTGACAGGGAGGGCCTGTGTCTGTTACAGATGATCAGTGCAGAAGCGCCTGTACTCTTTGCCAAGGCAGCCCAGATTTTTATCACAGAGTTGACTCTTCGAGCCTGGATTCACACAGAAGAT
0.02236478022896063 GGCACCTCCTAAAGTCCTTTAAAACGCCTACTCTCCAAAACCCACCCTTTCTGAAGGAGGCAGCAGTTCACTCTTGCTACTAAAGCGAATGTACTTTTTTCCAGTCAGGGCTGGTTGCACAACACTGTAGAGATGGCCCTAGGATGTGATGCTGCTCTTCTCTGGCACTGTTCGTCAGTCTCAGCTTCTGGAAAGATTCCAAGAGCAAGCCCTGTAGTTGGGGAGGCCACTGCTAAAGTTGAGCAAGTGCCCCATTCTGGATTGATCCAGTCATTAAAGCATTGTTCTGCCACTTGGGGCAACCTCCCACTGCTGGGAAAAGGAACTAGTCAGAAATACTGAATTGTGAGTCCAAGGCCCTGACTTCTCAAAGATACTTGAGAGTTTCGCTTGTTCTTCAGAGAA
0.4297562979955661 ATCAGGACTTTAGATAACAATTTTCCTAACCTAGCCAACAGGGGAGATGGATGCTCTAAGAACTTTGCCCTTGTGATTGGGAAAGTCTTTGAGTGTGACCCAAATTTTTCGTGCTGCTGTTTTTCAGCCCTAGTCCTTTTGCTTGGTCTTTGTAAGGAGCTGGGGAGACCATCCTGTTCT
0.004196043662476267 TGACACCACTTTGAAGCTCAAAAGGGCTATGTGACTTTCCTGGAGCCACATGCCAAGTCACACACAGAGCCAGGATGCTCACTGACAGTGCCAGAAACTTCCCCCTGCACCAAATGCCTGGTTTAGGGCTAGCCAGAACTGCCCTATTGCCCAACTCCAGCCCAACTTCACAGGGCCTGGGGAGGGGCG
1 GTTAATACCTGTAGATGAAGATGGCCTGGAACCTCAAGTGTGTGTTATTGAGGTTTGTATGATTCCTGCACATGTGAACAAGTGTACTCATCTCCTTAGTCAGCCATCAATAACTGATAAGACAGTTCCCAGTGGAGCCCTTGGCCTTCCTATCTCTGGT
1 CAGTTAACAGTCATGTGGAATGGCCACGCAAGGGAAAACCGTAGTTTGCCCAGTGTTCCTTTTTTGTAGCATTTATGGTACAATCACTTAGTACTGATTGTCCCCATGAGTAGTGTGACACATTTT
0.7906301738796629 AAGGAAAGAATAGATGGCCAATCACCAGGGAGCAAATTTCTCAATCTGTAGCCTGAGACTAAACCTTCCTGCTGGCAAGGGAGATGTGTGTTAGGCCTTTGCTGCCAGGTTCACACTGGGAGACGTTCTGTGACTTCTTGGTGGCTCCACATGCAGTCTGAAACTC
0.06040708035974555 GCTTATCCTGTTTTAGCCTCAAGTAACAAAAATGACTCTGCTATCAGTTCCAAGGTACCTCGCTTCTTGCTGCTTCCACAGAGCTATTACCTCACAGTGCTTCCTCACAATGCATTTACCATACTGACCCCAGGGTACTTGTTTCTTGCATCACAGAGAGGAGTGGCACTTTCCTGAGCCAAGAAGTGTGTTTCCCTTTCATTCTGCCCGAGGATCTCTCCACCTCAGTGCAACTATCCTAATCCAAGCAACCTCATTTCTTCCTTGTCCACAATTACCACTGTACAACTCATTCTCC
0.1253886779789752 CCTCGATGCAGTTAAGTTATTTGTGAAGTAGTTTGATCTTCTTGAGTTTTACCTTTATGATTTGTCAGGCCGGACTGAAGCAATACTCAGGCTAAGGTTAATTATTTTCCAATATGAGCAACACCTTCCTGAGTATCATACCCAGTGCCCAATCAATTATGAGATGTTCTAGTCTAGCTGGTGAGATCAGGAACTATTCTC
1 AGAGCCCCTTTGGGCCATGCAAAAAGCACTAGATGCTGGGAATAAAAATGAGTCACTGAATGAAGAAATCTAAATCACTCCAAAGATGATGCCAAGACTTTACACTCTATTTATTTTATAGCTTCTGTTTTATAACTGGTTCCTTTCCCACTACCCTTAACTAAGCCAAATAGATTTGGCCAGAAATCACAGTCAGTTCTGAACTATTTCATGAACTAGCTGATGATTAAT
0.3960065435097434 AAAAAAAAAAAGCTGAGATTTGAATGGTCCTTCCAGCCTCTGCTGAAATACTTCCAGTCATGGGACACTCATTATTTAGCTATTTAGCTATTACTCAACAGTACAAATGGACAGACCGCTCTTTATAGTCAGCCAACATCTGCCTTCTAACCTCTACTGGTCCTAGATATATCTAATCTCTATGTCCCAAATCCCTCAACTGCTCC
0.9092060643250713 CCAGGGATCTTTTGTTTGCCGACATTGTTTGGTGAGATAGAAGATATATTCAGACTAAAAATATATGTGTCAATTCCTGCAAGTAAACTTTGCCTCCTGTACTGATAAAGTCTCAGAATTACATAACACTGCTGTGGGGCACATATATGGTGAAATGAAAAGAGGACTGGGGTTGAAGTCAGGCTGGTCTGGGCTTGAAACCAAGTCCTATTAC
0.4253476510563083 CCGTTACCCCTCAAAGCAAAGCGCAGAAATGACTGCTCACCCCATTAACTCTCAAGGTGGTGCCTCAGGGAAATGGATTAGGACTCATTCCCCGTCTGCAGTCTTCCCTGCCATCACCAGGGGGCAGCCCTGATTCACATTTGTGTTAAATACCTGTTACCCAACCCCAGGCCAGAAAGGTGTTACACCTTGGAAGCATTCCTGTAAACAAACCTGACGGGTGTGTGTGCGTGTGTGTGTGTGTGTGTGTGTGTGTCCGCGCACATGCTTATGTAACAAGGTCAGTACAATATGGGTAGACTGGGAAAGTAAGTCAAAGGGGAAGACACAGATTGAATGAGCTTTAGTACAGTCACTGATGTTG
1 GGCATGCTCACTCAGATAATCGCTGTCCAGTGCCAGGCAGGGACCTGGCAAATGTGGCAATAACCATCGTTGTTTGTGACAGCCGCAGGAGTTGGTGTACAAGTGGAGACAAGGCCTGCTCCGGCTCAGAGGCAGGGCTGGTGGGGGTGGCAAGGGTAGCTGCCCAGTGGGCAAGGCGCATGGCTGGCTGGACCACAGCCCTCTGTATGCTTGCAGAAACCATGCCAGCC
0.1115734365548844 GCATTCCAAAGGGTAAATACAATAGGCAGGTTGGGAAGGTAAGTCAAAACTTGGGAAGAATGTGGGTGAATTTCCTGTTTTGCTGCAGCTTTGCCCCAAGATTAGGCAATAGATGTGGAGTGCAGACAGCTAAAGCTGTTCTTCCGTCAGGAGGAACTAGGGCAAAGACCCAAGGTAAACACAGCCAGCCACCAGAGAGAAAAGGCAATCCTGTAAGAGAGAAAGTTGAAAGACATAATACATAATCCTGTGTATAACACAGCACAAATGTGCCAGGCTGAG
0.4298596881787943 CTTTCTCTAAACTATTAGCACTGATAATCTGCCCTATAATTTCACACTTAATTACATTCCAGTGTAGTATTTGCTGTTGCTTCATTCGCGTTAGTCACATATTCCCCTGCAGCGCCAAACACGCTTTTGAACTCACAATGGGTGGCTCAATATTTGGAGACTTAGATATTTGTTAGATGAATACTAGGCTGATTGGA
1 TTCTGAAAAGACACCAGCAAACCTCTCGAATTGGGAAATCACAGGCACAAGCCCAAGAATACGTATCTCCAGAAAAGGTTTGAGAGACCACTCCCCCAAACTGTTAGTTGAGCTGAATGTTTAAGGTTTTCCCCTT
0.2132005753491066 CTGGTGCCCAGCACGGTGGTGGAGGTGCAGAGTTGACACTAAATGACCAACAAGCCATGAATCTAACTGAAGGGCTTGAGGGGTGATGTGATATGACAGGGTGTGATGGTGTAAGAGATTGTGCAACTGTGTGTGGGAAACCTGAGATGTTGGTACATGACTG
0.676727322283297 GGTGGTGGTGGGTGCCTGTAATCCCAGCTGCTCAGGAGGCTGAGGTAGGAGAATTGTTTGAACCCGGGAGGCGGAGTTTGCAGTGAGCTGAGATTGCGCCATTGCACTCCAGCCTGGGCAACAAGAGCAAGACTCCGCCTGAAAACAAACAAAAAGATGAAAACAAAATGTGGGCAGGACAGTACTAGAGAAGGGCTCATGGAAGGTGTCTTGGAGGGGGGAGCATCTGAGCAGTGTCTTCTAGCTCTGAGTGATAAAGCCCAGCT
0.5439948298299944 TCGACAGTAAAGTAGGGGAAGGCAAGAAAAGAAACCAAGAGGCCGAGAGGCATGATCACAGAGGGCCTTATGTCCACACTCAAGCCTTTGTTTGGCTTTATCCTGAGAACAGCAGGGAACAGTTGAGAGTTATTGAGCAAGAGAGGGTCATTGTCACTTTGCTGGCTAGTGTCAGGGAAGTGGGGTTTACTCCATCCCTGGCCAACCTTTAAGCCCCAGCCACCTCTGTCCCTGAGGTTCAAGGCCCCCATGTCATAACCACTGTCCTTAAGCTGTCAGGCATGGAGGGAGTGGGGAGGGTCTAAAGA
0.2674667680484952 AGGTGGGCAGAGGCTGAGGAGCTGGGAGTGTGTCTGTTGTGTCATTTCCCTCCTCCCCAGAGCCTGTGGAGCACACAGGGTCTGTTGTCTGTCGTCATGCTCTCCCCCTCGTTCTATGGGTGGCCTGTCTAGACTCTGCTCCCTGTGGGACTTCCCGCAGATTCCGTTGCTTTCTCTCTCTGGGCCTGTTTTCCTATTGCACAATGGGGATAATCACTCCTACCTGGAAAGGTTAACTGAGGTCACATGGATGAGGTGCCTGGAACCTAGTATGTATTCCCCTTATCTGAGGCCATGACCTGGGGCTCTTGCTCTGTCCCTGGGAACCAGGCTTGT
1 ACACAGTAACAGTAACTAGCGACTGTATCCATGTCCAGGACAGTGGAGTCTGTGAAGCAACCTGCAGTATCTTGTGCTTAGTGGCAGCAGGAAAGACAGTGGTGGATGAATTCTACCGCAGGATTTGGGTTTTCTTTATGTGTCCTGCAAGTTGGATTCTTCAGACTCGGCACTTTTGTGAGCCACTCAGT
0.9256172684587933 TAACATTCAAAAGATCTGTGAGCAAGCTACCTGGTTACGTAACTATAATCAGGGCATTAATCCCAGCTGTATCTGGCTAGCTATCAAAAGTGCCTTCCCAAGCTTCACCTGGCTTTTACCTCTCCTAGGACCTTTGATAGCTGTCTTGTTATTACTAATCTTTGGCCCTTGCTTGTTTAACCTCTTAGTAAAGTTTGTCTTCTATATTACAACAGTTCCAGGTAAAGACAATCCTTGCACAAGGCTTCCAACTCGACCCGCCTACTGACCTG
0.3920727041973157 AATGGCGGTGAGTAACAAGTGATCAAGACAGGACCAGGCCCACTCAGGCAGACTGAGAATTCTGGTCAGACTACTTGGCCAGGAGCCAGGGAAGCTGGCTGGGCTACAGGAGGCCTTGCTCAATAATCCCCATCCATAGCCCCAGGGACTGCTGATCTCTTCACAGAATACTGCATGCCTGTGGGGTGGTTCATAGATTCCCTGTTCTCTGCCCACAAATGATGGCCAGCAGCCAGGAAGGTAAACAGTTGTGCTGGCATGACAATAGAT
0.05879844401197362 AGCTGTGAATGGGAAAGCCAAATAATCAAGCTTATTAGAATTGTACCTAAGAAAGAATAAATCGGCTCTGAATGAAGGCTTGTGTAATTCTCCTAGGAGGGAAATGTGTTAACTTTAGTGCATGGACTTTGTAATGTTTATTTTGGCTATTCTGGGACCCTTTTTGCTTATTTCCTGCTTCATTGTGTTTTGGATAGCTGAGGTTGCTGGACATATGACCTGTGAATTAGTGAGGTATTACATATTCA
0.5235934040601472 AGTGGCAGTGAGATGACTAAGGTAGCAAACAGATTTCTGGGCAGTTATCATGGCCCTGTCGAGGTTAGTGACCATTAATTTTCGGAAGCAGCAGTCTGCAAGGTTGTGTAATATGCATTTTTCCCTCAACAACATTCAGCCACCTAGTGGTGGGTACACAGAGGTTAGTTTAATTGATCTAGGTTTGGGTTTTACCAGGCGGATACAATGGAAGGACAAAGGACAAGGAAGTTGAAGATTGTGGCAAAACAGTGATTGAAATGAAGGGCCTTAGTATCTAAACT
1 TTTTTGCTTGTCTCTCTGCCCTGCCAGTCTGTAAGCACCCGAGGGCAAGGTCTATGTTTGTCACGTTAACCAATCCCAAGCCCAGTGCTCGGCTCAGAGTTGGCACCTGGGAATCTGTTTAATTAACTAATGTGCAGAGCTAAGGAAATTAAAGTGCACATTCTGAGCACAGTGTGTTGGATGTCAGTTTAAATAACACTTATTGAGTGCCTGTGTTTTACCAGAGACCCTGCTAGCCACCCAAATTACAAAGATGGAGCACACTGATGTTGAAATTGCCTAGTGGCTCTTGAGTAAACAGGAAGGCTTACGTGTCAAAGTCATTGATCGGCACTGCGGCAAGGTAGAGAGGGAA
0.4148471270869336 CCCAGAGAGAGAAAGTAGAAAAACTGATAAGACCCAGAGAAGTATTTTTGATCATGTGTGACCACAAGCCATGAATAAACATGGACTGTTTGGACTGTGAAGCAACTGTGTGTCAGAAATGCAGTTAATTTTAAAGTTCCCTGAACATGCCAACACTCAGCTGCCTTTGTTTCATGGACCCACTTCTTTTCTAATGCCAACAGTATGCCTCTTCTGCAGAGACCAACTGG
0.1619852123888364 AATTCACCGTCCAAAATGCAGAGGAAAATCTAATAATATTGTAAGAATGCTCAGAGGTGTGAACTCAGATGTAATGTTCAAAAAAAAAGGAAAGATAATCCATTTAGTGTTAGAACCAAAATGTGACTCACGGTTGCGAAACTAAACAAACATGATTCTGGTTGGCGGCTTCCCTATACTTTGTTTTGACCGTATTTGCTGAGCAAATATTAATAGTTGTACTCGTCTCTCAAAAAGTTAAC
0.1223674964741948 TAGCTCTGCTGAGCTCCCGGGCCGCGAAAGACTGAAACGCCTACCCGGCCCAGCAGGGGGGTTGGGGGCGGGGTCTCGGCTGGCCACGCCCCTCCCTCAAGCCCTCCCTCAGAGTAGCCAGTCAACCGTCAACTCCTGATAAACGAGGTAGTGGAATTGCCCAATTAGCGCTAGGAATGCCACGTGGTATGAGGGTGGGCACAATGGGCGTCCAGAAAAGCCAATCAACAGCCGTAGGTGCCAACTCCGGAGGACGAAGGGAACCAATAGGAAGGAAGTCGAGGTAAAAACAGAAGAAGCAGTGTGTGGGAAAGGCGGAACCGAGGAGGAGGGAATACA
1 GTTATGTTATGGGTCTTCGGTTTGGGCTTCTTGTGACATCTCTTCTCCATGTTCAGTGTGTGAATGTGGGTGTAGACGGTGTTACAGGTGAATCCAATTTCTTGGATGTCCAGGCCAAGTGGACAAAAGCAAATATTGTGTGTCCTAAAACTGAAAATAAAGTTTGCATTAATCACATATTTGCTTTGCTGATTGGTCAACCTCAAAAACACAGGCTTGCTGGCCGGGCACGGAGACTCAAGCCTGTAATCCCAGCACTTTAGGGAGGCGGAGGCGGGTGGATCATCTGAGGTCAGGAGTTCAAGACCAGCCTC
0.4951091804835702 CCTAGCAACAGATAACTCACCCCTCCCTGAGCAGCCCTCTTCACTGGATACTTCAGACTTCCAGAAAGTTCCACTGTGTTCTTCCACATTCTCAGAGCTCTTTCATCATGACAGGGGCTGAAGCAACGTCTGATAATGCAGTAGGAGAATAAGTGCAAAGTGCAGGGGAGGGTGTGCAAACTTTCCAGAGAAGTGGGGCAGGGAATTGGGATCAATTACAGAGGGAGTATGAGTATAAAAACTATCATTACAGCTGCTGTT
1 CCCCCTTGCTGCCAGGCCTGGTCCCATCCATCCCTGGGCAGGAATGAGGGCTGGGTGAACTGCCCCCTTCCCCCATCCCCAGGACAGCGACGGTTTCCAAATATCTGTCTGTTGAAATAATGTTCTCTGGGCACTGGGCCTCCCTCCCTCCCTCA
0.3986176790581369 TCGGGCAGCCGGGGCTCGCTGCAGGCCCATGGCGCCCTCTTGCGTTCGTGGCCGGAGGCGCAGGCGGCTGCTGGGCTGACCCGTGTCCCGCGGTCCTGCTGGACTTGGACGCGGCATCTGACTCCTCTCTCTCAATGATTGCGCAGGCGAGGATCGATTAGCTGCGGAGAGGGTGACCTGAGACCACACGAGGATGCATTTTGTATACCGTACGCTTTGTATGCTGTAAAGCACATGGGACACCC
0.927304624895313 AGGTCCATGATGGGCCAAAAGTCACACTTTAGAAACTTACAAACACTGGACTGTGCCCTCCTCTAGGGAAGAGACCTCTCAGTCACTGATGTTTCCCCACACCCAGGTCAGTGACCTAGAACATATAAATGATCGAAGGCGTAGACACAAAGCCTAAAACGATTGGACAGCATGGCATTAGTAATTTGGCCTAAAAAGAAAGGCCAAATAGAATCAGATTCACAAACCTAGTGTCCCTT
0.506669214285203 TTGTGTACTCTTTACTGGACATGCCCCCACACACTTCATTCACCTTGTGTATGCCTTATCTACCCACCTAGACAGAGATCATGGCTCCTGTCTAAGACAGCATTACGCAATAGCTGGTGTTCAATAAATACTTGTTGACAGACTTTACTGTGGAAGTAATTCAAC
0.5093468765847287 TTCGGAGACTGTGGTGAGTGACAAGGATCTCATTCAGGCAATAAAGGGGCAATCAAATTAAGTTACCAGCTAGGAAAGGAAACTGACCTTGAACAAAGGGCGAGAGTGCAACCTGGGGCAGAGCTGTTTCCAGGAGTTGGCCACTGCTCCTGCTTGCAGGTAATAGAGAATGGGGCAATGCTCTTCAACCCGTTAATCCCCAAACTTGCATGAGTGAGAGTCACCTGGTGTACTCATTAAAATTACAGGTACAGGTTGCTGGGCCCCACTCCAGACCCACTGAATTAGAATCTCTGA
0.06701208435042605 TTTGTTTGTGTGTGTTTGTTTTTACTCATTCTCCTATGACAATGTTGAGATTTGATAGGATGATGTCAGTGACCTTTCTGCTTTGTGGACCAAGTGTCACAGATGACGGAAACAACTGCCCTCCAAAGAGGCAGCCTGGTGTGTTGCTGCAATGGGCTGAATGTTTGTGTTCCTCCGAAATTTATGTTGAAATCCTAACCTCCAATGTGAT
0.1688140923913283 GTCTGGATGTGGGTCCGGTCTTACAGTCGCGGGCCAGGATGAGGGCAGGTTGCGACAGCGCGCACCCGGATACCTTCAGCGGCGTTAAGCCCGGCGGGGGCGGGGAAACCGAGCGAGCGAGCGGGCGGGCGAACGCCGCGGCCGCCTCCGCCTCCTCCGCTTCCTCCCTGGCCGCCGCCTCCGCCCCTGGTTGGCCAGCGCCACGGCTGTCGCACATT
1 TGCAATCTTGGCTCACTGCAACCTCTACCTCCCAGGCTCATGCAATCCTACCTCAGCCTGCCAAGTAGCTGGGACCACAGGCGCATGCTACCACGCCTGGCTGATTTTGTATGTGTGTGTGTTTTTTGGTAGAGATGGAGTTTTGCCGTGTTGCCCAGGCT
0.3343888553720648 TTCCATTGACTAGTAATAATTTAACTAAGAAGCATGTGATTTTAGAATGAACTGAAAAGAACCCATTAATCTACATTTGGTTTTCATTGTCTGCTTTGAGTGAATCACTGATACCTGGTTGCCCACTACAGTGCTGACTTTGTTCCAGAGACTCACAGCATTGCCTCATATTGTCGAAGTGGAAGTTGTGGGGGAGGAACACTTGTGTAAATATTTGCCTGCATTTTATCTGACAGTTTTGGAGACTTCAGCTAAA
0.5888193104565218 TCAAGATTGATTGTGTTTGTGGAACACTAAGCAGCTCTTAACTGTTCTGGCTCTCTTGGCAATCTGTTTACCCATAATACAGTTTCCCAACTGGATCAAACTTAATTGTTCAGTGTTGGTTTACCCAACTAGGCTGTGGCCTTTATGACAACATGGACTATGTTTCAGAATCCTGGGCCCATTGACATAGAACCTGGATAAAGCAAAGAAAATAACATTTAATACTGAGTGAATACATCC
0.105323691331531 CCAGTCTCCCTCTCGCCGACTTCCCTCGTCCCTCCGCCCTCCCGGCCGCCGATGACGCTACTGATTTCAGCCAATCATGAGGCAAGAAAGTAGTCACGCTCACGTAAGCAACCAATCAGAACAGGAAAGGAGAGGCACCAACGTGACCCGGACTGATTCTCGGAACAGCCAGCGAACATTTCGAAACCCAAAGTGGGCGGGGCGAGGGAGAAGAAGCGGAGAGAGTGGCGCGGAGGACGACGGGAGAAGGGCCCCCGGCGCGTTTATGAC
0.3723657614323869 GCAGGGCTCCTTCTACAACTACGGGCCGAAAGCCAGGACCAAAGCGTGTGTCTCACTAGAAATGAAAAGAAGGTGGAAGGAGAAAAGAAAACTTCGCGCCAATCGGCGTGGCCCCGCCCCCAGACCGTCCCTTCGTTGCGACACCAACTAGCTCGCCCCGCCCACTCCGTACACCTAAGAGGGGCGCATGACGTACATCCGCTAACATGCAGCCGCCATCATTGATTCGATAGGCGACGCGGGGAGCGGAAGCCCTTTACACTACGGTGTTTCCGGCTTCAAGATGGTCGCCTAAGCTGTTTAGTGAAACTTCTTCCACCTTTCTCCATTCC
0.01055290150247642 CTCAGCATTTTGTGGGTTAGCCGTGGAGACGCCCTGCCCTTCCTGCTTTGGCCAGTCAACCCCCTCAAGCCCGTGCCCGTAGAGCCTGCAGCCCTTCCTCACCTCATCACTCCCCATCCCCCCAAGATATAGAAAGGCCGTGACAGCTGCCAGCCCTGCACATGCTCTTGTTTCAACAGCGGCGATTGCACATCACGTAGTCCCCACGTGACCTGTCGGGCCTAGGGCAAGCGCAAAGCTTTCGGAAACCCGAATTATTGCAACCTTGACTTCCTGCCTGTCTCTGAGGCTCCCGGGCTGTGCTTTAAGCTGGACAGGCACCTGCTTTACAGGGAAAAGGACCAAG
0.3869025587079575 CAACAAGAGCAAAACCCTGTCTCAAAAAAAACACAACAATACTGAGCAGTATGATGTTTCATCAGTGTGTGTTTGATAGAGAATTGCATAAGGTAATGTTAACTGAGATGTTGTGATAGATGAAAAAAATTGAACACTCTGTACAGGTCCCCTGAGGGGAAAAGAGGTTGGGTAGGTGAGAAATGTTAGATCA
1 GATTCTCCTGCCTCAGCCTCCCAAAATGCTGGGCTTGCAAGTGTGAGCCACTCTGCCTGGCCCCCAGCAACTATTTTTTTTTTTTTTTTGAGACGGAGTTTCACTCTTGTTACCCAGGCTAGAGTGCAGTGGCGCAATCTCGGCTCACTG
0.04198050386241686 ATAACCCCTGCAATATTACTGCTTTACCACCAGTTCCTTTCTGACCCAGTCAGATGTAAGAGGCCTCTAACTTGATCCAAGCCAGTTAATTCCCAGATCAAACCTGTTCCTGGACCCAGTCCAGTTTCTGTCGCAACTCCAAACCCAGTTTGGATCAGAAATTTTCTCAAACTCCAAAACACAAATCCATGGAGCTCCAAAATCTGAGAGGGAGCTTACGATGATCCCCAGC
0.9639732613067886 GATGGAGTCTCGCTGTTGTTGCCCAGGCTGGAGTGCAATGGCACAATCTCTGCTCACGACAACCTCTGCTTCCCGCAGCCAGGTTATCTCAGAAGCCAATTTTCCCTTTAGGGAAAGTTACAGAATCAGCCAGGGAAGAGGAATGGGAGGATGGGCTGGATGATCCCTGTTCAGGCCTAATCCGCTGGCCTCCCTGGGGCCTCCCTTTCTTTGTGC
0.3207638472148989 ACTGCTTTTGTCAAGGTCAGGTCATCTGTACTCTCCATGTGCACATCTAGTGGATACTTGACCTTGTGGCAGCATTTGACAGTTTGCCCCTCCCTCCTGGAATCTTGCTCCCGGCTCCTATGACACCATGCTGGTTTTCCTCTTGCATCACTGGCTGCTGCTTTCCCTTCTGTCCCTG
0.4976635302099577 GCATACTGCTATTTTCACTTTTTTTTTTCGAGATGAGATCTTGCTTCTGCTGCCTAGGCTGAAGTGCAGTGGCACGATCATAGCTCATTGCAACATCAAATTCCTGGGCTGAAGCGATCCTCCCATCTCAGCCTTCAGAGTAGCTAGGACTACAGGCACATGCCACCATGCCCAGCTAATTTTTTTTTTTTTTTGGT
0.3461401501267269 TTGTTATTTAAGCCACCAAGTGTTTGGTATTCTGTTATGGCAGCCCGAACTAAAACACATGACTATTTGCTCAAAGGATTCAGAAAGCAGCCAAGAAGGAATAACGGGGGTCACATTCACCCTCCTGCCTGGAAAAAACTGGGCAGAATGTATGAAGCAATAGTTTCAAAGTGCTAGACAGCAGGCAACAAAGGACAGTGATCCCG
0.2468183230337746 GAACCCTGGCCCTCCAACCTCCCTGCTGTGTGACCTTGGCCTGGTTACTCAACCTCTCTTAGTTTCAGCTGTCTCATCTGTTATTGCCCCATAACAGGGCCCCTGTCTCAGAGCTGTCCTGAGGATTAAAGAGATCATGCAGTGCCAGGCACCT
0.1722978629934169 ATTTATAGAAGTATACACTGTGGTAGCTACCACTCAGATCAAGTACCAGAAGCCCAGAAGCTTCCCTTGTGTCCCTTTCCAATCAATAATCCTTCTCCTGGGGCTAGATTTCTCAACTTTGGCACTATTGATATTTTGTGTTGGGAAATTCTTTGGTGTGTGTGTGTGTCTATGTTGGTAGTGGGGATG
0.1330234886898553 ATAAACACAGCTCTTCTCGAGGGCTGTTTGGTCATATCTATTAATATTTAATGTGCTCAAACCTTTGTGTAACAAAGTCCATTTTTCTGACTCAATCCTACACAAATATTTGTACAGAAGGACAGGATAAATGTGAGTCTTAAATCTTCAATGCAATCTTATTTGTAAGAGCAAAACAGTTTATGCAACATAAATGTCAGTAAGGGCTAAATTAGGCCAATTATTTACATGCAAAAATGGGATATTA
0.08056583915766719 ACCAGGTCTCGTCCCTGCCTGAATCTGCAGCCACGGAGTTTGACACAAGCCCAGAGATGGGAGGGAGTGATTAGGGGTGCTGCACTGAAGCTGGAGGCCAAACAGAGAGCCCAGAAAAAAGGGCAACTAGGTCAGACAGCTATTACAAGCCAGGTGTGAGGCAACTGAACCAGACCTATAGGGGGGAAGGGAAAGCCTGGGAAAGAAGAAATGTCAGAGTTCAGGCTCTGAAATCGAGCTAACCTAGGTTCTAGCCCCATTTACTGACTAGTCTTCCTGAG
0.6298880781399561 TCTCTCTCCATCTGGACCTGGCCTGGGAGGTGGCTTGGGCTGGGCCCAGGGAGAGCTAATGTCTCCTAACCAAGAATGCTGTGGCAGCCTCTGCCGCAGAGCCAGAGAACCAGAGTGCCAAGGCTGGCAGGGTTCCCAGTGGCCACGAGTGCAGATGAAGAAACCCAGGCCCCAAGAGGGTCATGCAGGTAGCCCAGGGAGTTCAGCCTTGACCCTGGGTCAATGACCTTTCCACAGTTCCACACTGCTCCCCTTTTAAAATCCGGTGATGTCTTTATGTCTTTTGTTATGTTATCTTCAAT
1 CAGCTTTGAGGAAGTTTTCACAGAAGGATTTGGCACAGCTTCTGGCCATGTCATCATCAGCTGTTGGCATGAGTTTGGAGCTTAGAACCTAGGGAACAGATAAGCACAATTATTCATCCACACATTTTCAGCAGAAATTACTCCTTTACTA
0.5079945621934182 TCACATCATTTTAAAATAAGAGAAAGTTTAGGCTAAGAGAGAGCAAGGGATTTGTCTAAGATCAAGGGGCTGATCAGAGTTTCATGTAGAACCAAGACTTGTGATTCCAAATTCAGCAGCTTTGACCTCTGCTCTTTATGCCCTGGACTTACGCAATACTCAGTGCCTGACACAGATACATTTTCACACTTCAGCCTTTCTGACTTA
0.7912545675019093 GGAAACTCAGACCCCGCTGGCCAGGATTTGTGAAGTCCATACAGCGATAAGGAGACTAAGGTAAGGTTAGTTACAGGCTCCCACGAGAGCAAAGCTCCACCTGAGTTCCACCTCCACCTCTGCCCCAACTCACATTGCATAACCTTGGGAGGTGCCATCACCTTCCTGGCTCATGTCTTCCTCACCTGAGATGTGCAGAGCTTGGATCAGGCTCACAACTTGCTTCCAGATCTGATATTTACATTTCCCTATTGGCTAATACCTCTTGGCTAATACCTCTTCCTCCAACTTTTAAGGACATTTTGAAATAGTTGAAACTGTTCTAAATATTAGAATATTGAAGACAGCTACTGAGGGTATAAC
0.4119684185689275 TGCTATTCATTGAAACATTAAAGGCATATTCCCTTCTGAGTCTCACTTCCTGGGGTTCTCCCACTAGCTCCCGCTAGTTTCCCAGATGGACGCCTGGGTCAACTTGCGACACATTGGACTTTTGTTTTTAACCCTCCAGGACCTTACGGCCCGGAAAATCCCAAAGGTGACTCAGAGACTTTCAGGGAAAGTGATCAAAGCTGAGGCCCCTAAGGGCACTGGATTCTATACTCTGCAGCTTCCCCTATCCCAGAGCAGGAGAACGGGC
0.2978449371049766 TGGGGGCTCGAAGGAGGTAAATCTAGGGCATATCAGTGAGTTCGGTGAACTGATGTTTGTGAAGTGCTTCAGCTGACACAGTGTTTTCATGTGACATTTTCAACAGCCCTGTGAGGTAAACACATGCCTATTGCAAGGGAGGCCAT
0.3655887082631585 GCAGCCTCTACTCAAATCGTTTTAGTGTTTGTTCCTGAACAAGCTGTGTTCACTAGAACATGAACACTTAAACCAATTGCACATCCAGGACTCTGGCACTTGGTGTTAGTTTGCTGTTGTTTCCACATAGGCAAACACTACCTATTTTGGAAGGCCAC
0.8765034644395332 GATCTAGCTCAAAGGTCACAAGCTGGCAGCCCATGGCCAAATCTGGCCTGTAGAGATGTTCCGTTTGGCCTACCCAGGGTTTAAAATGTTTTAAATTGTTAACATTTAATAACAGGCAGATAACATCCAGATTCCCAGCTTCTTAAACCAGCTCTAAAGTGTGTGGCAATGCAGGCAGTAATAACAGCGGCTGCCTTCCCGCAGGGAGCATATACACATTCTCCAGGAGCCACC
0.145274763852236 GATTCTAGCAGAGCATTTTCCCTGAAATGTTAGTAAATGACCTCTGCTACTGATTAGCTGAATTATTAACAGTGTGTCACCAACCCATCAATGAGGATTGCTATAGACATTGCTGACCAAGTTCTGAGAAAAACAGAATGAACTTCAACCTCCACCTTCATAGTGTTGTTGTGAAATCCAAGTGAGTTAATAACGTATGAAAAGCCCCTAGCTCACTGCCTGCCACATATTAAGTATTCAGTAAAGTTCATGCCTCTCTCTTCCAGTGTAAAGGTTTGGAGTTCACGTCT
0.469150357452561 GTCCCTGCTTCCAAGTCTCAGCACCTGTGCTTCACTCTGCTGCAATACCTTCTCCCCCTTCCTGGCTTGTGAGCTATTAT
1 AGTCCACCCTATGGAGGGCTTCCCCTCTTCCTGTGGTTCCTGGGAGGGAGAGATCTGAGGTGGGGAACTGGATGCAGAGCCCCACTGGAAAGTCAAAGAGAAATTGCTCAATGGTCCTGGCTTTCCCTGGAACTAACAGTCATCTTTGAGAAGGCCAACAGGGCAGCCTATTCTACGCTGACTTCCTAACAATGGGACTGAATTCTCTGAACTTCCAGTAAGTGGTTTTCTCCCCTTGGCTGGGGACCCTACCAGTCCTGATATTACCTGCCTGC
0.008876249869943249 GGAAGCAGGGTAGCTGGGGTTTGAAGCCAGGTTTTCCGGCTCCAGATTCAATCCTCCTTGTGCTTCATCTACTACTTCTCAGTCGAGGCAATTGTTTCCCCCAAGGAATATTTGGCAATGTCAGGAGACAGTCTTGGTTTTCACAACTGGAAGGGGGCTGCTGGCATGTAGTGGGTAGAGGCCAGAGACTCTGCTAAACAGCCTACAATACAAGGACAGCCCACTCCTGCCAGTAAAGAATTATCCAACTTGATACGCAATAGTGCCGAAGTTGAAAAACCCTGAACTACGGTCATGTCTGGAATGGGTTGCATCAGTTGTAAATAACTCCCACCCAGCCACATGTAGCTGCCACAGTTACACCATTAGGGAAATTGCTCAGCAATGACAACAACACTACCTGTCAAGGATTTTATTAATTCCTGCATTGAAGGCTGACATTTAAAACACACACTTTTCCTGCTTCCTAAATGTGGTGGAGAGGGCAGATGAGTTGGCACAAATAACTTCTAAG
0.6328987770713632 GACAGCCATATTGAGGGAGAAGATAGCACCACTTGTTTAGAATCAAATCATAGGCAACAAAGCAATTTAAGCAATTTCCCATGGGAACTGCCTATCTTACCAAATCCCCAGAAAACAAACTGGTCTCAGGCCAACTCTTATGGTCATTCCACCTTTCCCATCTTCCCGTTCATGTGAAAGGGTTACCTAATCATAAAATGTTTGCTCATTTCTCAAGAAACTCTGTGGACCAACAGGTGATAGCTACAG
1 TTTCTAGCATAAGCAGATGATAAAACATGGGTCTGATTAGGAAATACAGCAATGGTAAATTTGTAAGTTTAAAGTCCATCTTCCTGCAATTAGAGACATTGCCCCGCAGTTACAGACATCAGCAATGACCATGGATAAGAGCATGCTGTTTACACCTGAGATTTTTCTTTTAAAAGAATAGAATGTCATCTTGTGCTTTAGCCAAACTTTACAGCT
0.4734227871459402 AGAACATGACTGTATGTGAAAAGCTGCACTGGAACTCTGCCTCTGTCCTCACTGGTGTTTACTGTATTTTGAAGGAAAAACAACTGGTTTTGGCAGGATGACTGCTTCGTGTTGCCACTGGGAAGTACTTCTCATTGTGTGGTGCAATTATTTGTCT
0.4162812164244941 AGTGCTATCTGAGCTATGTCTCAGAGGAGCAGGAGGACTTTGACAGGCCAAAAAGAGAGAGGGGAACTTCTTCCAGGCTGAGAGGAGAGCTGAAGCAAATCCATGCATGCTCAAAGGGGGGCAAGCAAGGCGATGTGTTCAAATTGCGCAAGGTGTTTAGAAGGGACACACAACATTTGCTGTATTGATTAGTGAGACAGAACTGCAGGGCCCTTACAGCACTGACTTTGTGTCGTCTTTCCAGCTTCTCACCTTCCTCATCTGTAAACCTGAGATTTTTAAAAAGCAGCTACCTCATAGGAATGATCTGAATGAGAAAACAGATATAAAGGT
0.3740062377441293 AGCCTCTCATAGCCTGGCCCCTGCCTACTTCTCTGCCCTCAGCTCCCTCTTCCTGATCTGATCTTTCTCCTGTTTCAGGTCACATTCATCAGTCCAAAGTCATCAGGACATTTCACAACTCCCTGAATTCACTCTGGTCCCTTTCTCTGGAATGGGCGTGCCTGGTGCCTTTGTGTTGGATAGCTTTATTTGTCCCTCCAGAACCACCTTCACCCTTCTCCATTCTGCCCTGTGCTCCTGGAGGCTGTTCTGAATGGGATACAATATGGGTTCCCAGGTCCTCTGCTCTCC
1 TCCAGTTTTAAAAGCACTTCAACATCTATTAGCCAATATAGTTATCTCAGTAACCTTCTGAGTTAGATAGAAAGAGTTATGTACAGGTGACGAAACAAGTGGCCGGTCCAAATCACACAGTTATTAAATGACAGAGAATGAACTTGAAACTTTATCCTTTGTCTTCAAAGCTCCAAATCTGGACCACATGACATTGCTTCTGAGTACTCTTCTAGAAAGA
1 ATGTGATCCACCCACCTTGGCCTCCCAAAGTGCTGGGATTACTGGCATGAGTCATCACACGTGGCCTAGATTCATCTAAATTTTAAAACATGGGATGTTGCAATCAGATAGAAGAGCCAGATCCAGTATTGGCAGCTGTTACTGGTTTTGTGACCTGAAGAAGCTAATCAATGTTTCTAAGCCTCAATTCCCTTCTCTGTAAAAGTGGGTGCTCACAGTGTTGTTGAGAAGATTAAGCAGGGAAGAGTGTGTGAAACTACCTTACACATAGCAAGGGCTCAATAAATGGTAGTAACTGTTCTTTGTTTTAAAAAATTTTTGCTTAATCCACTGCACAATAAAGTGACCCATGGAAGACCTTGGGAAATGTTTACAGGTTTCAAATTTGGTGTTTGCCAAGTATTGCAAAACATCTACCCCTCCTCACTACACACTTGTACTCCTGTTAAAATACATTACTGTGCTTGAAGGTGTCCAGTCTTCTATTGTCTTGCATAGTAGCACAGGCGAGCTTGGTGAAGGTAGGTGGAATCAGGGTGTGTTTTCAGCAACAAGTGAGCAGAGGAGCTGAGCGGGTGGTTCTGAGCAAAGGGCCCGA
0.6267252623008448 CCCAAGTTTCAAAGTTCATTGTTGCTTAAAAAAAATAAGGCTATTATTAGCAGCAATCAGAGGGCAATCACATTTCCCAGTCAGGAGTCTTTGGGAGGAAGGTTGTTTGAAGCAATGCCTGGATGGTGTTTGTGGTGCCACATGTCTGGTGTGGAGGCAAATTTCGTAATGGCCATGCCTGTCAGGTGATGCCGAGACCTCTGCTCAGAACAGATATCTTTCCAGTCGGGAGTGGCTGCTCTGACATCGCTGGGGAAGGACAGCTAGCAGCTGCTCTTTTGCAAGACTTGATTCATACAGCATGGAAGATACTAGTAAGAGCAAGTCTTTAGATAAGAGACCTGATTTAAATCAGGGTTGTGCCTCTGACTG
0.3953495436519914 GTAACAGTGGTGGGAAGGCCATGATTGAAAAGGGTTAAAAAGTGTAGATGCTTTTGTAAACACAGCCAGGCAACAGGGTCAAGCAACAGGGGTGAGGCCAGTGGTGAAACAGCAGACGTGGTGGATGTGGTTGTTTTTAGTCTCTTGGATGAAGTTCAAAGCAAAAGTCCCTGAT
0.5677769256195443 AGCAAGACACAGACATAGGAGTCAAATGTTCTTGGGGTTCTAGTCCCAGTTCTGCCCTGGTGTTTCTTACACATCTTTTGGCAAGTCCTTACCTTCCCTAGCCTTCAGTTTCCCATCTGTACAACGGAGATAATCATCTGAGCTCTGTCTGCTTCCTCTGGCTATTGCGAAAGCTTTGGAAGGAATGACACCTCGGCTGCCTCCCAGGAACTAACCATCCCACTCTGCCCTTTTGGCCTCTCCCCAGCTTGTCAGAGTGCTGCCTTCCTTCACGTCCTTGGCTTCCAGCCCTCACAGGCATGAGATATCTGGGCCCCAACTGAC
1 CCCATGTGCGGGGCTCCCACCTCCATCAGATAAGCACTTGTGTAACCTAAGTCTATTTTGATCTCAGTAGAGATCTGTGTACACATGCACACATTTGGCAGCCATGGGCTACAGCCCTGGTGCTCTTGCTTGCGATTCGAGCCATGTTATCAATACTTATG
0.1162609935774504 ACTGGTTTCAACATCTAATGAATCTTTTCCTAGGGATTGAGAAGGTGCTGCCCACATTCTTAAAATTACATCTCAGCAAAGGCACGACAGTTAAAATCATGTATGCCAATCTGAGGCAGCACCAAATTGGTGGGTCACGTGGCCTAGGGAAAGAGCTTAGCCTGCACCTCTTGGGCAAACACACAGGCAGCTTGATTGCATGTGTCAGTCTGCAGTGAAGCAAGACTTCTAAATTCTGTGTGAGGATATTGATTCTCTCCAAATTTCAAAAATAGTTTCTACGCCCCTTTCACCACTCAATACGTTTGCACCTGCTGTCATTTCCTCTTCCTAAACTGCTCTTCTAGC
1 AAGGCTTCTCTAAGGAGGAGACTTCAGAGTTGTGACATCAATGTGGAGATGGCCTAATCAGTGTGAACATGTGGGCAGGAGTGTTCCTGGCAGAAGCAACAGCAGGAGCAGAGGCCCAGGGCTGGGAATAAGGTTGGCATGTTTGAGAAGATAGAAAAGACCAGTTTAGCAGAATGTACTGAG
0.6567310971582736 AATCAAACGGTTTGATAATGCCAAGTATTGATGGGGATATCAAACACCTGAAATGCTCAAGCATTGATGTGGAAATATGACCACACTTTGGGAAAGAGTTTGGCAGTATCATGATAGGCTATGATTCAGCAGTCCTATTCTTAGACATATATCCAACAGAAATGTGTACCAGAAAAAATACGT
0.3859286517332514 CTAGAGGTGGGAGAGCCCTCTAACCCTCCCCAGGGAAAATCCTAGCCTTTATAGAAACTTGGCCTGGTTTTGGCTCTCAGATTTAATTCCAAGCTGTGAAGAATCTGTCAATGTTCAACTAACCCTGACAAAACCTTTGGAAGTTTCTGTTGCAACCGAAACTCTTATCACAGGAGGTGGTACTGAGCTTGGCATCAGAGGTTGGAGAGAGAAGAGAGCTAGCCTGCTAATTAATATTTTTTTTCCTTAAATTTCAGGCTTTTTTT
1 AAGGGAGGACTGCAGGGAGTCGGGCGGGGGGCCTGCTGCTGCCCTGATGTCAGGTGTTTTTGCCACTGCGGCTGCTTGTTGGCTCCTCACACTCCCCTGGCTCTGCTCCCTAACCAAGGTGTGGCCTTGTCCTGCGCAGGCATGCCTGTGGTCCTGTCGCAAGAGGTGGAGTCCGTTCTTGTGGGTGCTGCTGTTCTGGGTGCCTGTGCCTCAGGGGATTTCGCTTCTGTACAGGTATGTGAAGACCAGGGGGTGGGCTGTGGCTCCTCCCCTGTCTGAGGCCATCCTTCCTCTTGACAGCAGCTCGCATTTTACAAAATACACACAGGAT
0.9332249616389851 GTGAGAGGGAAAACTTTTCCTCCCACCAAATTGCGAAAGACCTTGCACACATGGGGCTTTGTGGAGAGGTTTTGAGTGCTAAAATAATACAAGGTAAACAATGAATGTGGTATGGAAGCTAAGAGCATACAGGCTCTGGCATTAGAC
1 CTGCTTGCTGGGAGCTGGCAGCTGGCAGCTGTTCTCTGCGAAGGAGGCGGCACACACGGTGCTTTAGCACCATCTGCAGGCAACCCAGAGATTTGCAAGGAGACAGGAGAAGCCAGTTTCCTTCTGAGCCAACCTCATCTCATTGCCTAATAGATCACACTGTTAACGATGTGGGACGACATTTACTTAGGCCT
0.8083277572840946 TTGTTGAGAAACAAGCGTGGGGAAATGGGCTAGGTGGCACCACTCCAGAAAGCCAGCTGGGACTGAAAGAGTGAGGTAAGACAGGAGCCTGTGCTCCTCCACTGCATTTCTGAAGGATTGTAATAGAAGTTAGCATGAGGGCTGTGAAATAG
0.783441218312405 ACACCCCTGTGGCCGCCACCACTAGGATTGCACTGGTTCAGACCTAATCTATCCCAGCACTGGATCTCACCTAAGGTCTGCTATAACCATTCCCTGGCTACCACCTATGTTTACGCAAGGCTCTGGGGCTGTAGATGTCAAAGCCAGCCAGGTTTGTGTTCTTCCCTTCAGGGGCCAAGTTCCTCTAAGCCTGGGGCAGGTCCAGAGGTACTGTTCAGGAGCCAGGGAC
0.5346622464811307 AGCATTTTATCATCAACAAGTTTAATTTGCTGAGTGCTTTGCATTAAAATCACTGAAGTGAGTTGGGCTGGCCAATTCCCAAACTCTATTGCCAAACCGAGAGGCACTTTCTCATCCTTCCTTTAAATGGCAATGAGCCATTGGATCGCTGAACTTGGACCTATATT
0.5400282695596611 CAGAAGTTCAAAACAAAAAGTTCAAAGCCTTTTCAAAGTAAGCATCATAACATTATGCAACCTCAAACTGCCCACCATTGACACATCTCAGGGTCAGAACCTATATTGCACTGAAGCAAGCCTCAAAAAATCTAAGGAAAAGATATTATGTATCTAGTTTTTCTAGTCTTATTAAACTATT
0.9713706480366034 TATTATCTTTAGGGGTTGTGGCTAAATTTACTTTTCAACACCTCTACTAAGCTCTAGGCCTGCCTGAGAGTAGCTGAACAGTAGCAGTATGGTCAATATGCACCCACACCAAGCAGTGCTCACATGATTATAAATTTAGAATTGTGCAATGAAGTACCACGGTATTACAAGAATAATGACAATAGGGGCTCACATTTAAGAGCCCCCTTCCTGTGTGCCACAAATGTGCTAACTGATTA
0.2464247247447617 TTCTGGGTCAAGCACTGTGCTTAGGGCGAGAAGTGCAAAGGTAAATAGGTCACTAACCCTGGATCATGGAGTTCACAAATCAGCAGAGGAAAAACATGGTCAATATAAAGTTTGCCTGTGGAGGGTGTTGCAATGCAGGAATACCAATGATAGATGTTTTCCCTGGGAAACTAGAAGACATCACAGGAAAGGTGAACTTCAGGATAGATCTTGAAGCACAAGCAGAAATTTGCTAGAGCATAAGAGGGAAGAGCAGTGGAGGCATGACCTATTGTAAACCAATCCCG
0.4004458349664634 AAAGTTTTAGACTAACTTGCATGTATCCCAGAGTTTGCACGGTGTTGCTGAGTGTCTCGTTAGACATACACCCTACCTACTATTCTCTCCTGACATAAAAAAAGGTGGTAATTGAGCTGGCATCTAGAAAGTGGTGGTAGCACTACAGATTGTATCACTAATCCCAAACAAAGGAGTTGCAAAACACCTTTCTTTAAATATTTTCTCTTCATGGTGCAACTGGGGAGGGCCAAATTCCAGCCTTAATAAAGTTTTAACCTGACCAGTTGGTAGAAATGGCAGAGTAATAGAATGTTTGGTCCAGAAACCAATGTGTGGACTGTGTCTAGGATTAGACTCTGCATTTCTGTCTGTTCCAGATGAGCTGCTC
1 GATCAGAAAGTAGAGAAAGAAGGTAACTTTGCCGAAAGCTAGTCTGGGGAGTTAGTAGCTGATACAGATCAGCATTTCCTAACTATGAGATTTCATAATATTCTCTCTTGTCTCGATTCTGAGTCACTGGTGCCTGCTGTGGTGGCATTGTTCATGAACATGTACAGTTATTGGGAAGTGATCTTGTCTTTCCTCCT
1 TTTCATAAAGCGGTACTAAAAATCTGCTTTTCTCCCTAGCATTTACCAACAACCTTGCGATCCGATGGCTTGAAATAATGGTCAGAGTGCATGTTACCCAACTTCTCCTGGCTGCTCCTACTCTGTCACACTGCACACAGATCATGCCCGCCACCACCCTACACTCCCCGACCTCACCCACCAGTCAGACAGTTTAAGTCCTGCTGACGCACCAGGCGTGTGTTGGCTCGTGGTTGTACTT
1 CCATTAGGTGAGACTACTCTTTGGCCAGGAAATAGAGACCAGAAGCAAAAATAAAATAGAGCAAATGTTTACCAGGAAAATGTGTTGTAATCCAAGCATATTCTTGTGTCATTTTTTTAAAAAAAGTAGCTTTAATGAAAGGTGTCACATGCAGCTATGAGTAGAAGAACCTTTCCCTGTACTTTGCAAGGAGACAAAATATGGATTTTGATGGACCTGTACAAACTTA
0.500697851601914 TCTTCTTTCAAAAGAAACCATTTGGGCTCGAGCATTAAAGGAAGAAACAAAAAGAATATAATAAAAAATAGATTGCAGCCCTAGCATGAACAGTTGCCGTGACCTTGCCTTTTGTTTGCCATTACACAATTCAATGGCAGTCTACTCAAACTATGTGCTCGATCAATATCCTATTAAAGCAGCACAAAAAGTCTCCATAAACTTAGTGGTTAGCTATGTTTATAAATGGAACTCGGCATAATTGGATGGTCAATAGC
1 TTGAGATAGAGTTTCGCTCTTGTTGCCAAGGCTAGAGTGCAATGGCGCAATCTTGGCTCACTGCAACCTCCACCTCCCAGGTTCAAGCGATTCTCCTGACTCAGCATCCGCTAACAGTGAGCTGAGATCATGCCACTGTACTCCATCCAGGGTGACAGAATGAGACTCTGTCTCAAAAAACAAACAAACGGGCTTTCTGCTCCAAAAGCAAAGTGGTACTCTCAAGGCAGGAAGCCTGTACTTCTTTCCCTAAGCTA
0.2617541554831409 TAAAACACATAAGCATTTGCTCAATTAATGTACCTTGATCTATTACAACTCAAATACAACAGTGGTGATCAAGTAAAAATTTGGAACACAAGTAACATTGCATACAATCTATTACCTAACTTTCAGATGATTTCAAATATCCAATAAAAGATTTTTTTCACCATTGAGAAAGATCTTTATTTGGTTTACT
0.4834393857695756 CAGCAGGCGGGTGCCAATCTTTTCTCCCCGCCCCCTAGTTTGCCTTGGTTCCGAACTCCTGCCCTTTGCGCGGCCTGCTTGCTGGGGGGCAGGCGTTTGAAACATCTAGTCTCTGCCCAGTGGTGCCCGGGATCTGTTCCACCGACGGGGCTGGAGCTGAATTTTCATTAGAATGGCAACATACCCAAAGACGCCCTTACGCAAGCAAGCAGTCGTGGCAGGCCAGGAAATTACCGCAACACCTTGGTTCCGCCCCCGGCCAAGGAAAGTTAACTGACTTGATTGGGCGGGTCCACTCGGATAGGGGAAATTAAAAAAAAAAAGTTTTTCAGTAAAT
1 ACAATGTTTTACAACCATCACCACTATCCATCTCCAGAGCCTTTTTTAAAAATCATCCCATACAGAAACTCTGTACCCGTTACACAATCATTCCCCATTTCCACTCCCACCAGCCTCTGGTAACCTCTGTACTACTTTCTGTCTTGATGAATTTGCCTATTCTAGTTACCTCATAGAAGCAGAATCAGACAATCCTTGTCCTTTTGCATCTGGCTTATTTCACTTAGCATGATGTTTTCCAGCCTTATCCGGGCTGTAGA
0.1910439158430392 CTTACTGGTTTAACTGACCATCTTTGAGGTGGAATGAATTATTCCACAACAACCTAGAACTTTGGCACTTTGGCCTTATCTGCCATATTTAGTTAAGATAATGCTAGATGTCGCAATATACCTTCTAAATGTAGAATGAATCAACAGAGTAGAAGTTTATTTCTTGCTTACATTGAGCCCAAATGCATGTTTCCAATTGCCAAGCTGCTCTTCT
0.3626789463602677 GCCAAATGTGATGTGAGCAAGAAATAAATATTTGTTAAGCCCCAGCATTTGGGAGTTGTTTGTCATAGCAATTGCAAAATCTCTCTAGTAAACTTTCCAAACCAAACTTTTAAAAAGTTTTCATCAAGAGTAAAGGGCAAAATTTACTGGGTGACTTCTTAGCATCCGCTGAAGTTCTTACACAATTCTTATCATATTTTTTTTTTTTTGGCTCCTGTTTTCCTTTGGTATTCTAAT
0.3298831930717156 CTATCCTTGCAAATTCAAAGTATCTCAAAGCATTTTTTCCCTTCTTAAATCATTTTGACTATTAGTATTTGTGTTGATATGGCTTCCTCACATGAGAAATGCTATTATGCAACAGCTGTAGTTGTGCTGCCTGAATGCATGCCAGTTCTGTTCAGATTGAGCCACAGGGACTGCTTGTTAGCTCCCTAGCTGCCTGGGAGAGAGGGTAATGTAAAATTAATGTATGAAGAAAGGCCTGTTATCTGACACTATTTGGGGATGCAGGTG
0.6030065416219141 TTGTCTCTACTGAAAATACAAAAATTAGCCAGGCATGGTGGCGAGCGCCTGTAGTCCCAGCTACTGAGATTACAGTAGGAGACTGACGCAGGAGAATAGTTTGAACCTGGGAGGCAGAGGTTGCACTGAGTCGAGATTGCGCCACTGCACTCCAGCCTGGATGACAAAGCAAGACTCTGTCTCAAAAAAAAAAAAAAAAAAAATCAACATAGGGCATTTAGATTCCAAAACACCAAGTCAGAACATCAGCAAACAAACTGTACTCTTCATTTTTAGTGTACTTCCACAAAGCCATTTCCCGCTGGGGTTCCTCTGTCCTCTGCCTGCACTTCAAATT
0.1994179525828428 CCAAGGATGCCACCGACTGGATGCCACCGACTAAACAGGATAAGAAATTCAGTTTTATGTTTGAGAAGAGGAAAGTTTTAAACAGTCACTGAGCCAGGCGTGGTGGCTTAGACCTGTAATCCCAGCATTTTGGGAGTTCAGGAGTTCAAAATGGGTTCAGGAGTTCAAAATGAGACCAGCTTGCGCAACATGGCAAAACCCTGTATCTACAAAAAATACAAAAAATAACTGAGTGTGGTGGCACATGCCTGTGGTCCCAGCTACTCAGGAGTCGAGGTGGAAGGATCACTTGAGCCCAGGAGATCAAGGCTGCAGTGAGCTAGTATGGTGCCACTGCACTGAAGCCTGG
0.7869969411808611 GACAGACAGATAAGGAACATGGGATAACTAGTGACTTGGTAAAGGATTAGGCCTGGGTACCCAGGAGACCAATTAAAACAGTCATTGCTTCACAAGCTTCTCTAAGGCTGGATCTGAACAGAAGTGCAAAGGGCATGACATTTGAAGAATTGTTTGCCTGGTGTGGATGGTTAGGCAATCTACATGTGCCTTCAAGGGAAAAGCATGGCTAGTTGGTGACTGCTGACAAAGTTGGTATCAGGCAGAACACCTTGGCAACCAGAAGCCAAGGCAGGATGATGCCTCTAAGTCTTCCTGCAGCCTGAAAAGTTAATAGATTAGTCAATTAGAAGCAAGTCCTTTGAAGTGTGGTCAGTTTCAGGCAGACTTGTGGACAATGACTATTCTCTCTGTGATTGTGTTCACTGTAAACAATGATGCAAGACCTAAAGATAGAAAGGGGATGTGAAATG
0.5288092154466705 GATCCTTCATGTAAACAACATCCAGGCTCTATTTACAGTCGCCGCCGGACGGCAAGGGACCCACGCCAGCACCCTGGACGCGGGCGGGGGCGGGGGAAAAGCGAGTGCGCAACATTTACACACACACCCCGCCCCTCCGCGCCGCTCCCCTCCGGGGGCCGAGCCAGGCGCCCGGGGCTCCCCGCGTTGCCACTGACAC
0.3608919901404209 GAGTCAGTGTTCTAAGCCACTTGTGGCTTGAAAAATAGAACCTATTTGTGCAAGACATAACCTTTATTCAGCCTGAACCCAATGCTAAATGCCTACATAGACTTGTGGACTTTTTGCAATAATGCTAATGGAGCCAAGGGGTGCAAGTTGGAGACTGGCAGACTAGAGGACTT
0.102918846110136 TTATGCTTTTGGTGTCATAGCTAAAACACCATTGCCTAATCCACAGTGTAGCCATTGTTTTTAAACATGGGACTGACATCTGACTCACATTTTGAATAGATCACTCAGGCTATTTGGAAACTGGGGTTGAAGGTTCTAGAGTGAAACTAGGGAGAACAGTTAAGAGGCTGTCAGTATTGACAGACAAATGGGTAGACTT
1 GAGGATGTCGTTCTTTCTTGTCTTCTGTTAAATGGTGCTTTGAATGTCATGTTTCAAACACTGCTGGAGCTCAGATCCCAGAAAATGAAAAATGTGTGCACTTAGCTTATGCGTAGAGGAGCCTAGCCAAACCAAACAGCACGTTTGAAACTTTGCTTTTCCTTTATGGCTGAGATTGTGAAAGACAGCCACAGATGGTGGCTGAGCTCTAGCTGGAACTGCTGTTAGTCGGCGCGAGATGTTCTAAGTGACGGGAGCCAGGAACTCACTGTGGTGTTTCTAGAAGTTAAATTATGATGATAGGATCTTCCTGTAATACTGGTTCTGTTCCTTGCCTTTAGTTATATCTTGGAAATCTGTCACATGGTTAGTGACTAGTGAAAGGCCAAAAAAATTTGCAGAATCAGCTATTTAAAGCTTTGTTCTTGATAGTTCAAGTGTTACGCAAGGCAAAGCAGCCCTCTGTTAAGGGTTTCAGGCTAGGTGTCTCCTTGTTAGGGTGTCATTCCTGTTGTAATTATT
0.3923496651993068 CAGGAAATACCACTATTCAGTGGGGTTAAGTTATGAAGAGACATTTGGGTGACATGTGACCTGAAATTTTAGCACACTGCCATCTTCTTACACACTTTATCCAAAGTACACAGCCTGATCAGACTTTGTATCTAGCTGCTGATTGCACTGAAGCTATTGCAACTCCTTTGTTAATGCTCCCAGGTGATCGCATGCATTTCTTCTGGTGCTAAGCATTCATAATTTTCGATAAGTATTTATTGATCAGCAGCTGTGTGCCAGACACCACAGTAGAGCAACAAAGAGACTAGGTGGGGCCTGGCTCT
1 ACATTTTAGAGGGAGGGAAGATCACATGGAAAAGCTCTAGAGGTATGAAACAACATGGTGTATTCTGGAAACCACAAGTAGTTGGGTAACCCTGGAGCTAAAAATATGAGCAGATGAGGCTGGACAAGTGGACAGGGGCAAAAGTTAACCTTTCATGAAATTTAGAAACAGGGAGTTGAGTAAGCATCAAAGTTAATATTAAAAATGAGGGGGAGTTAAAAGTAAAATTTAAAACTTTG
0.2693431546784266 TATTACCAAACATCCGTTTTTTTTAAAAAAGCATAAGGCATAAAATCAATTCACTAATGTCATGCTAGAGTGAGGTAGTAAAATGAGGCAACTCAGACCAGATGGTGTAATTCATAAACAGGGCTGTCATTTGGGAAAACGGGTGGAGTGGATGGAGAAATTAACTTGCAGTCTTTCCCCTTCCATTTCTTCCCA
0.09883474785952609 AGCCCCGTTAGATTTAAAATGTTGCTCTTTTAATCTTCTTGTTTATTTTTCTAAACTAATATAATATAATTAACCTTGAAGCAGATCCCATTGAGAAATTTTGAGGCCAAGGTTTAGGGAGAGTTGCAAAACTAGTTTTGTGCTCCCACTGTACTGCTAGGTTTGTGACCTTGGACAAGTTGCTTAAGCCTCAATTCCTCGCCTGTAAAAGGAGGCTAATTATACAGGCTGTGTTATGCACTTAATTTCAATAATTTATTTGGAAGCATATGATAAAGTTTAA
0.2387636458436678 AATTAGCGAGGTATGGTGGCCTGCACCTGTAGTCCCACCTACTCAGGAGCCTGAGGCAGGAGAATCGCTTAAACTGGGAAGGTGGAGTTGGCAGTGAGCAGAGATTGCACCACAGCACTCCAGACTGTCCCAAAAAAAAAAAAAATAAATAAATCAAAAGGTTGTATGAAATCACTTCCCATAGGCAGTGGAGAAGATTCTGTGGAATATCATTTGCAAGTGCC
1 ATGTCACTCCTGGTCAAGCCAATCCCCTGGACCCTATGTACATCAGTCACTGCCTCCTCAAGCCTCTGTATACAACTGATTGCATTCTGCCACAACCCAGACGCCCTCTCTTGGGCAACCTGCTTTCTCAGCATGAGGAAGGCTTTGCTCTTTCTCTTCTTTTTTCTCTATTAAATTTTCCTTTCCTAAACCCATTCCTTGTGTGT
0.301389656525367 GCCATAGTGAAAGAGGACACATGGGATTGTAAGAGCCAGATTATGGGGGTGGAGGGTAAAGGCTGAAGCAAGTCCATCTTGGATGCTAACTCACTATGTTAGCTTCTGATTAACCCCAGTTCCAGGAAGGCTGCTGAAATTTCCAGTTTATGTGTTGTTCCTTGTGTAAGAGCATGGACTTACTGCAAATCCTGCCCTTAGGGCAAATTCCTACCTATTCCTGCGGAAGCATGTGTATCATTCCCCTATGGTTTATAACCCCTGAGTCTGGGGGTAATGGCACGGGGACCCACCAGCTTGTCTGCCGCCAT
0.5404209560578849 GAGAAGCTTCTCACACTGTAAATTAGTCGAGTTTCTCCAGTTCAATACAGGAAGGCTGAGTGACTTGCAGGTGGTGTTCACACTTTTGCCACATGGGGACGCCACCACCGTTGGTAGCCGGACATACTGGCACTCCGTCAGGGTGGAATATGTGAGCATTGCATAACACAAAGTTTCACTCACCCTCATCACTCAGCTTGAAAGGACCATTAACACAGTTTTCTCTCCCATTAAACTAAATTCCTCAAAGGCAAGCTTAGACTTATTCTTTTAAACCCCA
1 ACGAAGGCAACTGCAGACCTGAAGACAGCCTCAGCCACACCCAGAGAAGCCCTGGAGCTAGAGCGGCCTTCCAGAGTTATCAGAGTTGGGGGAGATGACCAGGCATTTATACTCCTGTGTTGATCATTCATTGGCTGTGGATTGGCCCTGGAAGGGTGGCTACAATGAAGCAATCCCTGAAGGAGTGGACAGTTAAAGGTCGTCTGCTGGGAGCTCTCTGGC
0.7644607430934085 AAGGAGAAGGGGCTGGGAGGTAAGGGCAGCCAGAGAGGGCAACTGGCACAAAAGCTTATGCATTACTCAATGCATGGTATGAACTAGACAGGGAATGGCTGAGGATGAAAGGACTCCAGGCTTGATGGAGAAGAGCTGGGTTCCAAAGGGCTA
0.06193638365530419 CTGTCAGTCTGCCAACCCTCATGGGACATGCCACTGGGGTTTGTTGCATCTTACTGGGCTTTGCCTAATCGGTCTTGCCTGTGTGGGTCTGTCTGGTCTCTCGGGTCATGGCTGTGC
1 TGGAACACTTAATGTTATCTATGTAGGTGACAGTGACTCTCCCTGTTTTTACCAGGAAATTTCTATGAGGGCATGGGTTTGTTTAGGTATGCAATACTCAGCACTCGTTTGGCACTTAGCCTCCCTCTCCTCCCTTAACCTTCTGCCACATCCTCTGGCCCATTTCCAAACCTGGATCATTTCCATGATCCCTTTTTCCCTTATCCTGGGGCCCTGAGCCCTGGCCTGCCACACGTCCACTGTGAGGCCTGGACAGC
0.03952987373254403 AGAAACTCACATGATTCCCTAATTCTTTGTCAGCTTGCTGTGATCACATTTTCTTCCCAAGAACCTCTAAGAAATGCCTAGTGGATAGAACCTTGGAGTTCCACGGAACATATTAACAATCGCCAAATGATGACTCAGGCTAGATTGTGTAATTCAGGTTTTGTCTGCAAAACTGAAAATGCTTCGGTAACCTACCTAAATTTCAATGTTGAGGAATTCTTTAAGAAAGACATCAAATGTTAAGATTTAAGGCATAGATATGAG
0.1273511850504345 CAGTCATCAGAAAACTCAGGTCATGACGACATTCTGGAAGATAGGGGTTGCCAGCAGAGCAGAAGAACCATATTGCTCAATCTTCGCTATTTGCAAATTTTTCTAAAACGCATTCATCTGCTTTCCTGCAAAGAAAAGGTCAGAATGCTGAACATGATTGATAGTCTCTTTATACTCTCCTGGTACAAAGTAAACC
0.9906700137460536 AACGGGACTATCCAAAGTGCAGTTGCAGGACCTGCCAGGAGCCCGCAGGGCTGCGGGTGGTTCTTGCGTAATCGCGCCAAGAAAGACCTGGTTCCAGTTTCAGGGACAACTCGCCCATAAACTTCTACTGCGCAACAGCATCTGCTGCTTTGTCTGACACTTGTTGTTTTCAAGTACCCCTAAAAAAGCGAAAGAAAGACTTACCTTTCTCGGAGGCACGAACCAAGCAGCCTAGAAGACAAATGCGCTGCTCGGAGAGACTGCCGCGGCAACCAACTGGACACCCCAAGAGCTCACTCCTCCGCGGTT
0.4901433941724558 GGGGCGCAGGGAGTGTGGGTAACAGGCATAGATTCCGCTTGCGCAATACGTGGTAAGAAACCAGCTGTGAGGGGCTGGCCCAACGCAGAGCGGCGCGAGGTCCGCTTGGCATCTACAACAATCGAGGGGCTAGTCCAGAAGTTCAAGGCGGGGTTACAGGTTGGGGAGGAACTGTTAAACTGTGGACTTTTTCTCACCTGTTGGAATAAGCTT
1 TGGAATTCAAACTTTAGAAACTTGAGGTTGCTTTAGGAACCAACTCCTAGGCACTCAGCTACACTATGCTATCTCTAATAATGCTAGTAACAATTTAGCCTATTGCGTCATTTAAGCACTGTGGCTTAGTGATTAAGAACACAACTCA
0.8551805760765261 AATTCTGTGAATAGACCCAGAACTATCTAAAAAAGAATAGGAGGAGAAAGTTGCCTCAAATACCGACTCGGGCTGTCCTCCAACTATTATGAGCCTGACTATTCTTGCACCATGGCTCTTGCCTCACTGTCAACCTTCTACATTCCTCTTTTCTCCCCAACTTGTCCAATTCCATTTCAGTATCAACCTCTACACTCCCAATGTCCCCTTTTCCTCTTTCCAACATCATACCTCTCAACACTCACTTCTA
0.8435580068495211 CCAATCTTAGGAGAAGAAAGTGTGGTTGGAAGCCGACTTAAAAAGCAAAATCCAGGGCTATAGCCAAGAAGCCAGGTTATTCATTAAAAAAACATTGATTGGGAAACTTCCATGTGTCAGGCACTATGCTAAACACTGGGTTTACTAAGTGGGGCACAGTGTGCCAAAGAGTTTATGATGTAGAGAGGAGTCCAGTAATTACAACACAGGGTGGTAAGTGCTACCATAGTTATGCGAAGCAGGGAAATGGCAGGGATCTGAGAATTTGAAGGTGAGATGGCCATTTTATATTGCTAGGAGGGGGCTGAGAGAAACGGCTCAAGAAAGCCACA
0.3559882748362476 CTTTCCTATTTGATTGGGATATCTTTGAGGGCAAGAATTATATCTTCTGCATTTTCAATTAATTTTTAACTGCAACTAGAAATGCTTTATTGCAGTTGAGAGTCTGTTGCTGGGTAGCAGTGTGATGCAATGGGTATGGGTTGACCTAGTTAGAGATTCTGGGCTCTGGCCGAGAGCAGCCTTTCCCCTGGTTTTTATGTCCAGGCAAATTAGGCCTGACCTAGTCCCTTATCACACACTGCATTTATTGTCATTGTAACCTCTCTCTCCCTGACTGAGTCTTAATCCACTGTGGGTGCTGAATACATGCTTTATGAGTGAATAAATGAGT
0.8814329908981824 GTAAAACCCAGTCTCTCCAAAAAAAAACAAACAAACAAACAAAAAAACAATTAGCTGGGCACCTGCCTGTGGTCCCAGCTACATGAGGGGCTGAGGTCAGAGGATCACTTGAGCAAGAGAGTTCAAAGGCTGCAGTGAGCCATGTTTACACCTCTGCACTCTGGCCTGAGTGATAGATTGAGATCCTGTGTCAAATAAAATAAAATAAGATAAAATAAAA
0.3300663562206965 TGTGGCACTTGTGCTACAGAAGGCCTAGAGACTGCCGTGCTAACATCAATTGCAACACCACTGCAGCAAGTGCTGGCATAGAAGAGCTGCTCTGCGATTTTACTATTGTAATGTAAACACTGAAAATATGAACTAGAGCTGCTGCTCTCTCTACCAATGTATGCAGTGCTTCTCTAGGC
0.8126170562114641 AAAGTATAAAGGTGAGAGGTGAGATTCTTTGTTGCAAGTGCTGAGAAATAATCATTTAAAGGTCAATTGCACTCAAAAAAAAAAAGAACATCTGTTTAATAAGTAACTCATTTTGGGATATGCTGCAATTTTAAAGGTTACAGAATAGACCAATTTGCCAATGATGTCAGCAAGTACTATTAAAGTCATTGGTCCTATAAAAACAATCCTTCGTAAAATTCAGATTG
0.6273416129948601 TACAGAGATTTCTCATATGATCCATATCCACACACAGAGTGTTTCTCAACTGAAGATACTTTGCCCCACAGCAGTACATTTGTTAACAGTCCATGAACCCACATTGACACATAATTATCACCCAAAGTCCATAGTTTACAATAGGATTGGCTTTTGGCGTTGTACATTTTATGAGTTTTGACAAATGTATTCACCATTGT
0.3167097000398322 GGAATTTCCCACTAAGAGTCCCTAGACCTTGGTCCTGTTGTAAAGAAAAACGTGCTGTTTTGCAATAGGTTATGCCACTTAAGTTAGAAAGGAATGCTTTGCCAACATTTTCTGAGCTCTGAAGTTATGACCATTTTTTTCCAGTGTCTCTCTCCACTCACACCTGTTTCACCTTGACTGATT
0.1629865003542214 TACCTCTCTAATAATCAATCCATCATTTCTCCGCAGTACCAATTGACCCTGAAAAGTCTGGGCAAGTTACCAGAAACCCGTGAGTCGGCCCACACATTGTGTAAGAGGTTGTGGGTATTACACCCTGGAAAGGCTTGCTGAGCAAATATCCTCCTTCCAGCCAATGCCTCATCTTGAAAATGTATAGTTGGATCTTTCTCCTGGGCATCAACATCTGCCCACCATG
0.1082595761441136 CGCTATCAGCCCAAGGAGGCAGCCAAAACATGAAGAGGCATAGCTAAGAGATTGGCTGCGAAGTGGAGCTGGAACCCTGGTGTAGCCCACACAGAGCCATCACTTCTTGTTACATAAGTTTCAATATTGCTTAAGCCAGTGTTCTGTGACTTGCTGCCAAGACCATTTGCTATACAAAGTACAACTGTTTTGGTGTGTTCTTTCCACACTAGCCACAGTTGGTGCATTAAGCTTCAACCAGAACAGTGGATCAATACATTGTGTAATGGCCCCTCTTTTCCCCAGTCCTACCTATTTTCTATCGTATACCAAAGTGCTGTCACCCCCAAACAACCC
0.3063612408419968 CAGGCCAATTACAGACCAATTAGGTAATGTGGAAAAGTCATTAGTGAAACTAAATCTAGCATATCTGGACTTCCAAGCAAACACCATGCAAGGGAAACAAAAAATCAATCTGACTCAGCTTTACTCTAAAGATGTTACAATTCCAGCTATGAATTGCATCATGTCCAGTACAACACATCATTCTAAATACTGGTGAATTTTAACATTCTGTCTAGGAATATCCCTGAATAATGACACATAGATTTCATAAACCTTTATAG
1 TTTACAAAGAAGACAATATTGGAAGGTAAATAAATATTCAATACATATTTGTTAATCCAATGTGGGATCTCTAGCCAGTAGAACAACTCTACATTAAACCTCAAAGCTTTACATGGCAGATGGCCCAGTTGTTATTGCCACATCTCCATTCTGCATCACCCTAGGTCAACAAATTGCAAGGGATTGACTATTAGCACCATCTCCTTCCCAAGGCTGCCTTAGTTTAGGAGCTTTACTGTCAGTATAGGCTGGCCTCTCCCTCCATTCCACTCTCTCCACTACCCCATGCAATTTAGGTTTTTTAAGT
0.3636150874051033 CCATTTTTTTTTCTTGGTCCATCCTATCTATGATAAAGGCACACCTGAATGACATTTAATGGTTACGAAATAAATGATTTCGAGTTTCAGAGCCAAATCCAGCCAAGACTGACTAGAAACCACTGTGATGAGGTAAGAATTGGGAGAGTAGAGAAATGGATTCCAAACTGCAGTGAGGTCTACAGCATTTCAAGGACTGGACGTGAGGGGGATCCCACACC
0.4067513345095135 GTGCAACTGAGCAAGGTCCTCACAACGGAAATTAAATATCTCAGTGAAGGGCTGATGAACCCCTGTGTGGTCAATTTCCTCCTGCCATGGCTGATCAGCTCTCTGCGGGCACGGGCTCATGTGAAACAGCACACACTGTCAGAGCAGAACCCTGCACACCAGCAAAACCAGCCTTGGGAGCTTATTGGGAAACGATGGATTTTTAAAAGTTGTGTAATTGCTTTTAAATGCTTTCTTGTTAACAAATATG
1 GAGAACTCACCCATTACCAGGAGGATGGCACCAAGCATGAGGGATCTACCCCCATGACACAAACACTTCCCACTAGGCCCACCTCTTAACATTGGGAATAAAATTTCAACATGATATCCAAAGTATGTAATCCTTTCCCTGGTTCCCCAAATCTCATGTCCTTTTCATATTGCAAAATGCAATCATTCTATCCCAACAGTCACCTAAAATTTTAGCTTGTTCCAGCATCAA
0.4215148982372324 AGTTGTATTTATCTGTCTGCCATGGCTGAGACTTGCTCATAGACAAGGGCTGGTTAGCAAGCCTGTCCCTTTGTTCCTAAGAGGCAGAGAAAGAATCTTTGACCCTGATTTCTAAGCACAGTAAACAAAGGCCTTCTTGGCTGCCAGTAAGCTCAAAGTGTTCATTAAGCAAGAAGTTTTCTGGCCAGTGGTTGAAATGACATCATGCTTCCTCCTGGAATCCAACTAGAGATAAAAATCAGGTCATTCAATTTACAAAGAGAGAATGCTCCCTTCTGCTGCCAGC
0.6048172305030279 TGGAACAATAATGGGAGATGGCGGTCACCACAATGGCATGTGAAAGGTGCTGCTTAAAATACGAAAAACCAGTTTCGCAACTTTACACACTGCACCCACCCCTCCCGTCACCTTGCCTTCCCTCCCATCACCACGCTCTCCGTCTCCCGTCTGCCGGTCCCTCCCTCGTTCCCTTTCGGAAAACCGAACTATTTCCAACTTGTGAACTGCA
0.4439361735623035 TTTGCTAAATAAATAAAAAGGACATTTGAGAAGACTAAATAAGAAAAGGTATAAAGCCAAATGGCTAGCATAGAATCAGTGATTGAGATTTGCAACCCCAGTCTGTACTCTGACCCCAACTTCAGAGTACAGTCTCAGGACTGGGCACATGGTCAGTGTTAGGCAAGTATTGATTGGTGACACTCTAATCAACTCCAAATACCTCTGGGCCTCCAGGTTTATGTTCTTTCTTTGCAAGTGTAAGCTGGTACTGATTTCAGAGCTTGTGAGGGAGATGTGATTTTCCTTAT
0.103272680882662 ACTCTCTCAAAACTAAGCAGAGTACGGGGAGCATTTGAAAGGGCATTTCACAATGAGCAATAACTTTTTTATGTCCCTTGTCCCTCTGCTATCCTCCCTCCTAAAGCGGATATCATTTTAGACTTGCAACACTGCCTGAGTCCTGA
0.7009527104512203 ACAGTCACACAGTGCAGACAAGAGGGCAAATTCCATTCTGCCCCTGGTTACAGGAAAGGGTAAGCGTTTCAAGGTCTGTTTTGTGTACTTGTGGTTCAGAAACACGTTCCCTGAAAGTATGCTGGCAAAGTTGCTTAGATCTTTCACACAGTCCTGAGGAAGGTACCCCAATTCTTTAAAACAAGCTTTATGTTGCACAACACAC
0.4495403274300453 CCAAAGACTTCAAACAACATCCCTATCTTCCACCAACACTTCAAACACATTGGATCTGCTGGATCATATGGCACAAGTGCCAGAGAAACTTGCAAAATAGCCTGGACCTATTGCAGAATCTCGTCTTGTTCTGGGCCCCACTCAAAACTTGCAGCTTTCCAGCTCACCCAGTAAATGGGCTGGAATAACACCTGAATGAGAAATATGTTGCCTCCAAAATACAAAGAGTCCCACTAGAGGGGGAGGTGCCA
0.194048971404768 TTCTTTCCAGCGTATTACAATGTGTCTCAGCTACCAACAACTTTCAAATTATACTCCTTCTCTTCTTGCAACACTTCCAGTACACATAAGAGATAAACTGATTGGCCCAGCTTAGGTCAGGTGACAGACCTGAATCAATTAGTCATGGTTCAGGGAATAAAGATCGCTAATGTAGACACAGCTATCAGGGCAAAGGTCAGCAGAGGACATGTCTGTGCATGATGGCAGCTCCTCAGAAAAGG
1 GGCCTGCTGCCTCTTCTGTGTCCCAACTGACCAACACACCGGAACCTAACTCTCCTCCTCCTAGAGAGTGGCTATCTCTGTGGAAATAAACTGGATACAGGTCAGATGAGAGCCACAAGGATGTCTGCCAGTATAAACCAGTTTCCAGGGATGTCTGGTCATGGGTCAGACACTTAACATCAGGCCATCTGCCAGGATAAACAAGTAGCCCATGAAAGG
1 AGAAGCTAAGCAGATTTGTAATGGATTTAGAGTAATATGAAACTGAAAGTACTTCGTTCAAATCACTGACTCCACTACCATAAATGGAATTAGTGGAGTGTGCCAGTGGGAGGGTTTAAAGATTTCTCAACCAGAAGCTTCAAATTTTTTTTGTTGTTGTTGGAAATCTTAGAGACCATTTGTTGTCTAACAAAATGCCCATTAGGTTTTGAATACAATGATACATGTCTCA
0.7028298657671684 ATGAAACAAAGTATCAACTAAAGCAGTGACTCATTCACCATAAAAGGAATTGTTGACAGCTGTGCTGGTAAGAGGGTTTGTCATGATTTCTCAACCAGGAACTTTCCACTTTATCATTGGAAAAGATCTTAGAGACTGCTTGCTATATTAAGTTTTAAAAACCCCTTCATTGGGTCATTTAAAATAGTGCTATTTATCT
0.6804101264627445 GCCATCTTCAATTGATTTTCAGTGTAGTAATCATGGTGTGTGCTTTTTTAAAAACACAAACTAAGCCATTCACCTTTTCTGCACAAAGGTCATAGAAGTTTCCTACTGCAGGTAGGGTAAAATCCTTTCCTCTCTGATTGCCTGCAAGATCTTACACAATCTGGCTTTTGCTCACCCCTCTCCTCATCCCACATAATCTCAGCTTCACCACATGAACCTTCATTCAGGACCAAACACATCAAGCTCTTTCTCAATAATTTTCCTTCATTTATTTCCTAATTGTGCTTTTAGTAAAATTCATCTTAATTCTCATTTCCTGAGAGAAGGATCATTGGCCAGCTAATCTCAATT
0.2665421992738172 AACCACAGAAAAATAATTAAGAGAAATGTGATTTACTTGTTACCTAAGAAGCAAAAGATACATTTTTCTCCAAAGTAAGTCATTAAAGATTGCAATCGTTTATACCAGAGTTGATTTACTAGCATGAAAATGATTGCTTAACCCTGCTCCCTGTGTTCACCAGGCGGGTTGGTGAAAGCTTGTGTTTCAGATGAGCCAGCCTGGCTACAGGAAAAGATATTTGCATAGAAGACTG
0.5110225144826874 TAAAAACACTCTTTAAAAATAATTTAAAAGACTTATTTCGCACTGAAATTAAGTTACCTTGTGGTGAAATCATCTCTTCTACAGAAGTGTTTGATTAGGTACCAGTTGTGCAACAAATGAAATGTTTGTCCATAATTAGAGTAATTGTAACTTGATTTTAAACAGAGGTTTGATTGCATGGTGAGTGTCATAATGCCAAATGATTTTTCCATTGATTCAGGGCCCAGTGTATTCTTAAGTTGATGTTTGATCTCAGCATGTTTAACCTGGCCCAGAATATATCTGGCACCCTTTTGTGTGTGTGTTGTAAATGACTGTTCTTCTGTGTTACAG
0.9935583332625879 ACAGTTTATTTATATATTTGAACACTATGTTAGATTTGTCTCGTTTTTATTGAGAGTGTATGTGTGCGTGTTGATTAAAACCTAACAGATTAGAAGGTTGGAGAGGAAACTGTCCTTAGATGACCCAGCCTTCCATTACCATGTGGAGTAGCATATGATGCAACACTTAAAGTATTGAGCCATATTCATATCATTTTCTCCCTGCTGTGTTTTCCAGCATTTAAAAAACATGGTCAAAACTTGGCCCTTTTTTTCTCAAAATCGCTAAAGTTTAATGG
0.07814287903681438 CTGAGAGTGTATTCCGTCTGCAACGTAAATGCAAGTTCTTTTGGGACAAGTGCCATAGTTTAAACGTAAATTATTCATTGACAGTAGCAAGCGTTGTGCAAACTATGCAGTGCTTTCTCAGTAAGTGCTCATTGAGTTGCCCTGTGTGCATGATGACCAGCTGTGTTATCTGGATGTGGAACATAGCGTTCTGCTATCTGTTTTCAGAA
0.8529246075032141 ATGATCTCCTTTGACTCCAGGTCTCACATCCAGGTCATTCTGATGCAAGAAGTGAGTTCCCATGGTCTTGGGCAACTCTGTCCCTGTGACTTTGCAGGGTACAACCTCCTCCTGGCTGCTTTCATGGGCTGGCATTGGGTGTCTGTGGCTTTTCCAAGTGGACGGTGCAAGTTGTCAGTGGATCTACCATTCTGGGGTCTGGAGGATGG
0.09462924042650482 ATGGCACTTTACAGTTTACAAAGTGCTTTCGCAAACATTATCTCACTGTGCTGAGAGTTGCTCACCACCTCCACCCGGGAAAGTGATGCAAGTACCAGAATCTGAAGACACTCCCACAACG
0.8166950482488029 TCACGACTTTCAGGTCTTCCACAGTTGCAGCATCTGCCAACAGAGTCATCACAATAGGGAAACAGCGAGAGTCCTCTTGGTTTATGTTCACCTCAGCACTGAGATAAAAATGGCCAAAGGTTGCCAGCCTTTCTATCACATTGCTCTATTTC
0.1154605541337618 TGGTCCATTTGGAACTTGAGTTATCAGCTGGGTGAGTGCCTGCTATTCAGGTTACAGGCCCTTGGGGCTGCTCTAACTCGCACATCCAACTGCACACATGTCCGTGACTTTGGCATTGGTGGAAGTTCAACACTTACACAATGAAAATAGACTCCTCCCCCTCTTCTGTCCTGCCCTACTCCCAGCTTTCAGTATTCCTCTTCCCTTTTCCTGACTCCTGCACAAACAAATCTCTTTTTGGAGTTGCCTGCTT
1 CTTTTTCTACCGAACAGCTCTCTGGAGGCTGGCCACCACGTCAACAAAGGGCACCAGAGATGTGACATTTGATACAATTGCCCAACACTTGGGAAGGGCAGATGCATCTGATTACCAGATTAGCCTTAGACAATAAAGCCTTAAAAGACGTTATGGGACTCCACACGAAGAAACACCAACCTTGCCTCCTCAGTGAAAGTGAGTTTATTTGACCTCAATTTGTTGAATGAAAGCAAAGCCTTCACAGGGCTGCAACCCATGCCTGCACACAGACATGACGCAAGTCCAGCCAGAGCCAGGAAAAGTCTACACTTGCGTGAACCCTCCTG
0.08469937902043595 TTCTTAGGGCGTTTTTGGACAGACACTACAACCCTCAGTTACACATCACTTGGCTTCATGAAAAGGTAACAGCTGGACATGCACGGTGGTATGGGCTGTGCGTGTCCCTTCCTAGTGCTGCACTGAGCACACATCTGGGGCTATTTAGCAACTGATTGGAAATTTAGCCTTCTGATTTCCAGTTAAATACTAGGCACAGGAAAACAAATAGCACTTGTTTTTCACTGAGTCTTGTCAGTCATCCAAACTCCAGTGCAGACCAGAGAACTGCCTGTGGTTTGGTGGCAGAGGCCCAAAATATTTGGACCTTTTTTTTTT
0.3025854452630111 AGGTTCTACCAATTATTTCCCAGCTCATGACCTTGGGTAGAATACTTAACCTCTCTTAGCCTCAATTTCCACACCTGTAAAACAGAGCTAACAGAATCTCCCTTCCAGGGGTGTTGAAAAAAACAAATAAAATGCCAGGTTTTGTAATTCTCTGGAAAGAAGCCTACCAGCGTTTGACTTTGGCTCTGATCAGTG
0.2090569805418409 GGGCTTAATGCCAATTACACGATCATAATCCAAAAACCCTTAACTGAAGCAAAGACAGTGATTTGTAACATCTGAACTGTGTGAAAGGGGTGGGGGTGATTCAAACAAGTGTCATCACCTTGTCCAATGATGAAGGAGAACGTGTATCAGTTCTGCATTGTGAAATTCTCAGTATGAGAGCGTGTAGTGGCTAAGAAAAGCAGTGGGCGAATTAGGAAACAAAGAGAAAAGCCAGCGACATCACCAGTTCTGGCCTCCTTCCCACCGGAGGAAAGGGGAGAAGGCGGGTAGTCATCAATTCCAGGTCCAGCCTAAGTTCTGGGTCCCCGGCCCCAGCGAGAGCCTCGCCTCGCCTCGCGCGCCTGCGCGG
0.6618773545061913 CAGGGAAATCTGGAGTCTGAAGAAACTCCAGGTGGCGGCCGCGGCGGCGGCGAACACTCCCTCCGAAAGAGAAGCGCAGTTCTCCAAAGGGTAGGGACTCTGGGCGGGGCTAGCAGTCCTATTCCGCAACCGCCTCAGTCTCGGCCCCCTCAGGCCAGGCGTGAGCGCCGCCCGCCTCTCCCCCTGACGGCCTCCGGTTCCCATGGCTTCCCCCACCAATGGGCATCATGGCGGTAATTGTGGGAAATGTAGTCCCGGGCGGGCTCCGCTAGTGGGCTCGGG
1 AGACTCTGTCTCAAAATAAAAATAAAAATAAAACACCAACATGAAACCGTATTTAATTTAGGGCTTTGCTGTCCAGCGAACTCAAACTGCAGATGTGCTGCAATCAGCCTAATTGAAAGTGGTTATAACCCATGCTTTGACTCCCTCTGTTGGCAGGAAGAGGTTGCTTTCTCACTTGCGGGAATTCTTAGCTCAGGTTGTATAATGGCTGTTTACTA
0.308518514505996 GACACTGACGACGGGAGGCGCGGTCGGAAGAGCGCGGGGCCGTCGCCTCTGGCTTAACATAGCAGATGCGCTGAGACTCCAACAGGTGGCTCCGTGGCGCAATGGATAGCGCATTGGACTTCTAGAGGCTGAAG
1 CAGAGATTTTTTTTTTTTTTAAATAAGGTTAAAAAGTAACCCTTCTCACCATGAATAAGCAAAAACACTGAGGCAGAGGTATTGCACGCTCAAAGTGAGTAACTTGAATTTCAGCTGCCAGATTTCTGAGCTTACTGCCAGGGCAGAAAGAAACAGCAGATCTGAGCTGTGGGGATTCTTGGGCTTTGTATTT
0.5173719898108734 GTAAAAAGCACCAACCACAAGGGTCTTCAGGGGATTTTTGCCCTGTGACTCACAATATGAATGTATGATGCAAGGCGAGTTTGTTTTAGGTGGGAGGATTTGGGTTGGGCTGTCTCCAGAGCTGAGGTCAAGGTTGGGTGTAGCCCAGCCTATGTGCTTTTCAGATTGGCCAGCTTTTCTCTTA
0.2735732206700692 CCAAAGTGGACTGGTCATGTGCAGTCACATGATCTTAGCTGGGCCAGTCAGGGCCTATTCACAGAAATTTGGGGCATGGATCTGTGAGAAGCATGGGTTAATCATTACAGAAGTACAGAAGTGTTGAGAAATTAGAGGCCATGCTGGGTCACTAGGTTCAGTTTGTGTACGTAGGGGCCTAAGCAAAGACTGGGGACTGGATTTCACTTGTTTTTGCTAAACAAGCCCGGGACCCTGGTATAGGGCTGCATCCTATCAAAGGAGGTACCTTTTTC
0.0145506524771155 ATTGAAAAGCCTAACATACAAAATTGACATGATGTTCAAATTCTTCATTATGAAATTCATATAAAAGAATCAGCTTGCATAAAAGCAGTTAGCATTCCAAACTGACTACTCCATGGATTACATAATTTGACACATCTAAAAACTGACTCAATGTGAAATCCATCAGTGCTGGAGTCACAGAGTCCATGTTACACCACACCTCTCAATTATTAACACTGTTCTGTACTATTTTCTCTTCCTTACTGCTTTCTGGCATTTTAAAAAACAGCTAAACACACTGTAGCTCACTGAAGGCAATATGAGGTACATTTTT
0.5960549237013316 AAAATAATCAAAGCATCTAGGGGACAGGTGAAAGGGATTCTAAATCTGAGGCAGAGGTTATCAGTGGATGGTTCTATTTGATTAAGTCAGGCATGTACTCTTGCTTAATCCTGAGGCAGCATTCTTTCAACACTAATCTGTTTGAAGTCACTTCATAAGGATCAAGAAGAGAAATAATGTTAAATAACCCATTTCTAGATTTATCT
0.150739509519638 TTGATGTCATCTCTTCAATTTCGGGGCAAGGATCTCATCATAATTTGCCTTGTCCTTCACAGACCTGACAGTGTACTTTGCATGTAGTTGGACCCTGTAAATCATTGACTGGTAGTGCAAATTCCAAATGGCCTGTTTCATAATGATGTGACCTATGCTGTTACTCCAGTGGAGTTTATCTCAGTGTTTTCTCTGTGGGAGGCTGTTAGCATGGTGACTAAGAG
1 GCACCTCTATACGCATGCCATTATTGTACCTCGTCTTTGTGATCCTCATAACCTGTATTAGGCAACAGCTCATTTATATTGAGAAAACACCTAGGGCACAGCACCACTACTTTGTAGGCTACTTTAATATGTATGTGCATTATGCGAGGTTTTATGAGCTTATTTTCTGACACACTTGCTTTTCTCCAGTTTCCTCAGCTGAAAACAGCGATTCACTGTTACTGTATATATGCTAGGCTCAATGCTGGCGATAACAATTCCTGCAACATAGGGTCAGACAGGAGAAGAATGTTGTAATCTGCAAAGCCCTTCTGATTCTGGGAGTGAGGCCAGCATTAATACAACGCACGAT
0.5312043768820313 TGTGACGGGGCCGTCCGCCTCCTTCCTGGGCTCCTTTAAGAGGGTGGTAACGGTACATCACCGCGGGAGTGGAGAGGCAGGGCCCACTAGGTCGTCGCTGCAGGCCAGGCCCGCTCATCCAGTTATTGTGAAAGCCGGGGTGTGCGCGCGAAGAGTGGGAGGGTAGGGGTGAGGCAGGGGCAGCACTGACGCCTCGCAGGGCTGAGTAGCAACA
1 AAACCCAGGGGATCCAAGGCTACGTTGAAAAGCCTTTGACCACAGTGCAGGGAGCAGAAGACATTAATGACGTGATGTCGACACAGCCCGCACTCAGGATCCTCCAGGAAAAGAACACAGAGATAACCCCGGATCGATGGTACTTTTTGAAAATGCTTTATTGCAAAAGAGTGGCTAGGGTTTTACAAGGGCTATGAAGAAACATATTAAGGTTAATAAAGCTTTTTATTGAGTGTTTACTGAGTGTTACTATGTGCTTTACATCTATTA
0.1135207464014172 AGCCAAAGGGAAGATAAACAAATTAAGTTTAGAGAGGAAGGCAGATGTGAAACCATTCAAGACTTTAGTCATTGCATCAGAAAGTATCGGAGTTGTGTTTCCTCAATCTCTCTGCAAGCTACAGCTGCAAAGCAGAAGGTACACTAACAGCAGGCTTTGGATTGTAGGTAACAGTTCAAGCAATCTGAGGTTATTCTCTACCAATTAGCCAT
1 ATGGTGAAATGCCGTCTCTATTGAAAAAAATACAAAAATTAGCCACACATGGTGGCATGTGCCTGTAGTCCCAGCTATTCGGGAGGCTGAGGCCAGAGAATCGCTTGAACCTGGGGGCAGAGGTTGTAGTGAGCCGAGATTGTGTCACTGCACTCCAGCCTGGGCAATAGAGTGGGACTCTGTCTAAAACAAAACAAACAAAACAAAACAAAAGTACACGGGTATCAGAGTTCACCCC
0.1516439505139524 CTGTAATTCTCACACACTGGCTTCAACCTTCTCATGTGTGACATTCTGCAACAGAGCTCTGATTGTTCTGGACTCATTGCTGAGTAAATAGTTGGGCATATCCAGGATTAGGATTTTGTCAACTCTTGGCAATGGAAAGGGAATTTGGGTGTTAGAGTGCTGTGGAAATGATGGACTTTGGGATGTAAGCTGATTAAAGAGGGATGTACAAGCAGAATAGGGCTAATGGGTTGGGAAAAAGCTGAGAGGTCAGTGGACTGATAATGTTGTAATACTGCACAGCTTGAAGGAAAGAAGGCCCTGGTCAACAAAGGGAATACTTG
0.3614466490484364 AGTAAAAGGAATAGGTCTCCCAAGAATAAGTCTTGACCTTTTCAATACTACTTCCATGGCAGATGTTCCTTCCAGCTGTGAATGTTGGTATTGATCATTATGAGAACATGACACTGAATATAGGTCAGTGGCAGGATTTGTTGCCACATCAGGAGATAAATGACTTGCTGGACAGAATCTGATCGAGGTAGAATGGATTGTGAAAACTCTCATGCTGGGCTGCACATAAGGTTTTGAAACTAGAAAGCAGATAAAACAAGGCAGG
0.1793346179956559 GAGACACTTTAAGTCTGGCAGAATGGCATGGGATTGCTTAACAGTTGAGTACCATTTAACTATGTTAACATTTATGACTGTGCCAATACTGGGCAAGGGTTATTCCCCGGCAAGAGGACCTGAAGCTGTGGCACTCAGTCTGGCTACACAAAGAACTTGCTTTATTTCATGGGAAGTGAGTTGCCACTAAATCTCCCAGGCAGAATGGGCTCTGTACTTAGTACCATTGACAACTTACACCTTGATTCTCTCCT
0.9753660337597455 CCTCATGCGGCTGGTAGGCAGTCCTGGGAGGGTAGGGGTGATGCAATAGGTAGGACAAAATGCTACAAGTTTTTATATTTTAGAAGGAACTTTGTCCCCCTTGGACCTAGAGAGTCTTAGGTCCTGGTCTTATACCTGTCCCAGTGAAGAGGTTCTGGTATGCTAGGGTGTAATCACTAGCTCACCAGACAAAA
0.04096793096476467 GTAGCCATTGTTTTGATTGTGCTTTGTTTTCAGGATCATACTGATAAAACCATGTTTCATCACTTGTTACAGTTCTTTGAGGAAATGCTTCAGGACTTTGATCCTACTTGTTTATTTTTGTCCATTGAAAGCTCTACTCTTGTCTGCAGCCAATCTGGCCACAGTTGCTTTGGCACCAATTGAATGGAAAGTTTGCTAAACTTTAATGTTTCAGTCAGAATTGTGTAAGCTGAACCAAGTGAGAGGTCTATGTTGTTGGCTATTGTTTGTGTTGTTAATAGTCAGTCCTCTTC
0.1662678482421344 AGGCAAGTGAAACCTTTTTAGGGAGAGGTGATGAAATAAGATAAATCTATTTTTGGTCCTGATTTTCTCTGTAGATGCTAAGGTTCAGGATTGCATTCTACATTGCGAAAATGGCAGGAAACTTGAAGGTTTCTGCCAAAGCAAATGGATATGAGCCCTAAATTGGCACAGAAAATTGT
0.4177876309324653 TTTTGAAGTTGAGGGAAATTTGTTTATAAATTGCTTAACTCATTTAGCAATGAATATCTCTGGCATACTACCAGGTACCAAAGTTATCTGAAAAGATTCATTTACTTCTAAAGGTGAATCATTTACTACTCACTCTCTAGTTGGGTGAGGTCAGTATTGGTAAAACTTTTCCAATATT
1 CATGTGTGTTACGTGGCTGCCAAGGGCCAGCCTTCTGCGTGATTGCCAGTGTCTCTATGTTTTTATAGAGGAGAGGTCACGATGCTGCCCCCTGGAGTTCATTTGAATCTGACACGCAGCTGTACACTGGCCAAGATACCAGCTCAGAATGCTTGCAACAGTCTAGTTTCAAATGTCTGTCTCTTTGTTGCTGTAAGTT
1 ACGAAGAGTCTTAGAAAAAAAAATCAGCTGTATAATCTGATAAATGAGCAGACTTTGTTCGAATGCTGTGACAGTAAATTTCAGAAGAGAGCTAAACATTATGTAACTAGAGTTCATGGAAATGTAAAGACAGATCATACTAGGGTGAAGAGAACAAGCCACTGGGGAATTAAGAAACTTGGACTTTGGTCTCTGCTCTCCCCTTCCCTACATCATGTTTGCCAAAGGACTTGTTCTCTCAGGATCCCTGAACCTTCAACTACACAACAAGAAAACTGTAAGAAATAG
1 TTTTGAGGCTCAGGGGGCATCAGGGTCCTACAGATATGTGATGTCACCCCCAGCAGCCCAGCTGTAAAATTCCTGTCTTTAAACTGTCTCTCTTTATTTCTCAGCCAGCTGACACTTACTGAAAATAGAAAGAACCTATGTTGAAATATTGGGGGCGGGTTCCTCCAGTAATCTGGGGACAGTGTACATTTCTTAGCTCAGCATTTCATCTAGGATTTGGGGCAAACCTGGTGGGCTTA
0.08558830417729103 TTGGCTAGGACTGCCATAACCAAATAACACAGACTGAGTGGTTTACCTAACAGAAATGTATTGCCTCACAATTCTGATGTCTAGAAGTCCAAAGTCAAGGTCTTGGCAGGGTTGGTTCCTGGTTACATACTCTGAGGAGTATGAGGGAAATATCTTATCCAGGCCTCTCCCCTTGCCTTGCAGATGGCTGT
0.20780408676073 TTATTCTGTAAAGGGCCAGATAGCAAATATTTTAGGCTTTGCGGGCCATAAGGTCTCTGTCACAATTACTCATCTCTGCCCTTCCTGTGCAAAAGCAGCTACAATATGTAAACAAATGAGCATGGCTGTATTCCAAGAAAAGTTTATTTACGAAAACAGTGAGCCAACTGGCCCATGTGCTCCAGTTTGCTGACCCCTATTATACAGAT
0.2728658034258269 ATAGATACAACTTATGTTCAGTAATTATTTGTTGAATGAATTGAACTGGTGGGACAGAAGGTCAATTCGTTGGCCAAATGGTGTCATCATTTGTTTGCAGAGGCCTGCAGGGCCAGTTAGGCAACATAAGAGAGCAAACTAGGGGGTTGGAAAAGGAAATAGTGGGGCTTGTGGTGAGCTGTATCTGAGCCTAGATTAAACACCAGCCAGAGTTTTTGAGCTCTGTGGAAGTAAAGGCTTTGGATAGAAGACTAATGAATATATT
1 TGTTACTGATGGCCTCTCTTTCTAAAAAACTGAACCCATTTACGGTCATGTCTTCATGAAGACCTCATTTGATTATAATTACTTTGGTTTCGTTTTATTGTACCGGAGCTCAACTTTTCCCAGTAACCTTAATTGATTCTGCAACAAACCGCATGTGTTGCTCAAGCTTCCCAAGAAACTGTGCTTGGCCGGCTGCTTTCAATTATGCTGGTTGTATGTGCATAGTTTATGTCTGTGCAGCCTCCCGAGCT
0.9012999079528444 TCTTCTGAAAATACAAGGCGTAAGCTAGACCTTGAAAGACAGTTAAGATTTAAGACTGGAGAAGCCGAACATGGGGAAAGAATGAGATACTATGAACAAAGTAACAGAGGCGGGAAGTCTTGGGCAATATTTAAAATGGCATTAAGCCATTACCCAGAAATAGCTAACTGTGCCTGACTTCTCTCTAAACATATATCTAATTCCTGACATCTTATTTAGTGCCAATTCCTGTAAAT
0.727495799134261 GGGCATTCTTTAGCTTCCAAAATGTTGACTCTGGATTTAGCAGCCACTAAGTAATAATAGACTACCCACTGCCTCAAAGGTCAGAACCACAGACTGATTAGGACATCATGATTATGTGAAGAAAGAAACATTGGGTTATCTAGTGCCAAGTTT
1 GGGGTGGACACTCATTAGAACTCTTAAGGCAGGTGCCCATTCCCACAATGGAATGCTTTCTAACAGGAAGCCTCAGTCTTTCAGACCCTGTCATCTGCTTCTATTAGAATCCATTACGTACATATAACAGTGGTTGCTAAACACCTGCTGCCTCCCTGACTCTTGACCTTCCAAAGGTCAATGAGCCGAGCTTTGGCCGGAGTCCACAGTGAGCTTAGAGGTAACATCTCTCGCTAC
0.6587414539997853 CAAAGTGTGAGGTGCTAATGTGGACTCCTGTTCCCAGTGATGTTGCGCCAGCCTGGCCCAGGGGAACTGTCAGTGCCTGGTCATGGGTGGGCGGAAGTGGGAGGGGGCAGAGGAGTGCTGTTAACACTTTCAGTACTGTATAAAGGAGCACTTCCTTTTATTCCTTGTAGCAGAAGC
0.5705864316177652 CGAATAAAACCATAGAACCATCTGCCCATAAATCTCTGCCTGTATTAACTGGAGTGGTCGCTGGTTGGGCGGATGCTGTCAAGTACTTGTGATTTGATTTGTCTGATGCAATAGGTCTGCAACCATCTGGGAGCTAGGTCGATGACAGTACACTGCAAAGGCAGCCACTATCCAAGAGTGTGATGGATTTCTATTAGGAAAATTGATTTTCTCCTGTTTATAAGGATCTTGGATGTC
0.1879761524418407 AACCCCTGCCCCCACCTTGTGCCCCCAGGGAGCAGGGCAGAGGAGCTATTCCCTGACAGTGCTGAGCCATGCGGCAGGCCCACAGGCTCCCATTCCTGCCGTCTCTCAGCGTCTCCGGCCAAACCCCAGCTCCTGGGGTTAATGGAATGTTGAGCAATCCTTGGAATTTTTCAGTGAGAAATAAGTACTTTCGAATTCCGTTCAGGCCTCCTGAGTA
0.8778621660052507 CAATGTTTTTCAAGTCTTCTCACTTCCAGCTGGATGGTCTTAAATGTACTCTGACCCACACAGTTTCAGGCAAGTTGCAGAGCGCTTTGTAGGTATCCGATAAGTATGCCCTGAATTGAGAGGCTAATTAAACAAGAGGAATTTAGCAATATCACCTCTTGGCGTGAGTATTATGTAGCATCTGTAG
0.9924045914910551 CCTGTAGTGCTGAGTTCCACCAAGGATTTGGAAGGTCACTCTCAGCAGCAGCCACTTCTGCCAGGACCAGTGGTGAGCACCTGGCAGGGCCTTGCTGTTTCCACATAAGGCAAAGGAATCCAGCTTTTCTGTAGGATTTTTGCTGCAGCTGTTCAAAACCTTGTGTGAGCCAGCAGTTCCAGTTCAAAGGTTAAGAGGGCGCATAGCACCTAGGTGG
0.5019680628406682 ATCAACAAGGGAAGGACTGCAGACAGAATATCGCGAGGTATTGGTCAGCCAAGATGGCTTCTAACACTGGCCGCCACACTTAATATGGCGGCCAGGGAAATTTCCTGGAGAAAATCACGCGAGAGTTGCATCACGGCGGCTGTGCGCGAGTTAAGCTGGGGGTGTGGAGCAGCCAAGATGGAGCCGGCAGTCGGCGGTCCGGGCCCACTGATCGTGAACAACAAACAGCCC
0.6014843924761855 ATGACATATGGCTCCTGGGTCCATGAGCTTAATGTCTGACTTCTGCCTCTAGTTACTTTTTCATTGAGATGCATCTTATGCAAGCAAAGTGCACTGATGCCAACTGCGCAGCTCAGCAAATATCTGCATGTGTTACATCTGTGTATCCACCTCCCAGATCTGGAGCCAGAACTTGGCCAATGTGCCCCAGGCTGCCTCCTATCACTTCAGTCAGTTCCCTTGAAAGTAACTCCTAGTCTAACCCCTGTCACTATTGACCGACATTGGGAAAGACTGTCTTTTATCTAATCCTGTTTGTTTTCTTAAAAAGTGCTGAAGTACCTTAATTTTTTTGTTCTTTAATGCTTCTGCTTGA
0.002698983193871041 CAGGGGCCTACAAAGTGCACTTGGCACCAACTAGTCCAAGTCCTTGGTGAACTTGTCATTTTCCTTAGTTCTCTCCATCCTCCTGGCCCTTTTAGGGACCTGTCACAGTGCCTGCTGAGAGTGATTGCCCAACAGAAGCTCCTCCTGCACTCTCAGCCCACAGTGGGGGCAGGGGCAGGCCGAAAGGCTGGAGAGTGAGAGAAAGCCACCTGCTGGGAGGTTCTGGCTTTGTTGCTGCCACTGACTCAGCCCCAGGCCTTTCCCCGTGTGACCAGCCCATCAGACTCACACC
1 ATCCATTCCTGGAGTGGAGTCTGTGAGAATCCGGGTGACCTCCACACCTCAAGGCCGCCTTGCCAATGCTGAGATACCTGGATACTGGCCAGAACCACCAGTCACTCAGGATCAGGGCCAAATGGGCAGTTTCCACACCTGCCCTGGTAGACTT
0.2463585444771272 GAGCTTATATAGAATGGTTGACATATGTGGCCCTCCTCCCTTCCAGAGAGAGGAGAGAACCTGGAATGTAAACAAGTCCTCCCTGGGAAGGGGACTTTCACAATCATTGAAGGTAAACAAATGGCTCTGGGGGAAAGAGGAAAGCAGCTCTCTATTTTT
1 ACCCTAGCTGACAGAACTCCATCGCAAGGTTATTGACTTATTTTGGCAGAATGTGTTTATTATTTTGTACCTCTGTACACAAGCACGTATGTCTCACTTGACATTCAGTGCGTCTTAATGAAAAAGAACACAAATTGCTCAATGCATATCTGGTTTCCAGTTATTTCTACCCGAAGATTATTTGGTCTGTGGGTCTGCAGTG
0.650810921306876 AGAAAGCAAGGGATCTGCTCTCTTGTGGATCTGTGGCCATTAGTTCTCACAATACCCTTTAATCAGTGTAGGAAAGAACCGTGTAGGAGTTCAAAGTATAGGCTCTGATGCAATATTGTTTGGATTTAATCCTTACTCTACCAGTTACTAGTTGGATGACCTTAACCTCCCTTACCTCAGTTCCCTTCTCTGTAGAGTAGGGACAATAACAATTTACTCTCACAGGGTTGTTTTGAAACTGAATCAGCTATTATAGGTAAAGCATTTGGAACAGTGTCTGGCATGTGATCAGTCTGCACACCTATCTGTTGCCAGACCTTAGTTAACCTTCACTAAATCCTGACCAGGGGCTGGTTGATCTTGGGTGATGTAAGAGGTGGAGGTGTGAGGACACTTTGTCCCTACCAGATGGGCAATACGTGACCGTTCCCATCTAGGCACCTTGGCACTGGACATTTGAGGTTTCTCTTTTTGCCTCTGCCCAT
0.9528303874241284 GTTTGTTTTTTGAAAATCCCAAGAAGGTCATTTCTGAAAATTTGCCTGGGAGCCCTAAATGTCTACTCAATAGTTAGGGTTGCGTCATGCTGGGTCAGTTCTTGGCAGAGACTGATGGGCTCTAACTTCAGCACCTTGGAGAGTGGCCTCTGTGCTACACTCAGAGATGGAACAAGGACAATGGAACTGTGGTAATCATTCCCAGTGAAAAGGAGGAAGAATAAATGGCACACAGAATTCCCTGATCTGTGACAAATT
0.1063914837831322 CATTCATGAGGGTGGAGCACTCATGACTTACTCACCTCATAAAGGTCCCACCTTTTAATAGTTAATATAACTTTGGGCATTAAGTTCCTACATGAATTTTGGAGGGGACACAAACATTCAAACCATAGCACTGAGTGAAGGTGAGGAGTTGAGCAACACTGAACTTTCACTGCTTGCCAACCTGTGCTAGATAGATGACATGTGTGAGATATAAATGTTTGTTGTTTAAACCACTGAGGATTTAGAGTCTGACTGCTGGGATAGTCAGTGTTAATTGCCCTGAGTAATACAAC
0.5902096709885137 TCACAAGTTTTTATCTTCAGGAAACTCCCAAGCATTCTGGAAGCTCTGCATGTGAGTAAGAACCACTGCTGTTGCTGTTGCTGTAGCTGCCTGAATCTATGGCAAAAAGCCAGGAAAAAAAAATTGCTTCACACCATGTGCACCGACTCCCCTGGAGCTGGCACCACCAGGGCGTCTGCAGAGCTATGTAAGTCGTTCTCCAAGCAGTCTGTCTCTTTGGTAGCTACAGAAACAGTGTTTGTTATCCTTTGTTTTCGGTAGACAGGCAAAAAT
0.5944434283535857 ATGTGCCTGTTTTGTTTTCTGCTTCATCCCTTGTGTCTTGCACAGTAACTATAACTCAGAATTTGCGCAACAAATATTTGCTGAATGAAAGAACTTGCCCGTAGCGGCCCCTTGTTAGTGCCTAGAGTCAATTTCTTTACATGCTCGTAAAACATCTTTTGATAATCCATGCCAAAATGTTCTAGAGATCATTGAAAATTTTCCTACTAGTTTTCAGAATGTA
0.2403687721671955 CTTATATCATCAACCTGGGGGATGTGAACCAGGTGATGAATCAATTACCTCAATGAGATAAAATGCCTAAACTCCATTAATGCATCTGGGAACAACAGAAACAACAAAAAAATACTGTCAGGTGTCTCCTGCAAAGCAGGTTGAGCAATTCTCCTGATGTTGGTCTCTTAGACTGAGTCCAGGGGTTACAAGCTGTTCACTCCCACGGTGAACTCCAAGCAGTGCCTACAATAGGTTGTTGGGGCAAATACCTCACTGCCCTTGGGAATAACAATAAG
0.01075350244108483 ATGCCTGTGTTTTTAGTAAGAACTGAAGTCTCCCCTCTAAAGTGGACTCTGCCCCGCACCCCAGACCTCCACTCCCACCTCCAGCGTTGTGCTCCTGCAGGGCCAGGTTGCACAATCATTCTTGGTCTGGACCGCTCTGATTTTCCTGCTGCCACGGCGTCTGCGGTTTGTGCAGGGAGGAGGGGCAGTGACCGTGTCCCAGATGTTGGCCTTACACGGTCTGCAGCCTATTCTTGCTTTCCTTTTCTCCACTCTCATCACCCTCACCTACCCACT
0.24491740786461 TGGCAAAACTTAACAATATTTTAGTGCTTAGCCTTATGGCCAACCTCTCAATCAACAATATTGCAACACATTACAAAGGTGTTACTGAACCAAAATATTTGTTCATTTCTTTCCAACTCCTTTTTGTTACATTTTTACCTGGATTTCCCAACAGTATCCACAAATTGATACATCCAAACCAAGCATCTTCCTCCATGAACCTGCTTCTCCTTCAGTAATTCCTATCTTTATATAAGTTACA
0.3554756709634335 CACTTACCTGATCTTTCACACATTCCACTGTGGCCCTGCGCAGGGGTGTGATGTTGTAAGCCATAGTTTGTGCATTTTGGCCCAGGACACACAATTGGAACTTGACGCTCTCCCCTTTCTGCAGGCAATCCCCTTTGTTGGCCATCCCAACGATGCCAAATGGATAGACCTCACCTTTCATATCGCCTGTAAAACAGGTACAAAGTCTAAAAGCTAGTATTTCACAACAGTCCTCTGCTGATGACCCTAGGAAGTTTATATAACTGCTAAAAATGTGTTATGTTACTTAAAATATATTTACATTTTCAGTACTCAGAAGTTTCACCTTAAAGCTTA
0.1622568163222058 GAGAAGTCTCCCCAAAGGAGGCATCAGAAGACTTGGTGAGTCTACTCAGGGCAGGAGACATTATAAATCCATGTGAGGCCAGGAGAGACCAGATTGCATGCTGAACAGGCAATAAAAAGGTAACAGTGAAGCAATAAAACAATCCTCCAAGGGAACAGGGCACATGGCCATACACAGCAGACAGGTGACCCACGGACTGTTGGAGAGCTGCCTGAGGGACTTCAGCCTACCATGAGTGTGCCTCCCTACACCTGTTTGCAAAGCACCAGTCAGAACAGG
1 AGGTGCCTGCAGCCAGCCCCCTGAAGGATTAGTGACAGCTGCCGGCAGCCGGCCTGCTACGGGGAGGCACTGTGTAATCTGCCTTTGTTGGCCTAGGCCTGTTGTCAGCCAGCCCTGGGGTGACTGCACTGAGATTTCATAAGAGGGAAACATAACTTTGTCCTCTCTCTCTCTCTCCCCCCCCGCCACTCCCCAGTCACTCTCTCCCTCTCTCCCTCTCTCTCTCTAGTATTAGGATTCAGTGGGTTATTTCCCCACCTCTTCCCTTGCAAATTTTTTTCATATAAATGGATTCAG
0.3372735953226671 GACAAAGGAAGCGCCAGTACATCAGGAGACAGAGTGGCTGGGTTCCAAGGCCAGCAGGCTGTTACGCAAGGGGGAAAACTTCACACACAGTCAATAATTAGAAAAATGATTCTGGGCTGTGGAAACAAACACAGGACAAAGTATATAGAATACAGAGACTAATATTCACAACAATATCAATTAATAGCTTAT
0.0677425740850791 GGCCCTGAGTGAGCTCCCGCTCCCTGGTATCTGGCTCTTTTCCATGACCCACACTCTTCAATGACTACATTTCTCACACTGGAGGACTAGATTTCCCAATGTTCGGGCTGCAAGAATCTACCTTGCGCAGGAAGCTTTGTCCCCTACATGTCACAGTTCAGCTCCAGTAGGA
0.3321218737223822 GAGAGCAGGAAAAGGGAAGGGCAGAGGCTCAGTGGGAGGAAATGCCGGCCCTCCCCCCACCTCCACCCTTCCTTCAACCAGGCCAGCTCTGCTTTCACAGCTTTGTGTGACTTTCGCAATAACCAAATGGCTTCCAAGCTTCTCCCCTTGCCAACCCCACCCCCAGCCCCTGTCTATTTTCCATCTGGTGTCCAGAATGATCATTTCAAAACATAAGGCTCATCATGTCCCTCTTCTGTTCAAGACCCTACATTTGGCTTTCCATTTCACTCAACAGCAAT
0.6183672283679362 GCTTCATTCTCCTCCAGTCTTCCCCAGTGCAAAAGAAAACATCTGAGACCCATCAGATACTAGCATTTGTGAGGCAATAACGAGTTTAACCAGAATGCATCCTATTTACAGACCTTACAAAGGCACTCGGCCAGCGGATCATGCAC
1 AGCTGTCCACTCTTCCTCTCACTGTCCTGGCATCAGGAAGACTCGGCTATTGTTTTTTTGGTCCTGGAAACTATGTCCTCATCTCAGGCTTTCTCCATTACCACCAACCCCGCTCTGCTTGGATGGCTGCCCTGGGGAATTTGTTCTGTGCAAAGCAAATAAAAACGTATTTCGAAC
0.6643902788633701 ATTCTCTGCCCACTTTTCACATAACTGGCATAGATTTGGTGCTTCAAATGTTGAACTGGATGGGTTTTCCCTGGAGGACTTGTCCTTGGGCCATTAGCCACTTAGAGGCTGAATCCTGGATATTTACCTGAATGTGTTGTAATGCCTCATTTTGGTGCCAGAAACCATTTCAGTCCCCTTGTCCAGACCAATATTTATACGCAGGACAACTTGTGTGGGATGTGCTGGTGCCCAGCTTCCTG
0.1155942447236073 CCCTGTTTGTAGAGCTAAGCAGCTGCTCTTTTGGCCGTTTCCATCATAATTGCACAAGGGCTCTGGAGTCATGCCACGAGGTACAGATACTGTCATCTTCATGCTATTATCAGACTTCCATGCAAAGAATTGCAATTCACAG
0.6303623425056301 GGACGGTGCAGCGGAGGAGTTAATTGCTGTCACTCCTGACTTCAGCGAAAGAGGTCGATCGTGGGGTGAGATATTGAAGCTGGGGATTGACCTGTGGACCAAGAGTTTGATGGGGCAACTCAATAGCAAACTCAATGTTCCCAGAGATGAACCAAGTAATCAGTTATTTATTCAGAAAATTAAGTGCCATTCGTGTGCCAGGCACTGCGCCCCCTACCCGCAGGCCTCACCTTGGCCACCGGCCT
0.540746711377519 GGGAATAAATGGAGCCAACATACATTGTTTCTCAGGTACCCAAATTAGCAAAAATAGGAAAAAGGTAGATGGTGACCCTTGAGCCTCCTAATAATATTAAGCAACATGTTCAGCGACCCAGCCAAGAATTACAAAGTAAACTTTGTCTTGTCCTTTCCCCACTCTGTAATCCACAGCTCCAGACAATTCAAACATTGAGATTCCTGGGAACTACCAGATAGTAGCATCAGTTCACCAAGAAATGAAGCTGGTG
0.09023515431938751 ATTTTCATTTCTCACATATGGCTTTTTTTTAAAAACCATTTGTCTCTGTTGCTCAATACCCGCCCCCCCCCCACCCCCACCCTGCAATTGCAGAATTTGTTGTAGCAACTCCTTGTGCAAATAACACTATGAGGAAGGTGGTAGAAAAGGGGTGATATCCAAGTGGACAATGAACGCATCAAGGTCCAGAAACAAAGCGATTTGCCAAGGCCATCTGATTAATGTGT
0.918609430811607 ACACCTGACAACTCACTGTTCAGATTACTTTCCTGGAATGAGGTGAGGTACAAACAAATATTTGTTCTTTCCCAATCAACCACAACACATGCTGATTTCTCTGTCTTTGTTTACTTGTTCCTTTTATGGAATGTACACCCTCCACTCTAACACCCCCACTCTAACATCCTTGAGCACTTATGAAACATCACCTTTATCAGAAAACTTCCTAGCCAGATCCAGAAATCATTGCAATGACCTGACCCATGTTCATGCAAAGCTCCAAAACAAGACCA
0.4388777351707332 CGTAAATTGTGCTTTTTATATGCTCACCAGGTGTAGGTAAGAGCTTTGGCTGAGATGGAGAAATTCATCGCGGGAGGATAATAAAGCGGGCAGGGATTTGGCAACCTCAGAGCCGCGAGGAGGAGGCGGAGTCGCGGAGAGTTTGAGTATTTCCGTCCAATCAAAAGGAGACTGTAAGAGGAGGAGGAGGAGGAGATGACTGGGGAGCGGGAGCTGGAGAATACTGCCCAGTTACTCTAGCGCGCC
1 CAGGGATGGTGGGATGCCATAAGCCACAAAGAGCACTCCCTCCTCCATCCTCTTTTGTAAGGGATCAAGGGTCAAGGTTTAGTCCATGGAGAATTTTGATATAAAAGGCAGAGGTCAGGAGTTAAGTAAAACTAAGAGCACTCATAGCCAAATAGGTGAGCATTTCATTGATGAAGCAGTAACTGGGAGACAGGCTCC
1 TTAAAGCCTCTGATGAAAACACAGCCCTGCTGACACCCTGACAGCAGCTTTACATGACCTCAGACAAGAGGACCCAGCTAGGTCATGTGTACACTTTGGATGCACAGAAATTCAGAGATAACAAATGTGCGTTGCTTGAAGCTGCTAAGTTTGTGGTAATTTATTACGCAACATAGAAAACTGTTCTCTATGGGAACT
