svm_type c_svc
kernel_type wgkm
L 10
k 7
d 3
M 50
H 50
nr_class 2
total_sv 3905
rho 0.161233
label 1 -1
nr_sv 1844 2061
SV
1 GTGGGTCTTATCGTATACGTATAAACGGTGTTGCCGCCGAGTTGGGCGGAGCGGTGTAGAATATATGGTATATTTACATAGAGGAGCACTTGGTTTCTGTATTCACTAAATTCTTGTGTATCTGTGTAGCGGCATTATAGAATTCAACAATCAGAGATTTGTCTCGGCTCATATAGCTACCTGTGTCTTTCTGGACTTGAGCCGGCATGTATTGAGTTTAGAG
0.8164195597921103 TGCCACGGATCTTCACATTGGTGATGTCATCAAAATGTGTTTGTGTTGTTATGTGTTTCGGCAACCTCCCGACAGAGTCGCCACCTTGTCCTCTCTGTAGTTGAACTTGAACCGATGCTCCAAGCTTGGATGGTAAAAGAAATCAGTAAAAGCTGCAT
0.9901780804738354 ATACATATGAATGAAGAATATACATACTAGAAAAGTTTCTTAATGTAGATACATATGTATAGGCGCACCTACGCATGACTAAATTTGTATGTGTAGACAAACAATGTTATCAGAATGCAAAAGCTACATATCTCGGGGTTGATAAAAAGTATTGAGCTATAGGTGGCCTCGGTCAGGCCGGCATAAAATCAAATTCCAAACAGTCCGCTCACAAACCGCTGCTAAAGGCACACGTATTTTGGCTTTCAGATGCATACATACATACATGTGTATGTATATATGTATTCAGCCAAAAAAAATCTCGTACATTAAAGCGCGCTGAATTGCACCAAAAGAGCGAGAGAGCGTATAAGCTCCGTGCTCAAAACCGCATTTGCATCGGGTAAAATCGGTAACCCCATCTTTGCATAGTCAGTATGACGGCAATAATACTCCTGGCTTGCCACTCGGTTCGCGAACTCGTCGATCTGTCAGATGCTCTGTGGCAGAACACTTTTAATATCGAACGAAGTTTAAACTATTATCGCATCAAGCGCCGTTTGGAACTGTTTCGATTTCATTGCCGCGAGCTTTGGTTGCGTCAGGTGTCAAAAACATCCGATCCAATGCATCGGAAGGCAGGCATAGA
1 GGCATCGAGGTGGTGGATGGAAATGAATTTAAAGTGCGTAATCGGGATACTATAGCGCAAATACTGAGTGGTTTAGTGATAGTGCTTAAAGTGTAAACATGTGTTTGTACGCATCACGTACAAATGTTTTTCTCTTTTTTCGTCTTTGTTTTGACATTTAGCGTACTCCGCAGTAATTCCCCTATTCGCGTTGTGGGGGAGCTTTTAATAGCTGTTCGCACAGTCGCGGTCGGACAGGGTGGTTTCTTTAGCGCTGACACCAATTTAAAAAAACTCCACACTGACGCCAATATACACAATGGCGCCACTGTTGTTTTAATTAAGTTCAGGCACTTCACTATGTAGTTTAAATGAGTTGTGTATAATGGCGCCACTGCGATTTTAAAGCAGGATTGGTGTCGCCAGTGCAATGTGTTTTTAAAGCTTTTGTGTATCAAAGCGATAGTTTTCCAAAAGCTGTTTATAGAACTCGTTGATCTGTCAGATGTTCTGTGGCAGAATACCTACAAAATCGAGCGAAGTTTAACTGTTTGGATTTTATTGCCGCGAGCGTCAGCCCTCAAGGCATCGGAAGGCACACATTGATTTTGCAGCTATTGAGGCGAGTGTATACTGTGACCGAAATATGGATGCCTTGGACGGTACGACAATGGAACTGCACAACAGTTTTCTACAGGTGGAGAGCACAACACACTTTCCTTTGGATTGCATCAGCGACATCGAGGTGGTGGATGGAAATGAATTAAAAGTGCGTAATCGGATAAATTGAGCGCAATTGCTGTGGCTTAGCGGTTGTGCTTATATACGTACATGCGTGCGTTTGTCACATCATGTACAATTGCTCTTCTCTTTTTCATCTTTGTCTTGGCTTTTAGCGTACTCCGCAGTAATTCCCCCATTCGCGTGCTGGGGGAGCTCGAAACAACTGTTTGACATAGTCGTGGTCTGACAAGGTGGGTGGCTTTAGCACTTAGTCAAGTCTGAACCCTAGCCACTCTTCATAATTATTTAAAGCGATAAGCTCTCAACACAAGTCAATTCAGGAGCTTACTCGCCATTTATTTGCACATCTGTTAAGGGTGTATACATACATACATATATCGTCGTTTTTATATGTCGAGTTCAAAGAGCTTTTGGCGTTGTCATAGCGGCGTAGCTTCAATTCTCTTCAAGCGTGTAACTCGCGAAAAGGGAGACAATAATAACAGCTAAATATCTGGCAACCAAACCATTTT
1 TATGTCACAATCAACAGTTATTCGCGCAGCCATTGTGATTAATTCTTTAACGGTTTGCGTATTGGTTTTTGCGC
0.8736937495556975 CTGGCCTTCGGCTAGAACGTAGACTGCATCGAGCATCTCGAAGATCTTGGCAGATGGCGTATGGATGGAGCAGATCACAGTGCGCCCCCCGGCGGCCAAAACTTTGAGTAGGGCAATGCATTGTGAACTCGATAAATCGTCTAAACCACTGTTGAGTTGGTGGTAACATTAGTTCTTCGACTTCAATATTTATCTTATACTCACGTTGTAGGTTCATCTAGAAAGATGACAGGTGGGTT
0.5388876701947467 ACTTCGAGTTCAACGAACGCGTTAGATACAGCCGGCGTACACTACTATTTGCAGCTGCGTAAATGCACCACTCACTGGCTCTGACGCTGGCGCTGCAGCGGGTGTATCGGTAGAGCGATAGGGGGCACTTACTCCACTTTCTTTTTGTAGTTGCTGCTGTCGCTGGCTTTTTTCACTCT
0.328794070682833 TCGTATCCCATGTGGTGAATGCTACAATGCTAAAACCTTTTTCAAATTAAGAAAATAAGATATTTTTGCGACGGTGGTTTATGTGTATGTAAGTAAATGCTTGATTGCTTGAATAGACGCCCCAGAAAAACGTTGTCGTCCACTGCAAGCGATTCGAATTTAAACGGCCGACTCGCACGACTTGATTTCGTTTTCCGGCAGATGGCGCTCCAAGAGCTTTTAAGTAGATAATGCCGTTGATCACAAAAAATAATGGGTATCATAATCTCAAATTGTCTAATTTCAACTTTTTAGGTAGACATCTTTATTTGCCCCAAGAACACGTAGTTT
1 TTGACTAATTTCGCTGCCAGACTTCTTGTAAACTAAGGCTGCCACACCGATGGAAAAATGTCACGGAATGTGGCCATTTTTACCTCGGTGATAAAATACCCCCATACAAAACGCTGACATGTAAAATTTAGCACCTTCGTGGGACAATTG
0.8390492051841483 TCAATCGGGTATAGTTAGACATGTAGCTGCTGAAGTAAAACTGTCGACCTTTTCCTGGACCCAAACCACGTGCAGC
0.5920643349384956 TAAAGCTAGCCAACAGCTGATTAGGGCGCAACACACGTCGAGTTTCATTCCAGCAAGGAGGCGTTTTTAAGCTAGAACTAGCTTTTTAAAGCCAAATCGATATGATAGCGCCACTTGACGTTTCTCTGATCTTGAAAAGCAGTTTATTCCAAGCTTCCCACCTTAAAACAGTTTTCGCAGCTGATGAAGAGTTTAATCGCTTTATTATGGTACTA
1 TGTTCCCCGCTTGAGAACGAGCTAAGTTCTAAACCGCAGTCTGGAAAAAGATTAAATTCAGTCGCAGAAGCATTGACAACCCTATCGATTGCTTCTAGAAAAGTCGGCATTTTTCG
0.06624046498657238 CAACTGAGTTATCCTGATGTTATACTAGAATTAGGAGTGAGCTTCGAACGAAGCTTAAAAAACTCGATTCCCTATGTGCCTAAAAGTATGCTTTGGGGTCTGAACTTCCGTATTTTCACGTGCCCTCAGAAAAGCGTCCTTAGCCCAGGTTGATTTTACATTTCAACGGAGGCCAATCAAACAT
0.4642593322622026 AAAAAATATCGATGGCTTATCGAGAGGAATCGATTAAATGAAAATATCTAAGATATCGCACTAACACCACAAAACCGTTCACCCAGGTTGGCAGCCCTTGGCGCG
0.8507623893674912 GAAAAACACTCTAGAGGCCTGGCATGCAGACAAAGATTGCTTTTTCACAGCTTGTGGTACGTCCGGCACTTTATTAATTTGACGTTTCCAGTTGCAGGCCAGCAGTCCACGGATGATTTTGGGCCAGAAACAGACAGAGCAGTTAACGGTGCAACAATTTGTATACATTTTTAGCCCCAGAGGTTGCTCCCTTTTTTGAGCGGGGCGAGGTCGGGGCCCCATAACAATTAGTACACGAATGGGACCTGAAATTCGGTTCCATCTAATTAAGCCGACGACTCCTTACAGAGTTTATTAAATATGTCTGAAAGTTTAAAAAAGCTCAGGGCTTTAACTGTAAGTTGTTGGTAAGTCCGGCAGATGGCGCCAGTGTTGCCTTTCCTCTTATACGCTGTAAAGTATGCTATTTTAAGGGGTTTCATGCAGGTTGCAAGTCCTTAACAGGATCCAGCTCTAAACCCCACCTTACTCTTTATATTTCAAGCCCGAACCACTTTTAACTGGTGTTTCTCTGTTACATTACCCCATTAAACTTGCTTCAGCGCTTCAACATCTTAATAGAAC
1 GTTCATTTATATGAGGGGTAGCCATTCGAGTGAACACATATCAGATTGCTGTTAGCCAACAGAGCCGTGCACATCATTTCATCTGGGGAGGCGGATTGAGAACTTCCTTCTGTTGACAGTTTGCTGTTGGGCGGAAGACAGCGGATAAGTTAATGT
1 CAGTCAGTGGGGTTTAAGCCCAAGTATTCGACAAAACTGCTTCTTAGAAGCTTTAGATGGCGTATTTTGGGGAGGGTGCTTCAGATTAATATGCACATACATACATATGTGCATACATACGCCACCTATGTGGCTCACAACAATGCAACAACTTCATTGCCAGAGCAACACGTTGGCACATCCTGTTGCAAAGTCTCATTTCCGCAGGAGTTGTGTTCTACATACCGGATGCCTTTGCAAATGCTAAATGGTTATTGCCGTATGTGCACAATATGTCAGACGTTGCAAATAAATTATATTTGCTTTTATACAACTTGGATACAATTCAAAATTGGG
0.915315233055381 ACATTTTCTGGTGGAAGTAGAGTGTACCCCCGCATTTTTGGCAACCGATTTATTTTCAACTTGGCAGCGTTTTGCCCGTTGATAAAGATTCTGTGACCTCGCTCGCCCACTTTTTATCGCCTGGCGAAGTCGATGTGCACTTGGGCATTATTATTTGGATTTGCGCGACCACCGGCTTTTGTTTCTGTAGTATACTTTTTACTTTGCTTTCCGTTTCGTTTTATTTTCTGTTTTTCACTGCGCTCTTCGGTTCTCTTCTTTCTTTGCTTTCATGTCACGTCACTTTTTTCACCGCTGGATGACGAGGGCGTTTTGCCCAAAAAAAAAAGCACCGAAGAAGCCTCCAAAAACATTAATGGGCGTATGTTAGCTGTTCTTTTTTTTTGAGCTTACTTTTCCGATTTTTTTTACTCGCCAGCGGACAAAATCGGTTAGCGTTGCGGAATTTCTGTGGCGGAGCAGAGAGAGTAATCTCTGACTTCTGAAGTTGGCTTCGCTTGGAATCGGAATCCGGGGTGTTGGCTGCGGAATGTTTGACCCTGCGTGTTGCACTTTATGGAACTCCAACTCGCTGGAGCTTCGCCTCGCTGATTTGCCGCTAATTTGTTTGTTAACTATTACCAAGTGCAGGGCAATTCACTAAAATGAAAATTTCTATTGATTTTTCTTCGCTCTCGCTGCCTAAGAGTGGAGCCATCTAGCGGGCGCGGGTGGAACGATTGGTGTGACCAGTAGAGCGTTGGGTTGAAATACAATGATTACTTCGAGGGATGGGTACACAGGGATGGACGAAGAGAGACGACAATTCGCTTTAAGAATTTTTTACCTTTTGCTCCAAGCAGAAATCCAAAAATATCTTCTTAATTGTTTTTATGGCTAATAAATTTCCGTTCTATCCTTTAAGGTAACGCTTGGTGCAATACAAAAATATGACTCAAATTTGATTAAGTTGTTGTCAAAACTTGTGACGTCACAAAACACAAGGCTGCGCAACCTCTCGCAGCGCACACCTTGAGATTACTCCGCCATTTTTTTGCGCGTTTCAGAAACGCGTTTTCGATCCCTCGGTTTTATTTGTGGAAAAAATATGTGAAGTGCTCTTGCGGCAAGCAGCAAACTGGCAGAATTGAAAACACAGGACCGACCAGATCGATCCAAGTACCAGGAGTAGCACCGGATACCGTGGCTTGCGCCGAAGTGATAAGCGTGCCGAATGCAGACGCATGTGTTACGCAGCACAGTTCCGATTTTCGCACCGTAAAAACATAATTG
0.7852791671508164 AACTGCCTGTCGAATCCGATTTGTCGAGGTTTGTTTGCTGTGTGGTTCATTTTTTGAGAGAATTTAAAAGCGTTTAACAATGTTGATATTGTTTACGATGAGACAGCATGAAAAAACGATGAAAAATACATCGATGTTTTATCGATAGTCATTATGCATTGATGTGCTAATATGAAGTGTGGCCGAATGGTTCCGAGTTTCGTGACTCCCGAAGCACGCAGTTCAAACGTTTGCACTGATTTCCTGAGAGCGCCATCATGCAGAAAATAATTGAACTACTGACACAAGATTTCGATTACGCGATTGATATTAAATGTTCAACCATTTGTAAATATTTTATATATAAAATAAGCC
1 TGCTTGGGCCCCAAAAGAGCGGGCAAAACGCACCTTTTGAAAGCTTTACAGGATCCGGAATCCATCGATGAGACCACGTTTTCCATGCCCACCATTGGCACTGGGATTTACCGAATCCATTTCCCAACAAAATCGCCAAATGGGGATAAAAATAAGCC
1 CAAGAAGCTGATCTACGTCGTGGACACCTCTAATCTCTGTCAGATTTCAGCCGCCGGCGTTCTT
1 GAAAAAATGGGTAAGAAACGGAGCGAAAGGAGACCGCAAATGACCCAAGGTAGAGGGCGGGGAAGGTGGAAACCTCGTGGAGTTCCCGTGGCTAATCGACTCGGCCATATGTTAGCGCGGATTACGGGTCGCTAACTGGTTTATGATATTTATTGCCATGCATCCCCATTTGCATGCCCTGCCCTTAGACCAACGCCCCCACCCCTTTCAACTGCGGAATTGTCCCGCAGGAAGCTTTTCATTTCCGCTGCTGTCCGAATTTTTAAAATCTATGAGTGT
1 AAAAGAAACGGAAGTGCAGCTAAATAAAATGCTGACCATGGTTCTTCACACAGGAAATAGAATTCTGTGGACGATGTCGTAATTGCTTACATTTATTTTTGACAAGAACTATCGTGACTCTTGGTTAAAATAAGAACACTATTTACCAGGTTTTTGAATTGGCGCCTTTCTGGGGCGCCATCTATGCGGAAAGCCTAAAAGTATGCCTTGCAAGCGGTGTGAAAGCGCCAACTAGTGGCCCAAAGTGGAATCTTTTCATTTTTCTCATAATTGCGTTGTGGGTTTTTAACACTAAAGCCTATTGCCAGCTGCTGTAGTCAAAAAGTGTACAAAAAAAGAAAGTGGGAAGAAAATAAAAAAATCTAGTGCTTAAACCAAAGTGAACGAGTAGTTTTCAGCTTGTGGGTAGCAACAATTAGTAGATGGCAGAATATAGGAGAAGAGAACTTCAATGAGCAAGAATTTCCAACAAGAATTTGGTAAATACCGATGCAAATGCGTTAAATGGAAAGAGAAGGAAGGATGGTGAGAAAAGTGTGAAAACGTGCGTAAATGTTTCGGCGTTTTTGTTTTGATTCTTATCAGACTGCGAAGCAGACGCGAAAGCATGCGGAGCGATGAAAAACCGAGTACAAAACAAAATGGAAAGAAATGCGCGCGCTCTAATAAGATTGCGCGCTCTCTCCCTCTCTCTCTCTCTCCCTATCTCTCTCCCTCTCTCTCTCCTTCTCTCTCTCTCTTTGGCCAACTGGAGAGCTTTCGTGTCGGTTTCGGATTCGCTTTGCGTTTCATTCGTGAGCGAGCGCTTGCTTCGAACGGACGTCTTTAAGAACGCCCTCGCATGCCACGCCCCCTTCGAGAGGCTTTTGGTAA
0.8563083217727258 TTCTTATCGCTTTTGCTGCTTCTGCTCGAAGCACGTTTCCCGACTGGCTGACTCTGCCCCACCCAACACCCATCTGAACGTAGCCCCCAGAACCCATTTCCATTCCGTCCGATCCCACATCCAACAAATACCCAACGAGTGATATCAACGCGACTCATGCAAGTGGGACTTGCACAGTAAGACGCCATCTATATCTCGAGACGGGCCATACACTCTGTATATAGATCAAGAAACTATTGAAGAACGTTTGATTCGATAAGCGCTTATGGATACAAGTTAGTTGGCAATAATTCAAGCTGTATATTG
1 GCGAAAAATGTTATGACGACATAGTTGCCAGATTGATTAAAATATTGTCAAACATCGGACATATTACCGGATCAATAGAAAAATATTGTGGCATCCCTAATAAAAGAACCGTTAGATTAGACCAGG
1 TCAATATGGCGGCCTCGTTGGAAATGAACCGTTAGCTGGAAGCATTGCTATATCAGCAGCGAATGCTACCAGATCAGCCAAAAATTATGCATAGTAATGTTGGCGGACTTGCCAGATCAGCTGAAATAGTTGG
0.7067509459398332 GTATCGAAAGTCAGTGTCGTTATCGAAAGATACTGTACAGAGCTCTCCGTGCATTGGTTAGAATCTAGCTATAAAAATCGGTCACCTCCAAAAA
0.2163235788961044 CATCGATAACGTTGACCAGGGTGGGTTTCTGGATTTTTGGTTTCCGAAACGGCTCCGAAACTTTTTCCATAGCATACTTTTGAGTGAGGAGCTGTGGGAAATGCAATTCCGATTGTATTTTACTTGTCGGATTTC
0.4746854252702703 CATTTATGGCAGTATGAATACTGGGGCAGTGCCATAAACTGGTTCGCGACCCGGCTAAGGAAAAGCTGTCTGGGGAAAGCGAAACGCACATAAAGGGTGCCACATGCAACAGCTGTCGTTTGTTTACAACCGGCGAACTGAGCTTACTCACTTTGGTTGAACAGAGTTGAAG
0.9808889238352455 CGAGACGGAGGGCAGATAGTTGGTCACATCGCAGTGGGTGTAGGTGCTCCTAACGAAGTCAAAGGTCAGAGACCAAATCACGCAGAAGAAGAAGCCTCCCAGGGGCAAACTAAGAGCCACCAGTGCCAGTCGCGCAAAGGGAAGCCGGAAGAGGACGCTTTTGGGATCACTGAAGCGCTCGTAAGTAGGCAGCATTTGACCTTTGGAGTGGGTGGACTACGTGGGGTGTTGGTCGGGTTGGGTTCTTCAGCGGCGCTCGCTCCTCATTTTTCAGTTCCTCGCTCCCAAATTAACTAATGGCTTTTCACGCAGATTGCTTACGTTATAAAC
0.6776486669720604 ATTTTTGGGCGGCGAATCGTCTTTTCCAAGTTTGCAACCACTCTAGAGTTGCCTCACTTTTGTCCACATCTTTTGAAAGGCGAATTAGAACTGGTCACACTGGCTTGTCTGGATCGAGATTTCAGCTCGTCAACAA
1 TGTGCAAACAATTTGCCACTTAACGCAGTTAACGTGTGCGGTAATCAGAA
1 AGCTGCACAATAGCTCCGTATCTGACTTTCTAGCCATTCCACCGCCAAACCGACATATCTGTCAATAGCTATTGACAATCGAATTC
0.8751845299203226 TCGTTGGCACTTAAGGGTTCATGCTACCGCTATATTTATCTATCTACGTGGCAACTCCATTCGTCTCCAAAAGTTTCCCCACGGCTGGCAACGCCTCGTAACGGTTGCCAAACAAATTACCGTTGCATGGCAACTCGTTTGTTTGGGCTTTTGTTTACAAATTTACA
1 ATTTTGCTTGTACCTAAAGTCAAATTTGGGTTGTAACCAAAAACGAGGTAGAGAGACATTTGTGCTACAAACGTTCAGA
0.6028627492513421 CGTAATCAGTGGAAATTTAGTATCTATTAAGACACCCATACCAACAAAAGCGAGTGTCGGTGCACACACGCACGATCCAACACACGCGCACACGTTGCGTATGGTCACACCTACAAGTGTGGAAGAGAGACGGCTATAGGGAGTTAGCGTTGCCAGATAAATTTTCTTCTTTCGCACGACTAACAAAGAAAATGGTGAGTTATATTGGCTAGGAAATGCAACAACAGTTGTGCTTTATTTAATGTTTTTATTCGACAGCCTCGTATAGTTCCACTGCAATTGCTGAGGTGCCTGCGGGTGCTTTTGGACAATAATGGTGGAATTTTAAGTGCAGTGGAGGTGAAACGCATTTCGGGGTAAGTTCACCACTTGTCAGCAGCGACACCTATCGGCGTTTGCTAATATCAAGTTTTTCGCCCACAGTTTGATGGCCAAGTATTCAAAAAAACTCGTCTCGAAATGTGTGTATGTACAAATTCTGAAATCCACAAAGACGGAACTATTGGGCGACTTTATGGCGGTGGGCGGTTGGTCGCTGGTCTACACCTGGTTAAATGATGCCATCAGGGCCATGAACTGGCCGCTGGTACAGGAGATCCTGGAACTGCTGCTCCTTTCTCCCGTGGATGTCAATCGCCTCAAGATAAACTCAGCACCTATTCTGGTCAAGGGGCTGTGCAAGGATGGCGGCAACGAAGGTAAGTTTTCTTTGATAAGTCTTACTCTAGTCGTAGATTAGTGTTTT
0.6990573035005194 CCACAACTCATTTACAATCCAATTTGTATCGCATATCCGCTGCAAGGGAGCGGTGGCGTATGCGTAATATTTGTGACACGCCCCCGACGCCATCTAGCGGCCAGCCACAGCAGCAGCTAATTAGTGTGACAAATTGCTTAGTCAGAGGCAGAGGAGCGAGAATGCGGGCCAAAACCACATCCCTGGTGGCCCGTGGCCAGTAGCCAGTGGC
0.7438643240020385 AAGCGAACTCATTTTGAAAATAAAGTTTTTCGGCAAACGATTGTACTTATTTCTTATTACCAAAGTTGCCATCCCGAATCTTTAAGGATGTAGGGAGCTGCCATTCTGAATTGTGCACATGTTAGGAGCTGCCATCCTGATGTCTGGGGAAGTGGAGCGCTGCCATCTTAACCAAGGAAGTTTTATTAAAAAAAAGTACCAAGCTGCTATATAATTCCCAATAGGTGTCGCGTTGCTGTAGCCAATACATAAACCATTGAAATCTACATTTATAATTTACATTACAGCATTCAAACTGACATGCGTAATTTTGTTT
1 GCGAGCTTGTTGTACAGGTGCGTGACTCAAATGTCAGAGAGCTCGACTGTACACACACCGTACCAAGCTGAGCTTCAGATCATTCAAATGGCTATATGTATCATTTTCCGCAGCAACTCGGACGACATTCTTGGCTAAAATTAACAACTATTCGTGGGGAAACTGAAGGTGGAGTGCGGTCCAAGACCACAA
0.484006963968442 ATCCGTTGGACGTTCTATATTTAGCTCGATCGAATTGAGAAAGTATGTATAATCGCGGGACGTGACCGAAATAAACCAAACAACATGGGATAGTCTGGGCATCGGTTTGCGCCCCTGCTCGGCTGCAGTTCGGTTTGAGTCTCGGTTGGGAGGCAATTTTCAGTTGCTGAAACGGCAACGGCGCAAAAGCGAAATTGCTGTAATTTATCCGATCC
0.9560425530850594 TTGAATGGCTGTTTCTCCTCCATTCGAGAGTCTTTCGAAATTGGCTCAAACACGCAAACATGCCATTGATATGCTGGCCAAGTCAAATTTATGCGTGGGCGCATTCGAAAAAGCCAACTTGCCCAGGACAGCAACCTCAGCGGGGACACGAACCCAAGGTATCTGAGGCATCTACGATGCAATTGAATGCGAGGCACATGAAATTGAACGACGGGTGTGGCGCGTGTTGAACCAGGCATTTGACTTTGTGGTCTGGATGGGGGAATATCATCATCGGGTTTCGGGCTTGTGACAAACCATTTCCGAAC
0.2496984931488245 TTCCGTTCCCTTCATGAATTTGACCAGGACGACCTCCGTCCGCTTGCGCTCGGCGATGACCACGTCCAGCGTAACGGTGTACAAGGCGGACATGAAGCCGTCCAGTCCATTGGAGCACTCAACGCTGTGCGATTCCAGCGAAGCACTCGGACCAAAGTTCTTGAAGATGTCGTACACCAGGTGGCGCTCTATATAGTCTAACTGCTGCTGTTGCGTCGACATCGTGACCTCCACGCAGGAATCAATTGCTATCTGAATGGGTAATCTTAACTGACAATATACGCAAGTAGGTGTATATTTGTCCGGGCAACCAATCAAAGTGGTATCGATAGCCACGCGCAGGATTTTGGTATATTCCCGGTTTCAGCGAAGTGGTCACACAGAATCGCGATTGAAACGTGCACCGCCGGCGTA
0.7912261609948755 CCGTGCTCATCTTTATGACCCTTTTCCCCCGACTGGACAGTGGTCCTCTGTGGAATCAGTTCACCAGCTCATCGGAGCTCTGCAGCGACACCTGGTGGGCAACTCTGCTCTACGTGCAAAATTATGCTGCTCCTGGTAGGATGGTACGTAATACTTAAGAGCCTCCTTGTG
0.06233871172659175 GCTGCTTCTCTGTTTTCCTGCTTGGTCTCTGCCTCCACTGGGCTGAATGAGAGTGGTGTTTTCGCTCCAGGATGAGTTGAGTTTGCGCAATGGAGAAATGAGATTGAGTGGCACGCTTGGGGCAGCGAGTAGATAGATGGCGCCAGCGAGAAGTTCAAATCGAGTTCTCGTCGGATTTCTAGATGTTGGAAAGAGCGCTTTTGAGCTACATATTCTAGC
0.7462732845652311 TGATGATTCATTCTGGAATATACTGGGAGATACGGTCGCTATCCACTGAACTTGGTATCCGTTCTACTTCTGGCTTAGAACTGAGGTTCGACTGCATCTGCATTGTATCTTTTATACGCTGGATGCGAGAGCTTTGCTTTTCGCGAGCGAGCTTTTCGAGTGCGCCGAATCGGATTGCCCATGTGAACAAAGTGAAATGCAGACGATCTGATTGCAGAATCAGAACATATTGCTCTTGTTACAATCGCTAGGAGGCAGCTATGGAAAACAATCCCAATACAACTCACTTAATTTCTGTATG
1 ACTTTTAATTAATTTTGATTTTGAAATTCGAATGGTGAGCGCGAAATCTTTATACGAATTTTAAAGCGCCAAGCATCGGTAAGTTTCGGAACTAATACACTGTCATGTAGAATTATATTTTACGTTGACTTTCTACGTCGACGTCTACACCAACAGCTTGGGTTGTCTTCCGCCTAGGTGGCGCTTCTATCAGCTTTCAACCGGATGAAAAATATTAAATAAACTAATTTGAAGCATTTACTCAACAATTATTATAAAACAATAATAATATTAAATCACGTAAAAATAGCCAACATCCGGCCACGTGGCAAGTCAATTTTATTGGACTGACTTGAGCCTCAAGCAACAAAACGAAAATACCTAAAGCTAACCTGATTAAAATGGAATTTGACCGAAGTTTTCTATATATACGTGACCTCTTTTCGATTTAGGGCCAAAGTGAGGCCCACGAACGATGCAGTCTTCGCCGAAACTCGCACTGGCACTGACCTTAGTGCTGATTTGGTGCCTGGCCCAAAGTCATGTGGAATCCAGAAGATGGCGAAAGTCCGTGCAACTGAAACTGCACAGGGAAACGAACCACACCAAAATACTGAGCAGTTTCCACAACCAGAAGCTTAGACTCAAGGAAAAACTGAGCCCGACCAGCGATTTGGCGATATCCTCGGTATCTGTATATCAAACAACCGTGTCAAAAGAGAACCTGATCAATTCCCACAACACCGAGTACTATGTTACGGCCGGTTTCGGGACGCCCAAGTCGCAGCCAGTCACTCTTCTGGTGGACACCGCCTCGGCGAATCTGCTGGTCTACTCCTCGGAGTTTGTGAAACAGTCCTGTTTGCACCACGATGGCTACAATTCCAGTGAGTCGCAAACGTATCAGGCCAATGGATCGCCCTTTCAGATACAGTTCGCATCGCAGGAAATTCTGA
0.4528908950520008 GAAAATAAAATAAACTTGTTGCTCGAAACACTGCTTACGTTACTAGAGACGGCACTTTGTTACGTCGCTGAGCGTGGTGGTGGCGTGATATAGATGGACTACAACTGCGATCGCTCACGTGGTGGAGATCTTCGATGGAGCACATAGGTTGTGAACCAGGCTATGCTATGTTTTTAGCACGTACCCGAACCAGGAT
0.3325326967265354 ACTGCGACTGTGGAAGCATACCGCCGCTGCGAGGCGCCAAGAAACGACCTAAAAAATACCAACAAACTGGGGAATTCAACGGTTCTGTGCGAAACTTTGAGCGCCATTTTGGTC
0.2013972018458506 TAAAAACTGTTTCATTTGTTGTTTTGAAAGTTTCGTAAGGCGCCTCTTACGGCCAAACACTGTACTAGAGATAAGAGACTTTTCATCTACATGTAATTCTACATCATGCATTTTACATTTACTGACATCTCACTATTAGCCTGACCGTATTTTGGCACTCTGGTCACATTAGCATTTCAAATACGACTGGGGATGCCAACTCGTTCTTGAACTGTCACCCCTCTGGTCACACTGAACACATAATTCGATTCTATCGATATCGATTTGCAGCCACCTCTAGTTTGTTTGGGGCATTTGGGGCTCCAAGCGGCAAAGCGCCTCCAAAATTTCGCAGCGTCGGACGTGTTTCGCTCCCCGTTCGCCGTGTCTGTGTGCGTAC
0.9412212628983225 GTTTGACAATGCTAATGAAGTGGCCCATTCAGTGTTTTGCTGCACTAGCAATTGTTACGCCTGGAAATCACTTTTTTTTTTGCCTAGACACAGACGACTTAATGAGCTGATACGGCGAGCATAGCGACAAACACGCCCCCTGTGGGCGCGAACCGGCACACTCGGTTCTGTCGATAAGAGTTCCCCATCTGTGGGTGTTGATATTCATAATTACGTGCCAGTTGTTGACGAATTTGCATAACTGCATAGAT
0.5029610207999189 GCCAAATTTTGAAGCCAAATGCAGTCAGCCCTAAAGTATGCAGTGGATTTTGTAAGCTTCGAGTGCAACTCAAGGCTCATTTTCTGAGCTCAACTAAATGCTCAAAGCTACACTCAGCGGAGTCATCCACCGACCGTCGCTCGCGTATAAGTGATACGCGCTGGTTCGAAACCCCGCTGGAGAGCGGTGAGCGACGCAATTTCTAAAAAGTAAAAGA
0.5808565279228036 TTGTATCTACTTAGTGGTAGGTGTCTTTGCTAAACAGCTGATTCGGCTGCCATTGTGAATGGTCAAAGTGGAATTCCGTACAATCAGATTGACAGTTGCAGCAAAAATCGAAGAAGAAGCAGCGC
0.8919666253794916 AAATCTGGTTGGCTACTCCATTTTGAGCTTGTACGGCAACTCTGGTTGAACATGTAAGTTGGCAATATAGCGAGTACGCCAACCCAGTCTAGCGTGCATAACAAGCCTCGCCAATTGAATTCAACCTATCGATTCGCGCACTGAGTGGCCACATCAGTTGTATCGAAAAACATCGT
0.7544178043858377 GCACGCTGAGAGAAAAGCTCTGGCGCAAAAGCTATCTCCGAAAGTATGCCGAAAGTATAAAGTGAGAATCGCTCCGGATTTTGCTGCGAACGGTCGTCTGTTCAGGTTCAGGTCTGGGTTGTGTCTATAGTCTCCGTCTCCTCTTCGCTGTCGCACACGCAAACGGGTCTACGCCACACACACAC
0.4835429316828733 TGGATACGTCGAGGTTCGCGCTCCTCTGGCGGCGAATTTTGTGTTGTAAAAAATGTTTGAACTGTTTTAAGTTTAAGTTTTAACGGTAACAGTAGAGCAGCAAGTGCAGCAGGTCGATCTATGCGCC
1 ATTTTGACGTCGCGCTGGCTGGGAATCCGAGTCCGAGAAACGCTAGACGAGATGCGTGATCATGATCGCGATAATGATGGAGATGGGGCTAAA
0.3640824444423443 TTATGACCGGAATTAGGGCCTCCATTCTGAGTGTGTGTGTGTGCTGGGTTCCTTTGGTCGCGTTCCACTCGGCTGGCGATTAATTCGCGCACATAAAGGCCGTTCTTTTCGGCTTTTTCTGATTGACGCGAGCACCGAAATTATTTTTGCAAACCGCCAGTGTTGCACAGCAAATTTAGACTGTTTTTCTAGCGGTGTTGCCACACGGGCGGAACTTGCTGCTATCGGCAGTCCCTAGACGAGGTTGCCACCGTGCGCGAGAGTGCTGCCAATCTATTCCAAAAGGGCAGCTTTCTGTGCGCGCCAAAATTGAATTTTTGGGTGTTTCCAATTTTGCCCGTTAGTTGCGTGTATTGAATACTTTACACAAATAAAGAAAGGTATGATTTCATAACATTACTTAAAATCCCCCAATAGCTACAAAATATGAATGTCCTTTTCTTTTTGTTTTGTTTCAT
1 CGCAGGATCCAGCTGGGTATACTCCTATTTTGGAGTCCGAAGTTGGTATCGGATTGTATTCTCGTTCGAAAG
0.7551780379135594 TGGCCATTTTTTATCGCACAGGCATTCTTCAAAATGCCTAAAAGTAGGCAAGAG
1 CGAAAAAACACAACTAACAACAATAAGGCAAAAGTCACGCCGTTTGGGATTTTTGAAATCGAGCGACGCGAAGCGAACCGATTGCTTCCAAAGTTGGCGTCCAACTGAAAAAGCTAAGTCCGAACTCACAATGAAATGCGATCAGAGAGTTCATTGAGTGAGCGACGCCTATAAATAGGCAACGTGGACTGCGAATTCCGCGACATGGCGCGCGATGAAAACAATGCCGCCCACTTGGGGCGCCCCAACAGCCGCACAAACACACGCGAAGTGGCAATAAAAAGTGGGGGTCCGCATCCATTGACGAAAATCGCTGCTGACATCGAGCGAGGTCAAAGGGCAGTCGCGCTGAACGCCCATCCAGCGAAAACAAAATCACAGACTGACTGACTGGCTGTTGCAAAATCAATACTCACATGCTAAATAAGTAAGTCCGTGCAGTTGGGAGCTTGCGAATAATATATATTGAGCCACTCTAATGGGAGCCATTTACTTGATGCGCCCCTAAATATGCAATAGAATTTTCCCGACGCGAAATCTGCAGCCTTCGCTCAGGCCTTCGAAAGTGTGACCAGTCGCTGCTGGAACATGTATCTAATATGTCATT
0.6180334163242149 TACATTTTGGTGCATAACCAAAATTGAAACATGCCTATTCATTAAAGGGGAATGGAAATATCTTGCAAAAATGTACAATTAAATAAATACCAAAACCTTTGCCAGCTGGTCACCCCAAAACCAGCTGGTACGCAAAACTTCCGACAGGGGGCGCCACGCGCAGCGCAGCCAACTTCACGTCCAGCTGTCATTTCTTTCTCTTTTTCGCCTTCACCGACGAGTTGCGGTCGCTAGATTTGTAAATTTCTACAAAAAAGTGAGTAAACCAGCAGTGGCCGCCACTAAAACTGAATAAAAAGCAAGCTAATTGTGTCCCTTACCTTTCAGCCCAATAAAATGGAGAACGACGCCGGTGAGAATGTTGATCTGTACGTGCCCCGCAAATGGTAAGTGAAACACGTGTTCCCCGCACAATTTGCCGAATGGATTACTGACCAGCCGATACCCTTCCCTGCAGCTCGGCGTCCAACAGGATCATCCACGCCAAGGATCACGCCTCCGTGCAGCTGAGCATCGTGGATGTGGA
0.5016748412003454 GTTCCTACTTTGTGGATGCGAATTTTTGAGAATGCATAGGTAATCGATAGTGCAATCGATGCTTGGCCATCTCTAGTTCA
0.654474620871408 TGAGATGCATTGGGCCCCAACACCTATGCAAAGTGAGTGCATGCATGTGGGTTGCTGTTATTGTGATGGTGTGCAAGCAGCAACAAAACAAACCGCATATAAATAAGGAGAGCGAGGTATTGTTGCATACTTGTAGGCAGCGGGATGGGGGTGGAGCTGTTCTGTTCCATCCGCTCGCAAAGTTCAATGGTCTTTTGACACAAATGATGATGATGTCAAGTT
0.8468398474933597 ATTTTCTTTCGAGTCGAGTTGGGAAAATCGGTGTTGTATGCTTTGCGGCGCTGGCGAATAAATGTAAGCGAACAGAGAAGAATGCTACGGATATGTAGTTA
0.2512266440529856 AATCGTTTCTCGATGCACCTTCGCGTTCTGAAGCCAATATGGTTGTGCAAATGCCTGCAGACGCCACCGGAAACGGAAACGTCTGCAGAGCGCCCTCTTTAGGCGGCTTGTAAACGATGCAAACGTGCAACCCTGCAACCGCTGCATCGTTTACACTCGGCTTGAAATGTCTGTTTCTCTCACACAGATCACACAC
0.2446518566472766 CAGGATTCAGCTGTTTAGAATCTTCTCCTTCAATCAGAAGCCTCTCCTGTCGCCTACCAACGTAGTCCGTCTCGATTAGGCGACGCACTGCATCCGTCTTTAGTCCCAAAGGGTTCGCCTGCAGGTGGCGCTTGCGTATGCGGTCCCAGCGAGTCTCCTTGCTCGGCTTCTCACGTCGCTTAGGATGCGACATCTTTATAAAA
0.03393181048273673 ATCTGGTTGTGGTGCACTATACTATACATGTTGCGGCAACATTCACTGCTTGGCCACACTGCTTTGAAATGCTTGCGCGCTAGAAAGTTTACCAAGTGCGATCAGA
0.7011775229850504 TACTTTGCATACTTTGCCGAGCAATAAAAAAAGAGCCAATCCGACCGAAAAGAAACATTGCGCAGCTGCAGTCCATTTTTGTAGCATACTTT
0.3483463157203365 ATTAAAGTTTTTTTTTCGTCCCTTCGAGGTTGACCATTGCAAAAAGAAGCTCCAGAACATACACAATATACTCGTATGGCGTATATTTTAGCAGCCAGCAGGTGGCGCTTTGGTGGTCACTCCTCCGTTTTCGCTGCTTTTAAACCCAATTATGTCACTGTCTTTTTTCGTGTGTGTGTGTGTGTGTGGAACTGATAAATAAGTCTGCGGGGTACCACTCCCCGTTTCAT
0.584583018345722 CGTAAAATTATCGATATCACATCGGATGGCGTGAACGCATCATGATCGTGCACAAGTATGTTATAAAGTAGCAAA
1 AGGAACTATTTCTTGAATCTGGGGGGATTTGATGAGCAGCTGGACACCTGGGAAGCCGAGAAGT
0.292103275411549 CCTTTGGTTTTCTCCGGGGTCATTGAAAGTGTGGCATTTCCTGGATTCTGTGTGGACTCCCTGAATTGTAGACACACTAAGCCCGTGGTTTTAGCCCGGTGCACTGGGCATAATTCAATGCCCGGCGAGCATCAGAACTGGTCCTTAACGCAGGATCATGAGATTCAACTGACGAACAGCAAAGATGATTGCTTGGAAGCGCAGGGCCTACGCTCAAAGTCGGTGTGGCTCTTTCGTTGTCACAAAAATGGTGGGAATCAGTACTGGTACTACAATCACCGTCATCGGTGGATCCAACAGGGCCAAATATGGGTGTGGTGCCTGGAAGCCCAATTGGCTAGTGGTCATAAGGTTGGCAAGGTTCTGGCCAATAAAATCTGCGATAAAAACCAACTGGAACAGCAGTGGAAAGTTGGGCGAAATGCGCCATATGATCCACAAAGGGAGCCTCATTAATATGTATAGCACAGCAATTATTAAAATAAATATTTAAATACAATTTTAGATACGAATTTTGCCTTATATGAAAGTATGCCTTCAGATACAGATGGCGCTCACGCCAATCCCCAGCCCAGTTCAAAGAGTGCCTGTGCAGATGGCGCCACCATGACGCGCGCTCCGCTAATTTGAATTCGCATGCAGAGATATTTCGTATATTATTGTTCTTTTCGCCCGACTTTTTCTCAGGTGAGTGTGGGATCTGGGCCTGACCTTACACGTCACCGGGCAGCCGACTCGTCTGCCACTGATTGATAGTGGAGAAGCGTGTTTTTTGTGGCCAACTGAAAATGTGAAAACTTCTTCGCCGCCTTATCACTGAGTCGCGGTTTCCCAATTACACTAATGGCTGTGCTTTTTGCCAGGTGGCTGCTCCTCTGCTGCATCGGCATGCCAGCAGTCAGTATTTTGGACTTCCGCCGCCAAGACGTCCACATGGCCATAAAAAAGAGATATGTAAAGCGCCTGTTGCGCAAGGTGGTCCTCCTCTTGGTGGTCATCGTCACTGTGTCCTTGGTCACC
0.8812589447961822 AACTTCGCGCTACAGTTCTTAGTATTATTTATTACCAATACTATCATTCGACTTTTAAAATTGTAGTCTACTTTTCAGCGTTAGCGCATAAAGTTGTTAGTTCCTTAAACGCCCGTTTTTATGGCTTTTCATTATGGCGCCACTGTGCTAAATATGAAACTTGAAATTTCATCCAATTAAAATTCGTATCACTTAACCATATTTATATTTATTTGATCAAG
0.832746559852545 TATGCAACGCCAAGTAGAAGTAGCCGCCGACTCCGAAAGTCCGGCACTCCGAAAGAAGTGCCGAGTGCCCGATGAAACGAAGCAGGCTCTTCGGTTCGGGTTCAAGTCTTCGCTGACGA
0.2513743970949838 TAGCTCATAAATCCTTTGCGCATCCTTTTCGCTCTGGTCTTTCAGCTGCTGGTGGCGATCGTGCAGCAGCTTGTACTCCTCCACGATGTCATCCACGCTAAGGGTGTCAAGGTCCAAGTTTTTGTACATTTGGTTTGCATAAAAAAGACGCCAATTTTTTATATTTTTCAACCGTCAATCGATATTTGACTCTAAAGTAATCGGTATGGATTGCTCGCATTGTTGATCGATTACAAATAACAGGGAGACTTGTGCTGGTAAGCGCAGACTAACAGTGTTGTTACATTAACGGTTAGCGCCATCTTCCGGAAGAGAAATGCATTTTTAAAAATTTTGACTAAAATTTCACTCAGTTTTAAGTTTTAAGCTAAACAATCTTTCTTTTATTCTAAGTAGAATATTACTTTTGCCTTTGCAACTTTTTACAGCAAACTTCTATACGGCAAGCTATGTTAACCGCATGCTAACATTCAACTCGTTGCCGCCCTCTTCCGGTAATTCAAAGCA
0.003898774346299229 TCGGTCAAAATCCGCTCAAATACCCCTGTAGATGGCGCTTTAGCTCATCTGCTCTTACCTTGGGACAGGCTTTAAACCCAGCAGCAGGCCGCTGT
0.8738947147882909 TATTATTTAGATATATATATAAAACTTATTATAACTTATATTTAAATCTTAGCGGCATTAGTGGCGCCACCTAGCTGAGCGCTGTAAAACCTGGTGGCAACGCAAGCAAAGAATTCTGTTAAGCCTGAAAGCATGCTACAAATATGGGAGAATATCGTTTTTTATGAGGATATGACAATATACTTAAAATAAAAAGCTAATTGCTTAGGGATTAGCACTAGATACTCAACTGTATTGCAACAGCATCGGCCTTTGCATGTTATATCAAAACAAAGTATTTAAGTCACCCACGCCGTATCGATATATGACTATCGATATCAGTTCCAGTTGGAAGCCAAGCAAGTGCAACTCATTGCGATTGCACTCTCCAATCAGAAACCACAACAAACACTTTGATTAACCAAAACACAGCGATCCCATTAGAATCTCACTACACAATGGGAGATAAGGTTATCGGATCAGAGAGTTGGGTAACCGATTCAATCGGTGAAAAACTACGGAACGATGACGACGTGTTTGCGCAGCGGAGTGTTAATAATTGTTTTGCTTGGGATTCTGGGAATTCC
0.9725331382906447 ATCACGATACGACAGCCGAAGAAATGGCCAAACACGAAGTGGGGGAGTTTTGATTTCTGTTATTCTTGTGGCTTAATTTCAAATCCAGGTGCACTTTTCGCAACCGAGCGCATGCGCATGCGCCACACACGTTTTCTCGCTACGCCGCCTGCCGGACGAATGACGAATTGCCCGAAGATCGGGATTCGAAACACTGGAGCATTACTCATTCTCATTTCCAACTGAGCGATCGGCTGAGAGAGCAGAACAGAGACAGGTACAGATAGTGGGGACAGCTGAGCACGTTTTGTTTG
0.9401050828486449 TTTAATAATCATTCCGAATGAAATCATCATTGAAGTTGGTCAAGATCGGTCTTAAATTAATCTAGTATTATAAATTGCCAATGCAGGATTAACTCTGCGCCATGATTTATTCAACTTTTCTCGTATACTTTTGGAACTAACAGCACACAACGCCTATCCGTTTACGACAAATGGTGTTTGTTTTTGGAACTAATACAGCGCCATTTTTCATTTTAGTGATTTCTAACTTACGTTGTACGTTACATTTCAGATTTATTATGCATGTAAGATGTAGAATGTCATAGCAACTGGCCGTCATGTATGTAAATATGTGTATGTATAGGCATTTCAGAGCCATTTTCTGCTCATATGTAGGGGTGGAGCCTGAGAAGAGAGAAAATCCCAAAAGGGG
1 GATACGCGAGTACGATTTAGATCAGGATAATCACATCAATTTCGAGGAGTTCACCAACATGATGACCACGCGTTAATCTACACGCACACGCTTTCTAAATTACAATCATAGTGCAGTTAAAGGAATATTTTATGGCTTATTGTTGGATTATTTTATTTTAAAGACATTTGAATTTTTTCGAACTCGAATAATAAATGCGCCCAAAACTTCGCAATACGACTGACTAGGGGGCGCTGTTTTAGATCACGTCTTTAG
1 ATATCTATAGTTTATTGGACAAGGATAACGAAGGTGCCATCACCTCGAAGGAATTGGGAATGGTAATCCGAGCATTAGGTCGACAGCCCAATGAATCCATTGCAAAGGAGGAGTTTTGCAATGTGATTCTGCGCAAGATGCACGACACAAATAAGGAGGAGGAGCTGCGCGATGCGTTTCGCGTTTTTGATAAGGAGAACAATGGGTACATCTCCACTACCGAGTTGAGGGCTGTCTTTATGGCACTTGGTGAAAAATTGGAAGACGACGAGCTGGAAGAGATGATACGCGAGTACGATTTAGATCAGGATAATCACATCAATTTCGAGGAGTCCAACAACATGATGACCACGCCCATTCTAAATTACAATCATACTGCAGTTAAAGGAATATTTTATGGTTTATTGTTGGATTATTTTATTTTAGGCATTTGAATTATTTCGAACTCGAATAATAAATGCGCCCAAGACTTCGCAATACGACTGACTAGATGGCGCTGTTTTAGATCACGTTTTTAGTACCAACTTTCGGCGCAACATCAGCTGGCGCTGTAACAGTCAATCGCGATTTGTAGTTCACGATCTCGCCATGAATTTGATGGCGCCTCGAATATGTAGTACATAAAAATAGCACGTGGCGCCAGTGAGCGCACGCTCTTTCCTTTTTATCCTTTCAATCCTTACTTTTATTTTTTATATTTATTAGGATTCGTGGGTATTAGTAGTATTATATGCATTATATTGCTCAATAGAAAT
1 CTGCACGGAATAGTGTGCGGCTCGAACCCAAAGCTTTGGCCACTGCATTTGCCACATTTAGCATTTCGGCCAAGGCAACTGAGATATTTCAGAGACAGTAACGCCGCTCCAAAAGCCAAAAGCTTTGGGTCTTTGGGGCCAGATGGGCTTACCTGGCCACTTTGAATGAGTTCCTGAGTTCCTCTCTTGTGAACTCAGTGCGCTCTGTGTCGCTCATCGTTCAGTTTATTCAGTTTTTAAGTTTTACGACGGCACTCAGTTCGGTTCAGAAGGTGTTCGATGTTGGACGTGAGCGCTTG
1 GAGAAAGAGAGAAAAATACACTCTTGCTGTGTGTGTGTGGTATGAATGGAACAAAAGTACTTGTTCTTGCGGAGGAGCGAGACAGCTGATGTGTGCAAGTGTGTGTGGGCACGTAGACTCGTAGTA
0.7274558427736801 TCGATAGCACTCTATAAAAATGCTTAGCGATAGGTCTCAAGCCATGCCACA
1 GCGCTTATTATCGTACTGTAGCTGTAGCTGACAAAGTTGGCCCAAACTCAAACTGCAATGATCCTCACTTTCGACTGGAGTTTGGAGCTGCCTTCTTAGCCTCGGTGGTTTCGCAGGCGCTTTACAAAAAACAATGTCAGTTTGCATACTTTTGGTCTGCATTGTTGAATATGTTTAA
0.8491348573690846 AAGGTACAACAGTATATAATCTTATGTTTGTCATATCTTGGTACCCATCATCACTACAAGCTTTTTACCACTATCAAGAGCGCCATCTGTTGGCGACATTTGGCTACCTACTTACCAGTGAGCAGCGGCTGGACAACGCCATTCTGATTCATCCGCCCGCGATCCATAAACTGTCCGCCCGCACAGCCCAATTCACGGTCGTTCATTTTGTGGCCGATCTGTGGAATCTCAGGCTATATCAGCTATATCTGCTATATATCGATGTAAACGTCTGGTGGTCCGTAGTTCTATTTGGTTCGTTCACACGCGACTCGTTTTGCGGGCAATTAATGTGCCAAATCAACAAAATAATTAGTTTCTCTGGTCG
1 GTCTATAGCTACGTTATCAATTCAAATGGCACGATTCGAGGCTTTTTGATAACGCGAACGGTAATACTTTTTCACTCGAGCAAGGATCTCT
1 CAAGCGGTGCAGTCCGGGCTGGAGAATCCACATACCGGACGGGAAAGGTAGAACCAACAAATCGGAGAAGGGAACCTGGCCAACTGGTGATATA
0.8196953139648433 TTTACCAAAACAAATGAGTGACTGGCCGTCAAGCATTTATCGGTATTTATCGATGTGGGCCAATCAAATGCTGACCTGGTGTCAGCCAAGACAATTGCCTTGGTTCTTGTCTTTGGAATGGATATTCAAACGATGCAACTAATGGTTCGCGTCTCTGGTGAGTTAGACGTTATTTTAGTTTG
0.5564003612713897 ACCTAGAATTCACATTCAAACCGCGATAGCAGTGAGCTTTTCAATTGCCCGTCATACCATTCAGCTTTTGCGTGCTTACCGAATGTGTCTAAATAAAGGTTTGTGACACTACTATTCAGAGTTGACTAAAAAGGACAAAGAAGGATATCTTTTTGTAAAATAAAATGTTTGCACATTTTAACTGTTAAGTGTAGCCGCTAGGTGGAGGGCCCAATTGTGCGCCAATTTAAATATATGAAAATGATTCTAACTTTTATACACT
0.5624992680969185 GACACAAACCTCCGCACAGATATGACCGCACTCTTGCCATCCTGCTCTTGCGCATCACAAAAATGCCGGCTACAGTACAGCCGTCCCGCTCGCACACAGCATGAGCCGCCGCAAAATTGCAAGAGATCCGCTAGCTAATTTTTCTG
0.7080937108299384 ATTGATGAGAGCAGTAATGAATGAGATTCAAGGTTAACGATTTCGCGCCTTGAAGAAGCTGCTCACTGCTTATTTTCAATTGTGAGCTGCTTGCAGCAAGCAGTGCGAACTGCTTACACAAAAGCGC
1 GCAGCAAAGGAATATGAAAACAACAACAGCAACAGCAACAGCGGGAGCACAAAGCTTGTCA
1 GGCATCTGCAAATAGGCGATTGATATATTGATTTTCGTTAGTTTAGCGGTT
0.5991602480468433 CAATGGACCTGCGCTAGAGGTGGCACAGCGGTCGATACTATCGATGACGCTCACAGCATAATTGCCTAAAAATGGACAAATACCTTGAACAGCCATGTTTCGAACCAAAGTTTTGATGTTGCCGGCATCTTTAGCCATGACATTAACCCAATGGCTCTGGCAAATTGGCTAAAATTCACGACAGCTAAAATTTGTTGTATGTATT
0.6066168799964918 TCCGAATGGCTGGGAGGGTCTCTGGATTGGCTACAGTTTCCTCATGGTGAGTATCGGAACACTTATAACGTTAGATTATAGAAGAATGATGAGAGTTTTCAAAATCCACAAGGGATGCGTTTCCGAAGTTTCCCTAGCTTTCCAGCAGATGGCGCACGTTCCAACGACACTCTTGCGCCATCTGTTGGATACTGCGTAGCGAAAGATTTGATACAATAGTTTTAATTTTCAACCTTTATTCCTAACTACTTGTGGGATTTTAAATAGTTCTTTTATAATGATGCTAATATTAACCCAACCATTTCCTATAATAGCACACTGCCGTGGGCAACGGTGGCGGTGGACAGGCGCTGCAATCGCCTGGCTCCTGTTTGGAGGACTTCCGTGCAACGCCCTTCATCGAGTGCAACGGCGCCAAGGGCACGTGCCACTTCTATGAGACGATGACAAGCTTCTGGATGTACAACCTGGAG
0.7469657485465278 ATCTCGATAAATTTGGGTTCAGTTCTTAGCTAGTTGCGCATCCAAGTTTCACACCTTGTCGCGTCCACATTTTGAGGTATCATGCTTGTATCG
1 ACTGGCCAAAGGACACGCCCAGCTGATGGCTGCCGCCCAGGCTGGCGATCAGTGCGGATCCCTGATCCCGGAGCTCCAGCAGTGAGCAGAGCTTCAGCAGGGACTTCTCGTCCAGAAGTCCACACTGCGTCTCGCAGCTGCGGAACATTTGGTAGAGCTTCTGCTCGTACGGATCGGCGGATACCTCCATTATCCGTAACCCGGGGAATTCAGTTTGCTGCCGTTCCAATCGATCGGCTGCTCAATTGCGTTTTCACTTCGCTTTTTTTTTCTTGGGGGGAAAATCCACAAACGCAGTCAGGGGTCGAAAACAAGAAAAGTGAAATATCGGGGTCTATGTGCGTGGGTGGCGGGGGAATCACGCGTGTTTTTTGGACAGCAGGCTGTTTGAGGGGTTACTAATACTACTAATCTATGATATGCACTTCGGAACGCAACATAAACACTCGCGGGTTTGCGGTTTTTTTGGGAATAGCGTAATTTCTAGCGAGTTGATAAAAAACAATAATGCAGTAATAGCGAGCACGGTGGCGCGCTCTGGAGGGCATTAAGCAAACTTGCATCGGAGGTGGCACTATCGTGGACCATTGTTCCTATCGTTATACAACTATCGTTTAGGATTTGAATATTTATATTACAAAATAAATAGATAACAAGGGAGAACGTAATGCCATATAATAAATCGCTAACTTTACTTGGAA
1 ACAACACGTTTCTATCGCACTATCGATAACCTTGTGCATAGCCATCGTCAACAGTGACAGCCAATGGTTCTATCGATTGTTTGGCAGCACTAATAAATTCCATTTGCAAGCTGAAAAGCAAGAAAAAATACAAAATATCTTTGAGCATTGCAAACTGTTGAAAAATCCAACTGAAAATCATGTGTATGTGCCACCAGTGACAGCCGAAGACGCCGAGGGATTAACTGAGTTAGTGGACCCTAACCAGTCCAATCGGCAAGGGGCACTACATTCCGCAATCCGAG
1 AAGACTGAATTTTGCTAAATTTGGCTATATATTTGTGCATTTTTGTTGCACAAACTTAAAACTTATTGACCCAAAACAATCTA
1 GTTTGCGTTTTCGCTCAAGGGGTTTCAGATTTAGTTAATGTCGAAGCTTTTTCAG
1 AAATTGTTAACTGTACTTGATTGTAAATAAATAAGTCTTATTTTAAAATATTGTACTATTGCTTCAGCTTGTAATCATTGCATACTTTTTGGCGGCACTGGCATATACCGCCATCTATCGGAGGAAACAAAATTTTAAAATTATGTTTAGCATTATTTTTTCTAATTAAACTATTTTTGGGTTCATGCTTATAATACAATTATAATTTTATAATTATAAGTCTGTATTTTTGAATAAATGGATTGTTTTTGTGTTTGTTATTTATATCGTACGTTACTCGCGTGCTGCCAGATTATCAAAAATAGCTCTCGCTTATTTCCCATTCACTTGAGCGACATCTGTGAATGAAATATAGAACATGCGGATAAGGTATTTTTTGGTTTTCATTAAATTCCGCTAGGTGGCGAATGCAAATGTAAAATTAATGTAAATTGATAAATCATT
1 AAAGCTAAGAACGGGCAATAAAATTCGCTTAATTTGCCTGCTGAATTGACAGATTACCAAGAGGCACTCAGGCGTCATTAGCCGGGCCAGCAGAAAAGCGACAGAAACCGCATCGGAAATTGACCAAGGTGTTGAACTTCGGAATTGCATTTTAATTTGGCTTCAAGCTGCAGTTTGCTGTTGTTTTCGCCTCGATTGCAGGTGTCACAGTCGGTTTAAATGTGTTGAAAACCTCAAGTGGTCAATGTTTGCTGCTTGCTGCACTCGCACTCGTATTATTACAC
0.05714802991111363 CCAAAAACAAAATGACGAATTTATGAACTCCTCAGCGCGCTCTCTTTCGCGCTCCCTTGCTTCTAGCGGCACGAGTGAGATGGCAGCAACAAAAGGCTCTCACTCAAATACGGCTATATAGAGTTGTCTCGCTCTAACACGCGGCTAGCTTATGAATTGG
0.8186024767797191 GGATGCGTGAGCGAGCGGGACGGGGCGAGTCGGTCAGAAAGAGAGCGAACACTTCCAGTGAGGGGAAAATGAGTGCGAATTTTGAGTGCCAAACGAGCGGATGATTGAGG
0.3984585554161427 CTGTCGCACGTTCACTCCCCCGCCGATTTTCCAATTGGAAAACGAGAGAGCGAGTGGCGTTTTCACTCAGAGTGTGCGGCTATAGGGCTATCCCGCTTGCACTCGTACTGGCGCGGCTCGCTGTAGGGTGGTCTCGCTTGCACACATAGGGACCATAAGAGGAATAACTGGTTTCCCGAGTTT
0.1773963344295366 TCATTTAAATCCATTAAAATCGATAACAAACGATAACAGCACAGTTTGAGAGGCGCCGCAGCTGATGCAGTTTGAGCGGCACTCCATCTGGAGCTGGAAAAGAAGGAGGCAGTTTATT
1 TTCTGGTTCTTGGGAGTGGGCTGCTGTTGCTGCTGCACCTGGGCCGCTGATGAGGCGGAGCCCACTTGCATCATTGACACCTGTTGCTGCTCCTGCAGCAGGAAGCCACCGCCGTTCGAGAAGTTGTTGCCGCCGCCGATCATCAATTGACTGCCAATGTACAGGATCACCGCCACATTGATAAGGATGCTGCAGCGCAACAACCAATTGCGGCGGGTGAACATTTTCTGGCCCAGAGGCTCAAAACGCATGTTGTAGCTGCAAAAAAAAATTAACATTAAAATATATGTTCATTTGTAAAACATGATTTGAAAAACAACAGATGCGCGAAACTAAAATCATGTCCATGCTAGCATGTAGATATCCATGTAGAAAACATGTAGTTCTACAGCAGCGCCCTCTCACAGATTTAAAAGAAACACCCTTTACGGTAGATGGCGTTATTCAAAGGTTTGAGAATTCATAAGTTTGAAAGTCATTGCTGGCCTTATGCTAGAAAATTGAGCCGTGATAACAGAATTTAAATTAAACTATTTATATT
1 GCGCATTGTGCGCTAAGAGAGCGACTAAGAGAGGTCCGCATGCGGTGTTTGCGGATATTTTCACATTCCGGCTACGGCCACACTGCTGCAGCAGGGGTTGATGAACAAATAACCGGCGGTTGTTGCACACGCTAAGTTGATCGAAATGCAAAACTTAATAGGC
0.7271947804393509 AGACACTAGAATTAAATGATTACCCAAAGGTCGTTGCAAAAATAAAAGCTGAGTAATTAACAAGGTTGTTTGTTTATTTTCTATCACCTAATAAAATGGGATCATTCTTTTCTAAAGATAAGTTTATCTGATGACCAATTTGAAAATAAATTTACATACATCCTTACATAGATGGCGCTAGGTAAAGTTTCTACATGCGCGCCTTTAAGTAATAATTCAACTATTGCTTACAAGTTTATTTTTTTAATTGAAAACTTTGTGGTAAATTTGAAGGCAATAAATATAATCATGTATTTAACCCTTTGTCATTTTTTTATCCACTTTCTTGCGCGCAGGGGCAATGGGCATTATTTAAAATTAGCGGTATTATGAATGCGATGTCTATCCGATGATTTTG
1 AATAACCGATATCGTAGAGAAGTAAACACATCGGCTCATCGCTAGATCCAAGTGTCTGGCGTTCGCTGTTACTGTCAAATTGACAAGAAGAAGAGGCATAACAAAAGTATTTTTGCATTTTGCAAGTGGAATATTCCTACGCCCTAATTGATTGAACAAATCTAAAGACGACGGATAATGCAGACGACCAACTGGATACATGATTGAATCCAGCCGAACCACAAT
1 AGCGCAAAGCAGAACCATAAACCGATTTTGAATTCGAGAAAACCCACTCGAGAGAGTGAGAGATGGAGAGAGAGTGGCGAAA
0.1482371702624468 AAGTTGCATTTCGTTAAGCCTTCACATCAACTTATCGGTTGAAATTCTGATAACAAGCTATCGATAATCTATCGATTCGACTCGCAGCC
0.411554724243306 CAAGTACGTGGTCTTTAAATTTCGTAAGATCGAGAAAGCAGTGCGATACAAATCGGTGGCAGCCCTGTGTCAGTTCGTTTTTATCGAACTA
1 TATGCAAATTTTTCTATTTTTACGCTCAGCTTAGTCCAGCACAGTTGCAGCTGTTGC
0.009902242680463517 TGTGCACATATGTATATGGAGGTATGTACTTTGTACGGGCAATAGGGGCAGCAGCTCCGGTGCGCAAAACAAATGTTTGGTAGTAAAAATGTCACACATGGCGTTTTGCATGTGGCGCCCTCTGCTGGGAAGAAATTGCCGTGCGATTGGAGTAAGTACACTGGGAGAAAAGGTTATCAT
0.8367352346135796 ATAAATTGATAACGGTAATGTATGAAAATAATAAAAATCACCAAGGCGCCATCTATAAATAAATGTTTTAAAAAACATAAAGCAGAAATAACCGATTCCCAGATCAGCGGGTATTTTTTGAAACAGAAGTGGCGCCACTAGCGTATTAAAAAGGAACTTAGTGAACAATCTATACCAACCAATCGGTATTTAAATACCGCAATTCAGCGATAGTCATAGATAGTATAGAAAACCTGGTATCACTGAGCGGTGTGGTCACACTGTAAGACGCGTCGGACTTTTAGTTTTCAGCTACTTAATTTTTCTAAATTAAACGGTCGCCCTCGAATCGAAAAACTAATTCACCAAATGAAAGCAACTCGAAATACCATCTTACACACTCGGCCACGCAGCTGAGAGCGAAAAGCGCTCACAAAACTGCAGTGCAACAGCCACTTTTCCTCGTCGAGATGTGTGTTTGTGTGTGTGAGTGAAAGAAATTCCAACAATGCGCACCACAATACCAATACACACACAGGCTGCTTGAATCTCTTTATGCAGCAGTGTACGCAAAAAGGGCAGCTGGGAAACTACTTGCGTCTAAAAAAAAAGTGCGTATAATTAGCAAGTGCAGGGGCATAAACACAGTCCCAACCAACTCCCCACCCCCCGCCACTGGAGGACCCTTGCTGGCTGCAAAAACCATTCAACTGCACCA
1 GATTTGAATCAGCTGATTAGACACGCAAACCAGAGCACTGCGCGTATTGGTTAAGTAAAGTTAAAGATAGTAATTGGGCAGTTAACGACAATAAATAAAGGAATTCACGAGAAATAAAACGAAGAGACCGAAGTGCTGATATCGATACGCAGGTGCTGACTGAGTATCTCGGTGGCTGGCATCGAATGGATCGATAGGCGGCATTGACTATCGGTATGTCTTTGCGCAGTGGGCTGCAAGAAAATAGGTTTAGTTCTGTTAAAGAAAACAAGTGCAACCAAGAAATATGTAACTGAAACAAAACAGTTTATATTTTAAAATATATAACAATGCAGTCAGCAGTGATTAAATAAAATTCCTAAAGATATTAAAACCACTGATACACACGAATACTTCGTTGTACACAGCAAGAGAATAACGGTTTCTAGCGAACAGTAAAATATCAAACTTAACAGAGCTACTGGACACATAGGTGGCGTGCTGGCATAGCTCTGTTATCCGTTCCAACTCCAGTGCTGGAAAGTGCGCGCAACTGAGAAATCCACACCGCGATTCGACGACGGTCCCTCTGGAATTCAGTAATTTAGTACTGCTGCTGCCGTGGTAGTCGTCACTTCCCCTTTGCACTTGCCGCCCTCCGTCAACGTTTTATCGAATAAAGCGAATTAAAATTAAGATCGTGGCTTCGCCCCGCTGCGTAACTGAATAAAGCGAATTTAAATCAAGGGCTTTGACGTCTGCCAAGCTGCTGAGAGGGGCTGCAACAGGAAGAGC
1 TATTATACAATAAATCTTTACATGTATTCATACATGTATGTATCTACGTCTTATGTAGAATTCTCCTAGTCGTGCTATACATTGCGTTTCAGCTGCCGGAAGATAGATGGATCCTTGATGTCACTGTATCTCAGAAATGATTTATTAACGTGCACAAATATTTTTTATGGCTACACGTTGCAAAGCAACTTTTTTCTATCCTGAGCAATGGCATTTCGGTCGAACCATCATTTGCATCACCTTGTAGGAATAACTCTCAGTGCGCCAAGAATGCCAGACGATGCCCTTCCACTGAAA
0.7830226291767758 CTTATGCAACACCACCAATAGTTTTCTTTTTCCGCCCACCAGATGGCGGGGCAGGAGTCGAGAACAACAAGCAATTTATGCAAATATAAGCACCCAACGCAT
1 AAGCCTTTCTCCGAGTTTGATTAACAGACGCCAATGGTGTGACCGCTTTTCGCTAGGTGGCATTCGCCCTGGAAAAATATCCGATGAATACCGAAGCTGGTTTACTGTATCTAGGGATTACAATGCACTTGAAATATGCCGTTCACACAGGGCCGCTTGAGAGAGCTGATGCGAAGCGTACACACCGAGTGTATTATATGCAAAAACTTGACAAATTTAAATCAAACAAGCCCCATAAAAACGAAAATGAATTGAGGATGAAAGCTAAAGAACAGTGGAATAATTTTGAATACCTATGCATGCGACATCTCTCGGTAAGTCAATGAAATTTGAATCTTTTTTAAAGCGACACCTGTCGTAATTTGTATGCATTATCAGTTGCGTTACTGCAGTTGTATGGGACTTAAATTGTATCTTTGTTAAATTTATTAGATATAAACAATAAATAATATCGCGAAAATACCGTTAAGCGATAGGTGACCGTCATAGGAGTGGCAACACTGGCTGCACTGCCTCTGCGGAGCGGATAAAACAAATCAAAAATCAATAGCCGGGGGATCGAGT
1 TGTGCTACATGGCCAGCCAGGTTTCACACCAAATGTAGTGACTAGTACACTGTGACTTCATGGAATATTTAGGATATAGTTGTTATACGCGACTTCACTGCTCGCCGCGGCATC
0.2956887310686087 CAATTGACCTTCAATTTGCGATGCATCATTTTGTAGTTGTCCGATATTTGAAATCGTTCATTTTTTGATGTATCAAAGCAGATTACCGGCTTGCTTGACATTTTTCATGCAGATTCAATAAACTTTTTAATAAAATTTTTTGTTTTTACATTTGGTTGCCCGGCAACGCAGTGGCGCCCTCTTGTGGTTTCGATACCAGTGTTCCGCCGGTGTTTTCCAACACTTAAGTTCGGTTGATTGTTGCACACTGTAGGGTGACCGTTGTACATTAATTTTTTAAATGTGGTATATCGGTTGCTAACAAAAATATATGTTTATTATTATTTTAAGAA
0.8295330922074566 TACCGCGGTCACACTGATCCATAGCTGTGTGAAAAATTACGAAAGAATTTTTGGTGTTCACCACTTAAGACCGACCGAAATTTTCGCAAAACGAACAATGGCATCGATCTGTGGACGCATGGCG
0.3439564121824739 AGTTTAGCTCAAGGCCATAACGGCATAGCATTTGCTATATCTGTCACGTGGTTCCCCATTTCCCCAGTTTCTTGGTGTGTGCGGGTTTTCCCCCATGTCAACACATACTTGAGCTTCCATTACACGGCCATGATTGCTTATTTTTCTGTACTCCGCTTTTCCGATCTGCTCCGGCAGGTGGCGCACCTGTCGGCGGTCGTTAAGTTGCCTGAATTTGTCAAAATAAAATGTAATATGCCAGCGCGCTGACACAATTGAATGCGATGTGCAGTCGCTGACTTTGACTGGTTGT
0.7729925668290908 CAACAAACATGACAAAAACTGTATGTTCCCATGTTCCCCATGCCCACCATCCCTACCATCCTCACATCCCCATTGTCCGCAGCGCCCTCTGTGGAACGAAAACAAAAACAAGTGTCAAACACAAACGCAAATACAACAAAAATGAAATGGCATAAACTTGCTGCATAAGTTTGAAGGAGGGCAATGGGCGGCAA
0.7250466004937777 TTATTTTACTCACTCCTCCTTTTTGTTGCAGTGTTAAATGCAGGGCGCTGCCAGACTGCCAGAAAATGTTTTCATCCAAGTTTATCACCAATACAGTAAGGCTCGGAGTGAAACCACGAATTTCGGTTTACCCAGCCCTGATGACTCAAGCAAGCAGCTGACCGCCGCTGCTCGATGGC
1 GAAACTCGAAATCAAATTTCGAAAAAGCAAACAGAAATGGTTTACAACT
1 TAAAAAATTCCCCATGTTTAGAATTCCGCCGTTCCTCCATCGGTAATTATTCCGGGAAAACAGTAAACGGGCAGGTGCAGTTTCCGGTTATCGATAACCGTTACCCTGCCCTAGCCAACAAGAGTATGACCTGACAAAGGCGCCACCTAGCGCTCGTTTCAAAAAGAATGTTAAGTAATTGGCGCTTTAATTCAAATATACATACAAATTATACAAATTACAAACAGTGCGGCCGTGATATTGTGGATATTTATTTGGAAAATAGATATTTAAAGCAACCCAACTATGCCAATGCGTCGGGCGATTTTGAAGTGTTTCCTAAGATATACCGTAGTGAAACGTATGCTCTCGCAAGTTCGCATTATCCAATTTGCATTTCTAGAATAGTGAACTTCTACTCCTTGCGAATTATATAGACCAAACTGAAAGCCAAGCTGCAGAACAATATGGGATAGCTAAGCTTAAGGATTCTGTGGTTGACTAGACGCCTCAAGAAACTCAAGGGCTTGCCAGTTTGT
1 ACGACGGTGGGGCGGCTCTAATGAGTGGTCGTGCAGAATGTGCACTAACTGAAATAAACGGCACATTCAAGGGCGCCGTTTAATTTCGTATTTGCGCTTGCAC
1 TCTGTTTGGCGTGGTTTTTTGCTGGTCCGGTTTTTGTGTGAGTCAAACGAACGGCTCTCTCTC
1 TGATTGTGATTAAAATCGAACGCACAAACGTACTGACAACTAACTCGAAGGCTAAATCTCAGAACGGTTGTTGATGGCCAGAACAGAAAGGCAACCTTGATTTGGTGTACTTTGATGACGCTCACTTACTGTGTTTAGCGGCGAGCGGGTGACGCTTCTTCTCCGGCACCAGTCGAT
1 GTATGTACACACTGCATAGAATGAAAAAACGCTATCTTATTCCAGAACCTCAAATCTTGTACAGCTTGAACTCTTTTAGACATGTTTATAAATGGCTGAAGTTGCTTATGTTAATAGGAGTCTACGATTAACTGTCAGATTCCAATAATCCGATCAAGTGGCATCTTTTAATGCACAAGTTTAAATGGTTTGCCTAACAGTCACGATAATATATATCAAATGGTTGGCAACGCGATACGTAGCATTCTGAGTTGACCCGACA
0.6379792505138009 CTGGTTTGGGTCTTGGCTAACGCCAATGCGCGCTATTTACCGTAAGCTACTTTGTGTACTGCCAAGAGATCTTTGGCCACACCAACAAAACACGTGTGGAGTGCGGTTGCCGC
0.9610438965737885 GTGTCTCGGACATCCAGAGTACTATAAATAGGGGGTTCGAATCCATGCTAAAAGTAAGTTTCTCGGTTTTATAGTTGCCCCTTTTCCCACTCGCGTTCAATTGCTATTTGCTACATCACTTGCTGCTGCTTCACCATCTCGCTCGCACATTCCATAACTGAGTAACGGTTACGT
0.1546366323595779 ATTCATTCCAATTGGATGTGCAATCGAAAGCTTTTAAGCGGAACGAACAGATCGACAAT
0.2480358115880691 TTTCTCGGTATCGATAGATCGACGTTTTGCAAAGCACTTAAAAACTTTTT
0.9116409982360206 ATTTGGCATCGACTACCGATGATTCTTGGCGATAGTTGTCGATTCGATTTTTGCTATCGAAGTTAATCGATTCATCGGCGGATATCT
0.4826180944510232 TGCCCCAAACCAAAATTGGGGGCGCTGAAGAAGTGGCGCGTGCTGGTTTCCGATTTGGGTTGCGAATACGAGACGTGGGGTTATTT
0.4842944059803239 ATTGCAAAAATTACGATTTTTTCGCCACTTATATATTTATTTTATAAGAGTTTTGTAAGTGTTCCCTGTAGTGGCGACACCTTTCGCTTTAAAAGGTTACTAAAAGTGAACAGCGCCCCGCGTTGGCAAGAATTGTGATTAGCCAAGAACTGCACCAATTCTGGGCATATGTAGAAATGCGTGTAGAGAACAGGTAAATTATGCGTAAGTATCAGTAGTTTCACGGATCTTACTCAAAAAATATCTTGTATAATATAAGAACTTAAGACTTTTCTATCTATTTCCAA
1 ACTTGACTTACCACCAATCTGTCTTGGGTCAACTTCTCAAGTGCTCCGCCAGAGGCGTTTTTGTACGCGGATTCCAGCATGCGTAGCTCTTCCGAATTGTAGAGATTATCCGTCTCCCGCTTGCCACTCGCATTTCCCATCTCAGGACACGAAATTCAGTTGGCTGGTGCTACGACGGCTGGTAAACAAACAATGCAGCTGCAGCTGCGGATGATCGCGGATTTTAATTGAAAATAAAAAACAAACAACACAAGCTGGTGATGGAATGGCAGTCGATTTCCCTGCGATACCCTCGATAGTTTCGGAAACGGGTAAATTTCGCGGTGGTCGTCTGCACTATGAATGGTTATTGTCTGTGCTAAGTCAGGTCGATGTATTTGCTAAACGGTTAATTTTAACCGCTAAGCGAATTCAACGAAGGCCAAGC
1 CCCTATTGCACATTTGCGTAAATTTTCATTCTTTAACTCATTACTGTTCGTTCGCAGCGCCTGTGGCTATGCAACAACAATGTTGCTGCGTCAGCGGCGAGTGTGCAAGTGCGAGCAAGAGCGAGAGCTCGACTCTGCGAATCAGAATGGATCGATAAAGTCGTCTCGACGTACTCACCCATACTCCCCCTTTCGCTCGCACCAACACCGCTTCCCCGTCTCGCTGCGCCAGGATTTATAACGCTGCGGTGTATTGGGAAGGGGCAAGAAGCGAGACGAAGTGCGGCACAAAGAAATCAAAGTGCCACCCGAAAACGCCCTCTTCTGGCCAAAAGTCGCATCAGAAGCTGGCCGAGGGGGCTTCCTCTCGAACTGCATAAAATACTGCGCACAGTGGGCCGAGATCAAAAGATTACTTACTAAACGATCATGTAATACTTATCCAATCTTTTTTGCGCTATACTAAGTAGTATATTAAAATTACATGCATTGCGGGTCTTTAAACAGGCCCTTCCGTTTAAAAATTGTAGTTATAAATTGAGTTTAAACTGGTTTTGATACCTAGGTTCCAATGTTCTTGGTCATGCAAAAAGCGAAGCGCTGCGTTTATTTTTGCCTGTGTGTGTTCAACCCTGCGCTAGTCCAGTCAGTCAGCAGGATTCTTCCTCCTGCCCCATGCTTTTTCCATCCTTCCCGTCTGCCTTCTCAGCTGTGTCTGCCATTGAGTGAG
1 TCGTTGGGTTGAATGTACGCCAGAACGTTGCTTAAATGTGGATCCCCTGCCCGCGGATCCCTTTGAATACTTTGCGG
1 CACCTTGGCTAATTGATAGATTGGCACGATCTGATATTAGCTGATAAAAACATGTTTACTATTTCAAAGTCAACAAGTG
1 TAGTGAAATTCAAGCAGCTCATGTCAGCCAGCAACACAGTCAGTGACGTAGCAACCAG
0.7890762684357013 ATTTGTTGGGGCAATAATAACATGAAGCAGAACAATTCACTAAAAAATACTTGCAAGTGTGGCAAAATACCGCCATCAGAGCAACTACCCTCGGTTGCGGAAAATGATATGATTTAGCAGTGACTCGAACCAGTTTCTTTCAGTAACAGAGGCTCTGTTAAGTGACTGTATAAAAGTGT
1 AGTTTGACAGCCACTGGCCTTAGCCCAAATTCAATTTTACCAACTTGAGCAAACATAATTTTCAAACACGGTCTGAGAGTCAACCCAGTTTTGC
1 CACACCTGACAGCTGCCAAAAACTTCAAAGACCGCAGCTGAATCGTAAAAATTGACATCAAACCAACCAAACGAACTAACCAACTAACCCACCAAGCAACCGAACACTTAATCCCCGGCAGCACACACCCGCACCCATAAGAATTAACCCATGACTGCCGAACAATTTGCCTATTAAACCAGGAGACGGAA
0.9036920404633318 GGTGTTTTGGTTTGAGTCGTAGCTAAGCAGTGCAACGAACCCAACCTGCAATAAGCTTTGAAGCTCAACAAAGTTATATTTGTTGTTATTTTTTGATTTCGTTGCTACAAATTTTGAGAATTCAAACATTGCAAGCGTAGATTGCCGACTTGAGAAATCAGTTGCCAGCGAGCTTTCAAGCGGACAACAGGTGAT
1 TGATGGAGGGGGCTTTTTCAGGGGGCAGAGTGGGCGTGAGGTGATGATGG
1 AATGGATGGGGCTTGCACGGATTTACCTCTACTTTTTTTCCATTTTTTTTCACCAAGTGGACAACGGTAACGGGTCAATTAAAGTGGACCCGGCTGATTGTTATTAAGGTGGCTGCGGGAAAAGGGCTGTAATCCAATCCGTTTTAAGGTGTTTCGCTACTAATTATCTTAATACTTAAGGGAAATTCCGTGAAAATCGTTTTTCCGCATCGAGCAAATCAAATTGTATGCAATCCAAGCGCCAAAGAAAATAAAACGCAAGCAAATAAACGAAACAAAGCTCAAGTTCGGTGAATGGAGATAAAAAGTTTGAGAAGCACTTGCGTACAGTTTGGAGGCTAGCTGCGGCGCCATCTGGCGGGCGAACATAACGTGGCAACGCCAACGGCGTTGTAGTTTGAATCTTGAGTTCATTAACATGCAATGAAAATAAGAAATCGTTAAACTATATTTAACATAAAAGTTCCTGCTTATCTGTACTACTGTTTAATATATTTTCATG
0.887948936140579 ACACATAATCGCGGCCTACCGAACTATCGACCAGCCTAAAGATACCAAAATGGTAAATCCTCTGGTAGCATA
1 CAAAAGTGAATTTCGATTCATCATAGACTCGTGAAAAATCCATTATGAATGGATCTAAAATGCATTCAGACGTTAACTTAAGGAATATGGCCTAAATGATCTTTCTTCATTTTACTTTGAAATTCTTCACAACTGTGGTGCGACACCTAGTGTTCATTCACAGAACATGGTAATTTGACATGTGCCCACTTTTCTGTACATCATGTAAAATTACATTCGTTGTTGCATTCTAGAGTTAGTTGAATTTGGTATTCCTACTTTGTTGAAGAATTGAAGAGAAAATTACAGTTTCTTT
0.1208493063315756 AAGTTGCTGACATCAATTAGCATATATAGCATAAGCTCAAAAACAAAGTCTAGACAAACAGCAGCGACGGAAGCAGCAGCAGCAGCAACAACAACAACAACAACAACAAACATTATGTACAGCTAATACGGCAGCAACACCAATAGCGCCACCTACCGGGCGTGACCTGCTGACCGACGTCTTTGCTGCTGTCGTTGTCACTATTGTTGTTGTTACTATTGTTGTTGCTGTTATTGTTGTTGTGGCTGCCTTCAATGCTTGCTGATTGATTGTCGCACTTCGTTAGGACCTCCCCAGATTTGCGTACAGTGGTTGCAC
0.3291688791595442 GCGACACGTCCGAACGGTTCCAGAGCCGTTAAATTTTCGAACTAAAACTGAGTGTCGGGGGTGTAGTGTGGCCAGTTCTTCTAGCGCTCGTTTCGGTAAAGTTTGTGCTCTCGCTTATTGGCCGCATTTCTTGTGTACCGCCGCATGGTCACTCTA
0.4891730617698334 TTAAATTTAAAAGCCAGCGTTGCCAGATAGCATGTAGCTAGAGTTACAGCTCAATGCCTAGCACAGTCATGCACCCTGGTGTGCGTCTCCGCTGTGCGTATTGTATGGCTATATTTAGTACATTTTCAGTGCCACCACAACATATGGCACAATAAATAAAGCAACTAAACAAGCAACGCGGGCTATAAAAGCGAAACGCAGCCTCGCAGA
0.1844394550365622 TACAACTAGCAGCACATTTGCCGTATGAGATCATCGGCTGCCACAGGGAAAAAATCAACGCAAAAATATCTCTTGAAATTGGGAACTAATTGATGACAGATTTTATTCAGACCCTGCCGAAAATACTTATTACTTGTATTACTCACAAAGATGAAATACTTGGACTAACTCAAGTTTTGATTTCAACCAACAGATGGCGCCAGCTCAGCAGTATTGGGCGTTTTGAAGGTCGATCTGTGCCTGGAGGACAACCATGAGGAGCACCATACGAGTCACTTCTATGCGGCAGCTGCCAAGGAAGCGTTGGTCGTGCGACGAGGAGAACCCTTCCGGCTGAAGATCCACTTCAATCGAGACTACAGTCCCAGCAA
1 ACTGCTGGATAAGATCCTGGCAGTCGAGATTGTTCTCCGGCTCCCACGTGTTCTCAGTTTCGGGATAGCCCTTCCATTTCAGATAGTACTCCACCTGCAGGTGGAAAATGGCGTTTTAGGACCAAATATAATGGGACGTCTGGTTCGGAAAACTCACCTTTCCCTTGCGCACCCGCCTGTCGATGATCTTTTCCACGGCGTA
0.4674247049530081 GGTACTATCGAGGTATCCGATTCGATTGTTATTTTTTGCTATCGATGAGCGTTATCTACAGCA
0.5171127682704383 TGGCAGCTGTATCTATGTTTGATTGGTTTGTTTACACTAATTAACTGTAATTAAATAGTAACGATTTAATACGAAACTAAACGCGCCGCCGCAACTTCTTTGCAGTGTGACCGCACTTCGAGTGGGGAGATACACCGATA
1 TATCGGAAAAAGGTCTCGGAAAGTAACGCGAAATTTACAGATGATGACATATCAGTGCTGTTAAATGGTCA
0.4852093855138762 ACAAGCAGTCGTCAAGGAGTTAACTAAGCAGTGCATCTCAACACCCATTGTTCCTTAAGCAGTTTTGACTGCTTGTGTCTGCGAACCGGTTATAAAGTAATCGATAACACATTCAAAGATCGCGCGCA
0.5922782565008475 TTGAACCCCGGTCTCCCGCGTGACAGGCGGGGATACTAACCACTATACTATCGAGGATGTTGCGCGCCGATTGCCAATAGTTCTATTT
0.7948252517246041 GAGGGAAATATTTTCATTTTTTTCATTAAATGTAGTTTATACATATTGTTTATAAATTAGTTAAAATTTGGTGTGCTAGTTACAAAACTGATACCAAAGCGCCTGCAGAGCCACTTACAATACTTCACCGCCATCTAGCGGAAATTTTTAGTTCTACTTTAGTTTATTATTAGACTCTTCATATACTGATGCTTCATTGGTGTGATGGTCAGAGTGCTGGCTTTCGAATCCGTTCGCGCGAGTTCGAATCCAACTCTGGCATTCATAAATAGAATGCAAAATTTCTTGCGCTGATGCCATATTCCATACGTCACAAAAATGGAGGTAATTTACGACTGATAAGCCG
0.5072797382383576 TTTAATATCGATATGTTCAGAATCGCAAAACGTAGCTACAGTCGATATCGGGAACTATTTTCATTACCGATGTCTCAGGCACGGTCACAACTTTAGCCAATACACACCCCCTTCGCAGGGCCGAGCACCAATAGCAGCTGTTTCACCAAAACCGATTGGAAAATTG
0.6280540170641615 AATTGAACCCCGGTCTCCCGCGTGACAGGCGGGGATACTAACCACTATACTATCGAGGATGTTATACAAAGTGAGTCAAACTCGGGT
1 TTTGTTAAGGGGTAACTGTAAGCCGGACCCATTTAGCTTACCACCCAATATGGTAGCACTGGCTGTAGAAATTCCCAAT
0.8832917881712739 TAACAGTTCAAAGTTAATGATGTTTGATGCTGCCAATGTAAATTCTTCAGATAACGAGCCTTGCCATCTTAATAGATTAGGAATACAAGCGTTGCCACCAAAATTTTAACGAACGTATACTCAGTTGTATTCGATGGTTGTTGTCTTGGGTGCATGTAAAAATTAGCAGAAGAGCACTTTTTTGT
0.9053043614635369 TTTTGATTATTACACATTTCTAGAGCTGCCATCACAATTTCTACACATTAAGAGAGTTGCCATCCCGGTTTCTACAAATGTGTAAGACTACATATCCTTAGAAATCAGGATGACAAGGCCTGATTCCCCTCAAAATCCTTATAAAGGATAATGACATGTGCAAATATACTGACTAAATAAAGGCGATTGGCATAGAAGTATTTTTATTTG
0.7154004928815022 ATAGACGATAACACACCAAATAGCTGAGACATGCACCGATATTATTATCTTGACGGCGCAA
0.9367901633439673 TCAAAGACACCCACCCACCCACACTTGTGTGTAGCCAAGACGCGAACCTGGTATGTCAGCCGTGAACGAATCATTGAACAAAAAGGTGTGAAAGAGAGGCACGGCGCGGGTGTGAAAGAGATGAAAAA
0.4161841742265053 GGTTCTAAAATTTGTTAGAGCTTTGGCAAGTTTGCAAGCCATTGAATAAAAGCTTTTAGTAGTTTCC
1 AATGATAGATGGCTCTAAGAAGTTTTATGGAGTTTAGTGAAATACGAAACATGACAAGTCCGAAACAAACGTGCAGTTCAAAAAAATTTGTTC
0.4586130305288081 CCATTTTAATTGACACACCGAAGGGAGAAAACACACCAACTTCTTCAACCCATAAAGAGGGGCGTGTGAGAAGCGCGGAGAAAGGCGCTAGAATGAATAAATTGCCGCTAGAGGGCGTTACCAATTCGACCCACATTCTCTTCAAACCAATCCAAACCGAAATCGAAAGCACAACTTCAATTTGGGTTGCGAAGTTGCGTGAGTTTCACTTTTATTCCAAGTGGCTTCTTTT
0.2475613573071349 ACCAAAACTGCATTAAACAAGTCAATTTGTTTTTTCTTAAAAGACATTATTTTTAACGAATTTTTTAGTTATTTGAAATTTTGGCACAGTGGCGCCCCTACAAGATGGTACTCGAATTAGGGAACTACATAAATGGTGTGACCATGATGTTTGCAAGTATCTTATATCCAAGACACAAACCTAACGTACT
1 ATGGAGAAACGTGCTACATCTACCATGCAGGTTCTCTATGCAGAACTGGCTGCCGGTGCGTATG
1 AAAGTGCTGGAAATAACTGGGTTGGTGGTCTGCTGTCAGGCGGAATACATAAACCCTGACAGTTTTGGCCTAAGGAGTGAGTCCTTTTGAGCTTTGTCGAGCTTTTCGCGTGTGAATA
0.9913240579047164 TCGGGGGAGATTCAGCTAACACGGGAACGGGAGAGAGACAGAGATACCGCTAGAGTACTGCCCATTTCCAAGGGGCCAAATTCCAATGTAGAAGAATTATGGCCTGCAATTTGCACTTTCCCTTTTCATAGCAGAACTTCTAATTAACCCACCTCTGGTGCACTTATTCTGCAGCAATTGCTGTCGCGAAATTTGGCCAACGGCACTCAAAAACCTCGTTGCCGACATTGCTCTCAGTTCGATCTTATAAGATAGTCACTTTTTGCTTACGATAACTATTTGTTTTAATTTTTAACGAACTTTGATCATGCACCGTTAGTTATGTGTTCGCGATTCGCTATAAAAAACTATGCGGCAATTTCTACTTGTTGCACATCCCCAGTGTGACCGCGTTCGTACCAATAAAATATACTACCATAAGTATTTTCTAAATTTTAGCACTAGCCTAAATACCGCACACAGTACAAACTCATCCACCAGGTGTCGCTAGTGTCGTTTTTTTTTTAACTAGGTGGCGCAGGAGATCATAACTAGTGTTACTATTGTAGCAACTTTTAATTTTAAAGTATAAAAGAAAAGTACAAAAAAGAAAAATGAAGAAATGTATATATA
1 CATGTCACTCGCATTTTTCAGGTCGCTTCCTCGGATCTCCGAGTTCGAGTCCAGGACTCATTGAAGCCACATTAAGCGCGCCTCATTTGATGCGATGCCATTGTCCTTTCAAGTGGCCACTGCTAAATAGGTTC
0.4200679685430115 AGAGCAGTAGTGGCTATAATGGAGTCAGCTATTTCGACACAGGAACTACTACGGCACCAGGAAATACTGCAACCGGAAATGGCCTGGAAGTCGGATACGGCGGCTACTACGATCACTACACCAGCTACGAGCAACAAATGGCGGTAGCAGGTGGATTTGCCACTGCCGGAGGATCCACTGCGCCGACAGTGGCCGCGCCCCCTGGCCATCCACCGCCTCCACCACCACCGCCCACGCTGACGTACCACCATCACCATCACCACCACTTGCACCACCCAGCAGCAGCTACAGGCCTAGCCCCATCGGTCACCCATTGAATAGTACTTAACCAATCCGGACACCGGAGGATTACTCATAGTCGATAGCTAAGCATAGTAACATAGTGTTTAAAATAGTGGTGAAATCTTAATTTCCATCTGTACGTGTAGTGTTAAACGGTTTACCAATTGTTTTTCTCGGCAAATAAATTATGAAAAGTGTTGATTTGTAAAAGTAAATGTATTTAATTTAAGTGCGTAAATATAATTTCTTATTGCGCGACCAATTCAAACATAGCTAATTTTCAGCGGTCATGATGGTGCGGTTCTTGAAATCAGAGATAGATGTCGCGCTGTAAAAAAATTGTTGGTAAGAACCATGTAAAATGTAATGGTAAAAACCATGTAATGTAGACAAGCAGGTGCTCACTTAACCATAACTGTAGTAATTTTAGGACGCATTTAATGATTTGTAGTTTAAAATCGATAGATAGTAAGATATACTTTAATACGAATGATGTTTTATAATTGGCGGAAACATTTAAAGAAAAACAAATTGGCTGCCAAGACCCAAATTTTGTACCGCTTACATGGCTTGCAGTTTTTTTTTAAAAAGCCTCCTACCGGTAAGAAACTGAACTACTGCAGAGTTGCTTTACGATAAACTCACAATGACACACAGACACAGACACACAGACATAACCAGACTAAAGAGAATAGTACTACAAGTTATAATCGCTATCTTCAGCAAGAGGATTTCACATTTAAAGTAATCGCATAGTGGCCAGCAAAACCTATCGCATAGATGTGCCAATCGGTCTATCCATTCGAAATTCACCTTCACCAAACGCGACATACACATATGCAAAAAGAGAGCGTATAGCAATGAGAAGCGTGAGCGTGAGTAAAAAATCTATAAAAGCAACTGCGACGTGCTCATTTTGGTAAAAAATTTAGCTGTGCTGCAAAGAGCTGCCCGAGTGGTAATTAAGTAACTTTTGTACATTTCTACCGGTTCCGTCTCCACATCTCCCATCCAACATGGTG
0.5094292666716136 TTAGTGGGGACAAAAACCGAATGCAACACTGCGCCAGCTGTGTTGGTGGTGGGAGCGAAAATTGCCCGATTTTTCAGTAGTGTTTTTTTTTCAGTAGTGTCAGACTCTCGGTGACAACAACACGTCGGGAAATTGCATCGCTGTGGAAAACAATAAAATAGAGCGTGAGAGTGAGAGACAGTCGCGCGGGTGTCGGTC
0.622970326587602 GCAATGTTCTAAATAAAGGTGTTCTACGCATGCGTACATATCTCGTTCTTCTCCCACACTCAATCCGTCTCACTCGCTCTCGCTAGCAGCATGCAGCGGTATGGGTTCGAGTCCCGGCTGAAGTCTAAGATCATCAACAACAAGATCAAGTTCAAATTCAAGCAGTGTGTGCAAGGTTTCTTTCTGGGATTCGGATTCACTCGCATGCAGAGTACTCTTCGGGT
1 TAGCCGCCAACACAATGAAATGAACAACAGACATCCTTTAATATCATTAATTGCG
0.1573564739220927 CTAATAGCATTTCTCAAGTTTTTATCGTTAATTAGCTCAAGAAATTTCAATATTCTAGCTAATAAACCATTTTAATAGGTATGTGATACGGTTCGAGTCCGAGCTAGTTATCTGTGTTTTGTACCCACTGCCTTAACTGTCCTAATACTATAGATGGCGCTTTAGTTAGCACTGACTGTTAACTCAGTTCTGTTAAGCGACTGAAAAACGCACGAGCCCAATAATCAATACGGTCTTTCCAACGTGCTTGAGCTTGGTCACTCTGCCATCATCGTGCGAATTAAAGTTCAGCAGCCAAAAATGCCGGAAGGGAATAAAATCGACTTGTCCGGGGACGGTGGCGTCCTAAAGGAGATCCTGAAAGAGGGCACGGGCACAGAGACGCCGCACAGCGGATGCACTGTGTCCC
0.2170085034161102 CGATGCTCTCGGGAAATATAAAAGTTATGTTAAGTTATACAGAATACAGTGGAGACTTACGGGAGCGATTATGTTACTACCGCTAGGTGGAGCTCGTGTGAGCTCGAACGCTAGGTATCTGATAGTCGAGATACTCACCTATAGCGTTCTCTCGTGATTGGATCGGAATTACAGCTGCAAACCCATTGGCATTCCAATTGCAATTGGAAATTCGGCAAT
1 GGTGGAGAAATAGTTGGCTTTAGGGACAACTTGACAGCAAATTTGGCGCTCCATTGGCGTGCGCATGTCGCCAAGAAAAAAAAAAAAAAAACACGGCCAAGTGCGTTGTGCTCCGACAGAGGGCGCTGCAAGGTGGCAAACGGACAATTGAAAAGTTAATTGAACGGCACTTAAAACGCAATTAATTACCAAATCGCTGACACGCTGAGTAGGCCTACAAGGAAGCGCTGAACTTGACAACGAAAATGGAGAGCGGAAAGCCAAAAAAC
0.1890680734082782 ACTTAGAATTAAAGGACGCAGCACTTGGGACCGCATTCAGCGCAAAGCCAATAAAACTGAACTTTAACTGCAGTCGCCAGACGGCAGCTGCTCTCCAAAGTGTCATAATTGTCACCGCCAGGTGGCGGGTTGGTGGTACAAAAGTAAGGGCGGCTTATGCTGCGAGATAAGAACGTCTGTGTGTATAGTTTGCTCGGCATCAAAGACGG
0.8401951384086188 TTGGCATTGGGTTTTGGTTTGGTTTTAGATCCACAATGGGGGAGCTTAGAGTAGGACACAACACATACACGCCCCCTGGCGGCTGAACAATAA
0.1692076553792247 GGCAAACTGACATGCTCCAAATATTCCGAGTGGCATGCAAAACAAACTTGCAAAGCCTACAACCATCGCCACCACCACCACCACCACCACCACGCCCTCTGGCGGCAGCTTGTAATCAGTTTAAAGTGAGTCCTGGCCACTAAAACTCAATTAACCCCATTTGAATGGAGCACGAGGCAATTGAAAAAACACAGAAAACATGAAATGAAAACGAAAACGAAGCGAAGAGCG
0.3909979073375152 GTTTAATCAAACGACTATGTCGCCAGATACGTGCATACTTTTAGGCATATGGGCACGTAGAATCGCGCGCGCAGTGAAAAAAAAAGTATTTTAGCACGAGTGGCAAGTCAAGTCGAGG
0.5091988872162465 CTATCGACGTGCGTGGTGCCCTCTCGATTAAATTGTGTATGCAAAAACTATCGATGGGTCATCGATACAACCATTT
0.8505555786466626 GCAAACGATAGTGTGGCAAAAGTATCGTTTGGGCGGTGATAGTGCAATCGATGAATGTGCAGCTTTAATTTAAGCTTGTGAGTCTTGGCAACTCTAGAAACACATCGATTAACGTAGCTGAAAATTGT
0.849931327789463 TTAATAACAACAATCGGCCGTCGCACAACCGCACTCGACCGCATTCAATGAAAGTTGCAGAGGGACTGTGGTCAGACATTTCGAATACGAAAATGTTCGCCATACGAAGCTGAAAATTGCCTAAATTGGCACTCCACTAATGGCTTGGAACTTGGCTAGTGCGCACTTCAACCAGAGGACTTACCTAATGCACTTTCCACACTGCCTTATGCTTGTGACAGTGGAAAAGTTACAGAGTATGGCGTACAAAGTATCGTTTTCCC
0.8284587603372575 ATTACGCGCCATAAAATAATTTCTTGTGCGTCGGTGGCGCCCTCTGTCGCCGGACATTTGGCAGGCTCCATCTGCTCCAGATATTCCCCCCACATATATGCTGACCTTCCCGCACCTCCCACAACTTGTCCACATTTGTCAGTCTGGTCCGGCTTGGTCTTGTAGTTTTTTATTATCGGCCGGGTCCTGCGACTGAGCGGCTCGTTTATCAAGGGCGCATTAAAGGGATCCTTCGGCAGGAGGTTGAGGCTAACAGTCCTGCCATGTGGCGCCCTCTGTCGGACGAAGTTGCCAAATTGCACTGCCTGCATATCCTGTTGGTTGACAAACGTGTTTGCTTGGCCAACAACGAGAGTAGCAGGAATAGAAACGCCAAAGGATTCCGAGATACGTATATCGAATC
0.2179536079690809 TTCCACTCAACGACGAGTAGTTCAAATATTGTTTCACACACCCCCGGGGCATTTGTTTGCCATGGATCCCCTGCTCCGGCAGATGACTGCACATGCTCTACAAATTTCACATACGTTTTCCAAATTAGATTCTGCGGTTTTCGAATGTCTCTTTGTGTGTCAGTCCGTGCTGCTGCCCGCTAGGGGGCGCCACACCGGATCGCAATCAATCGTCGTCGGGGGGATTCCCCCTCGTTTGTTTATTTGCCCGTTGTTTTGCTTTCCCTTCCGTTGGCCGTATATTTCTATTTCCATGCTGATTTCCAATCTTGTTTACTTTTGTTGCCGTTCCA
0.5305260767243001 TTTAACACGTGCCCGCCAGCATCGCTGTGGTCCACTGTTGGAAAACTCAAGTTTTCGAATTAAATTTTCATATGCAAAGCGTAACGAAGCAGGTGGCGCCCCCAGCGGCTGACATTGACACTAACAGTTGCAGTTTGCCAAGTTGTTTTACGACCCTTATGCGTTCTATAGATACATATATCTCTATATCTATATAGCTATGTGCACAGCAGACCCCCGACTTCCGCCCGATCCTGTTGCTCCTGCGTTTGTCAGTTATA
1 TTGTTAGTCTGGGCTTATCCCGCACAATTAAGCCAAGTCCCTTTGCTGATTCATGTTCTGGCTAAAAAAGATCAGGTGATTTCATTTGCAGTTCGAAAAAACCCAATAAGCCATTGACACCAGTTTACGATTACCATTTCTGCAGAGTTTTACAATCGCAGTTCGGTTGGTAAAAGCAAATCTTACCGATTTTACGTCGCGGTCAGCATGTCCACTTACCTTGCGAGTCATTCGAACTCATTTCGGTCGAAACTGCAGCATTTTACTTTTTAGCCAC
1 CATGATTGGACAAAACTCCCATACGGACACGAGGATTCTCGATGCTCGGCTCAAACTCCACGTGATAATGAACGATCCGCCATTCCGGCTTGGTTTTTAATCGGAAAAAGTTCGTCTGCAGCATGACCGGGACGCCATCGGTTCCCTTCTTGGATACCAGCTCAGCCGGACGGGTATTCAGGTAATCATATTGGTCACCCCACGGCTTTCGCTCTGTCGGGCCACCTTCACGCCTGGGAGCTTCCTCGAGAGCTCTTCTCTCTCTTGAAGCCTCTATACGAGGATCCGCTCTCGGGTCACCTGATGAAGATCCTCTGAATACTTTCACCCGCTGCATGAAAGCATTAAATGATGTAAGTTACTCATTTAAAAAAAATTATAATATTAGATATAGAGGACGCTGTCTCCTAATAGAAGTGAATGACTGCACACTAGCTCCACCTAGCGGCAGTTATGAATAATTGACGCCGATGGAAAAAATAACATAGAAGAAAGAGAGAGATCGTGCGAGATTCAGCAATAAACACGAGACAGCAATAAACACCAGAAAGACTCAACTTTGTACATTGAAAACAATCGCGATGAA
1 GAAACAAGCAGACGATTATCACCTAATGTGGCAAAAAATTACTGTCACCATGCAGTCTGTCTCCCTTTTTGCAGAGCTTAATAGCAGAGCAATTAAA
0.5728522511757561 ATCTGCTAATAAATACTTCGCTTTTAAAAATGGTTATCCTAAAAATTAAATAAAGAAGTCATTTTATCTTATCGTATGTAGTAGAGCGACCCCTAGCGGGTACACTCAGAACAGATCAGGTCTCCTTAGCGAGTACACAAACCACAATCTAGATTTCGCCTTGGAGACTAGTTTATCGTATTTCAAGAGTTTTGCCTTCAAACACATAATTTCATGTTACGATAAAAAAATGTTTATA
1 ATGTGTATTTTTTCGTTTTTTGCTCTCTCTGCCGCCAGAGAGAGCGACTGGTTAGAGGAGCACAGCTATACGGGTTACAAGCTAACAGTCGACGATAACATTCGAACTGCAGTCTTATACGCCACTTCCCCAGCTGTTAGCGATTAACAGGGGCAGAGCGTGAACGGGTGAGAGCTGTGGAGAGCGGCAGAGAAGCTTTCGCTGCTGCGAATTTTGGCGGCCACGACGACTCCTGTTTTTTTTTCGATTCCGATTCGATTCCATAGAGCGCCGTCGACGCTCCGGCTCGCAGGACGTCGCTGCCTCTGTCGCCGCCATTTGCCGCCATTTGCTCTCTTCGACCGCGCGGGGGCGCCACTCGCCATAGAAGCAGCAGCAGCAGCACCACCGCCAGCAGCAGCAGCAGCAGTCGCCAAAAAGGACATTCGCTTGCTCCACCACACCACTCGGCTTTCGAGTTTGTCGCTTCTCGGTTTCGGACTCGTTTCGCTTCCAGCCCCGAGATTCCGATTCGATTCCCGATTCCGATTTCGATTCATCAGTT
0.3383143916226178 GGGCTTCCCCCGCCAACGAGCCCTTGGCAGCCTGCCATCTCACTTGCTCTAGCGTCAAGAGTCTGCTATTTGTTGCGCCCTCTTTCGCTCACTCACTCACTC
0.2979116981925549 ATATCGATTCATTAGCCCAGCTTTCTTAAAAAACAAATAAATCCCGAATGTAAAATGTACATATAAGATCATTCCTTCTATATCGGAACTGCCGCTCCTCTTTACGAACGGCTGGCAGCGCTGTATATGTGTACTAAGTGGGAGTGTGTACACGCTAAGTTGGCGCGCAATCGTGCTGGAAGTGTCTTCGCTTAGCAATGTTCCAAACCCATTAGAAAACTTGGGAGATTTTAATCAAATAT
0.3479325775361258 AGCAGCAGCAACAGCAGCAACTTCAGCAGCAGCAACAGTTGCAGCTCCAGCAGCAGCATCAGTTCCCCTCACCGCCAGAGGGCTACAAAAGCGATTTGGCGGTGATGCCGGCGCCGTTTCAGCAATGGCCCAGCTGTTTGCCCGGCTACCGATTCGCCCAGTCACCCACCAGCCTGCCAGCGGTTGCAACTCCACCACCAGCCGCAGTGGTGGCAACACCACCACCGCCCACATCAGCAGTAAGCACACAATCCACGGCCACATCCACCATTCCGGAGCTGGATGAAAGCGAGGCGAGTTCGCCGCGCCTCGAGGAAGCCGCCGGGTCTGCAGCGCCACCTGCCGGTGAGGAGGAGAGTTCGGACACCGCAAAACTCAAACAGCTTAATGGCCCCTTGGCCGACAGTCCCGACGAGGGATACGTGGGCGATGGCCAGGAAACCAGCGACATTTGACCCAGCCAGCAGCCAACTGCCAGGGATGAAGCGGCCTTAGACGATTCAGTGGCTCTGTAAATG
1 TCAAAAGTCGCTCCATTCCCACTAAACTATTATTTGACACCACGTGACAGCTAGTTAGCCATATTCATTTTTTCCTTATCGCCCGATTGTCAACGGGCGGTTAAATACCGG
0.07528429232308886 TTATATGTTGAGCTTATTTCCTTGCCTGTGGGCGCCATCTATGGTCAGTAATGCTAACCAACAAGCAACCAGCTTTTTCAAAAACTTTTGTGAAAGCATTTCCAGTGGTGAAAAGCTATGCTTATAGTGAGAGAGTAGTAAAGAGAGCCACAATATTCTACAATTTAGAGCTTTTAAATGCAAACTCTCTTAGTTATCCAAAACACTCCACTCCTTTGCCTTTCGAAATGATAACGATAAGGGCCCTATTCCCT
0.01693203277536043 CTATGTGCATATGTTTTGCTTATCTCCTGCAACAGCTGATTAAAAAGGACCACTTTTAGTCTCTTAACTGCCAAAGCTTTTCACCACGCAAAGCTCAGAAACTCTTTAGTTTAGCTTTCACTACGAGCCGCAGGATGGCGCCTCTCAAAATACCAAGTTCCTTTTGGTTGTAAATCTGAAGGCATTCTTTTGGTTAGTCCCTGCGCCAAGGATATATTGACAAATGTTTGGTGTAACGCAGACGAGTCGTGTGTGATTTA
0.4391205468312847 CTCACCGCAGCCTAGTTAGGCACACAGCAAAACTCACCAGTTTGGTTGGTTTCTAAGCTAAGCGCCTCATAGGCTCGAACCAAAACAGTTTGACAGCCACTGAATTTAAAACCTACTCTTTCCGT
0.9924353746650868 CAGCAAGGCAGCTAAACTTTCTGGTCGCCTGGTGGAAACCGAACCGAAAACCGAACGTGTCTGAAAAAGTCCGCCACCACCACGGACCGGTGCACGTCCCCACCTGCCAAGTCGCGTGTGTGTGGTGTTGCCTGTGGACCGACCCCAGCTCTCCATTAATGGGCAGCCGGAGCGAATCGCTTGTCGCCGTTGTCGAAATTCGCAGCTCGTTCGCAATCGGAATTGGAACTTTTGTTCCGAAAGCAAAAGGCCGCTAGGCCGGACGGCACAACACGGCACGTGCTGCTGCACACGATTTGTTTTATGTGGGCGGAGGCCCGCAACCACGCCTACCCTGTGAATTAATTTGCTGCTGCTTCTGCTGCTGCTGGTGCTGCCCATTTAACGCAAATTACTAACTACTCCCCTAAAAAAGCCGACGCCTTATCAGCAGCAGCAATAGCCAGCATGCCCGCCCGCCTGGCTTATCAGCAGCGGCGATTGCTATACGGGACTCGTTCCGTACGACGGGCGGAGCGGCAATTCACCCAGAGCAGCGCCCACAAAGGCCGATTGGACAAAATTGGAAAAACGAGAACCCCGCCAAAAGTGAATTCCCTCTTTTTCACCAGGCGCCCAGAGCGGGCAGACCAACGAAATGCCGTCAAATGCCAGCAAAACGGCATTCGGCAGAGTGCGAGCGAGACGACGCTAGTGTCGCAATGGCAGGGGTTTTCAATGTGACTGGTCGCCGGTGTGTGCGTGTGTGTGTGTGTGCCGGCAATGAAATTGCCAAAGCTGACAAATTGCGGCAGTTTAAGGCAAAAGCTAGTGATAATCGAAACTCTTTAAGCCGAGCTAACAAATTCATCGCTCTCTTTCGCTCCAAAGTGCACGTTTACACATTCTTGTTTAAAGCGAAGGGCAATCAAAACAAATTGACTGGTTCGGCGAGCGGCTAACAGAGGGCGCCACCTTGATGGTGAGGGGTTCCATACATATGAATATGTATGTAAAAACCCAGGGCGAAAAAGTCATGAAAACCCATTGCCTCTATACACGCCCACAAATGCGAGCCCTGCGCGCCCCTCTTGCCATCTCGTTCTCGTTTCCACTGTGCAACATGCCCAGCAATTGGAGAAGAAAAACAAAAACAAAAGCAAGAAAGGCGGGAAAAAATAGGTAAATATTGTTTGTTTGAACACCACAATTTCTAATGCAAACACTCGCGCCCCTGCAAACGCTTGAACATTTTGCTCAATTTTGAGCAGTCATTTTGTTTGCTCACATCACAGGCCAACAGAAAACGGAAAATTGCCCCCAAACGCTA
1 CAGCAAAAATCACAGCTTGCCCCATTTATGCGCCAAAAAACTATCGCCTAACACCGCCGATTAACTAACAGCCGTGCCAAAGAAGCGGCGACTAAAAGCGTTCATTATTGTGGGCGTTCAACGTTTTCCCACATGAATCATAACAGGCAAGCAGCAGCCACAAGCCACAAAAAGAGCGTATACCCCACAACTGAACAAAAAAACGGGGGGGAAAAAGCGAACCCAACTATTTGCCTTGCGTGTGTGTGTGTATGCGAACCCCAAGGCGAAATAAAAGAAGAAGCAGCATTCGATTCGACGGTGGGAAACCAGTTTGTTGGCTCTGCTCCAAGATTCCGCCGGCAATTCTGCCGGCGATGGCCCCCAAATGGCCAGTGGAGCCGTTGACCAGCGAGCGTATGGTCAGCTATTGATGTTTGCCTTGGCTTTTTCCATCG
1 CCAAAAGTGTTTAGCTGGTGGCCGGGCCACCCGAAAAAGCGACGTCAAGGAAAATCG
0.886927352971621 ATGCATGCACTAGCTAACTCTCTTTCCGCCCGCCAGAGCGAGACAGCTCTAGGCTCGGTGGCTGCAATGCAGCATCGTAGTTCCGTCCCTGTCTGACGCCCGTCTTTGAATGCTGGGCGCCGGTGCGCATTTTTGCGTCTGAAAGAAACAGGTCGAAGTCGGGCCAAAACCCGCGGAAATGGTGATTAATGCGAATGTAGCTGCTCGAGGCGAATGCCCAATGCCGCTGTCTGGTCAATTCTGGGCCCCTGGTCCTCGATGTCGGAAAATGTCGTGCAAGTGTTCGCTCGCACTCGCATTTGTCGCTGCAAGCGCCAGAAAGAGACGTTACATTTTGAATTTGACTTGATTTTGCCTCCGGTGGTCGTACCGCCAAAGCGGGTAATTCAAATCGTGCAGTCAGTCGCATGTGAATGTTGAGTT
0.8502024036180194 ACACCCATTTCGCACTTGCATTTCCTGCCCTCCCAGGCGTTTTTTCGAATGTATGGTAACATTTTGTAGTCATTTTATGCGCCACCGTCGGAGCGATGAACTTTTCGGCCTGCCA
0.1277796673313259 AATGGAATTTGCACGCGTCCATGAAGCCCGAAAGTCTGAGGCATCTAGTGAGGGGGGGGGGGGGTTGGTTGGTTGGTTGGTTGTTTGGGCCATAGGCAGACTTCGGGCTGTTGCTTCATTAGCTTTGGGGCCTGAAAAATGTCGGGCAATGTCGTTCGTTACTCCCGCCACAGCCGCTAGGTGGCGCTGCCGCAGGAGCCCACAACTAATTACGAGGGCAGCTCGCCAAGACCCAGGCCATAAAAACAAGTTCATGATAAAATGCCCAACTACGGGCGTGGGGGGGGGAGGGGGGA
0.7338599805715601 CCTATAAAGCACTGGCAGAGACATTAACCTTCTTAGTAACACAATGCAACAACAGGTGGCTAGCGACAGG
0.4294823030607876 AGTGATTTTGGGACTTTCAGAAGCATGCTTTTAGGCGGCCTACGGTTTTTGTCTCGACTGCA
1 ATTGTATGACAGATAGCTGGTGCCGCGAGGCGCTACAAAATATTGGACGTCACCAGTGCAGCAGGACGAGGTTCAGGACCAGGATACGGCAGTGACAGTGGAGCTTCATTTAGCGACCACATGTTGGTAGGGTAGGTAGGTAGTTAGTG
0.3023541340360434 AATATTTGAGCCCTTTGACCAATTTTTTTGTACGTGCTGTGGCGCCATCTAGCGGCCAATAAATAACATGAAAAACCCAAATATCATGGAATGCGGCAATTCCTTAAACAACAACAACATTGGCGGCAATATCAACGGAAACGGAAATGGAAATGGCGGAGTCAGCGAACAACGCCCCCTATCGGGCAAAGTCCATGCTGCATCTCCTCCGCCCGTCGTCGGCAACAACAACAACAACAATAGTAATCTAATAGTCCGTTACAACAAACTAAGCTCGGGCAGCTCCTCCGCGAGCTCATCGCCGCCACATCATCAGCAGCACTC
0.3114609896131798 GCAGCGGAAGCGCGTCGCCTGCAAAAACGTTGCAAATTTTATTTTCGTGTTTATTGTGAAGCTCGCGAGGATTACAAAGCCAAAAGCGGGTGGGCGGACTGGCCGCTAGGGGGCGCCAGCAGAGCAATTTTCCGGAGAAAACATGACGATGGCAAAGGGGCGGCGAGTGTTCCATGTTTCGATGAAACTTTCGTGTTTTTATTTTCCTGCTCTTTTGTTGGATTGT
1 TTGGATTGACAATGAAGTCCACCTGCCCCCTTTTACCTGAACTTGCCTCTTGGGAGCCGTGTTGCTTTATGGTTTTCGACCAGATTGAAATCGCGATCGGCGCAGCTACAGCTGTTAAAATCTCCTGCAGGCTGCTCTTCATGCTCTACAACTTGTAATTCTTGTCGTGGTCCCACGAACCGGATTCTGTTTT
1 AAATCAAATGCGAAAAAAAGTTTTGTGGTATTTGAGTAGCCTAACAAAAGGGCTTA
1 AGAGTGGGAGAGACCCAAAACCGGCACAAGCAAACAAAGAGCCGAAGCGACAAGAAACC
0.2664921322504937 TCCTTGTGTGATCTCTCTGAACCGGCATCATAAACATTTACAATGACACCAACGACTTTATAAAGTCGTAATTGTTATTTAACACTTTGGCAGCCGCCGCCGCTAGATGTCGCTGCAACTGTCGGCAATTGTCTGTCACGAGATCGCTTCATTGTGGACTTTGCTGGCTTGGCTGTTGAATCACTGTGTTGGCCTGGTCGAAGCGGC
0.3774131047425457 GCGAAAGTGGGGAATGTGGGGGGCCGAGAGCGGTTTGATGGGGTTTATGGTATTGGCAAACCTTTCTTGCTCTTGCCGGCATAGTAAGCGATTTCCGGCGCAGGCCGAAAGGTGGCGCTCTACCAATTGAATTGCAAATGTTGGCGGACGACAATGAGAAGGAGGAGTCGTGGGAAAAGGAGTGGGCGGGGCTGGAACGAGGGC
0.7521116249010407 GATTCGAGTAGCAAACTCTAATGGCAGCGCTGGCGAACGACAATCATATATAGCTGTCACTTTC
1 ACCATACCTCTGTTTAAATCAACATTTAAATCTAATGCCAAACACATATTTATAT
0.1050994972588456 AATGACTAAAGCTTTTCGCACTGCTTGCTTGTCTTAAAAAGCTCACAAACGATGGCTTTGAAATTCTTCAGACTGGCCAGCTTTTGGAAAAAGGAAGCTCGAAGA
0.1329149804129138 GATTACGATGCGAATGCGTTTTGCAGCACTGCCTGTGTGACCACACAAGGGGTGTTGGATATACCTCAAGTCTGGTATATTTCAGATACCGAAAGCATATCTCCGCTAGTTGGTGGGGAACTTGGATGGCATGGTGTGGAACTTTGCTTGCGTTGGAATTTGATTTCTAACTGGAACT
1 AAACAGCAAGCTACAAGCAAAGCTTTTTAGAAAGAACCTACTTAATTTCCATGGCTTCCTACCTCAATACTAGAACCTTGAGTTTTCGAAAGCACTCCG
0.571592139341379 GAACTACAATACTATTTTTTAATACATACTTAAATATTTTACGGCTAATGGTTCGAACGGTGTAGAAAACTCAACTTGACATGGTTTCTACATTTGACATTAGGTTTCCAAAATCAAAGCTAGATGTCGCTTTTGTGGTTCTTCGAACTGTAAAAGATGTTAGGAAGATTTTTCGATTTCTTTTCATTTTAATAGTTATTGTCTTGCCAAATTCGTTTATGGCGAAAACATTTTGGCCACAAGTTACTT
1 GACACTTCTGGAGACGATATCTCTATAACTGCACAAGCAGAAAAAAGAGTGGATGATAGCATCAGAGCGCCATCTATTGGCTGGAATGCTGAGCACAAAGATGTTCAGATTCCAAGGGACCAACTAACCCACAGGCAGATCAGCAAGTGCAATTTGTTTGAGGAATACATCAAGCTCCCAAAGAGTGAATATGGACAAACAAG
0.2756938040442407 CTGTTTTGGCAGCCACTTTCAGTAGCTCTCAAACTGCGCCAACTGCACTTTTTGTTAGCATATGTTT
1 ATGTATGTATGGCGTATTTGTGAAATTGCCGGAAGCTAAAAAGAGCGCCGCATAAAAACAATGAACACATCATAATCATAAATTTTGTGGCCTAATTTCAGGGGCCAGTGAATTAGAGACGAAATGCGCTGGATGTCTTCATTTTTCGATGCATTAAATGGCCAGCAGAGAGCGCTCTGGCCTTGGCCCCTCCATTTCTAATTTTCTTTTTCTTTTGGA
1 GCTGGAACAATGGCTGCTAAATAGCAGGCAACAATATGTGGAATGTGTTAGGTAAAATTGGTCGCATTTAGTGTAAATTTGTTGATTTCAATGCCTAAATAGCATCATGCAGAGCTGTTTCGC
0.4830737828656511 GCTCGTCTGTTGTCAGAATAAATGGCGATAGTCAATCGAATTACCATTGCAGCAGATTTAACTTTAGATTTCATTTGCTTTCTACTGCGAGGAAAAGATATTTTATTTTACATACGTTTTACACAAGTGGGAAAAGCTCTGTAAAGTTTTCCGCAGGTTCCGAACTTGGCTAAACAGTAAAGCTTATGCAGCTTGCAAAGCTTGTAAAGCTTGCACAGTC
0.1203084609301744 TGCCAATAAGGTAGTAAAGATGTATTCAATGAATAAAATTAAAACAATGATTATTTGCAAAATTTTTTTGAATCGCCCGCCAATCTTGGCTATTAAGCATAGGGATGCCATTTGTTCAAAACACTGACAACGGTCAGCGTTGCCAGACGACATGTATTATACGCTGGTTCTACCTGTTTTCTACACGCTCCTTATTCAGCCGCTAGGTGTCCCGCTGTCAAACCACTGATTAGTTCCCAATTCAGCCACTAGAAGTTAAAGTCGCCTGAGTATTTTCGTGCTAGCCAACACTGATATCAGTGCTAAGCAGTGGCTTGCGGAATATTGGAATGGAACGAGAATTCAAATTTGAATTTAAATTTCAGTCGTTAGTGTTCTATTGTCTTTAGCTCTGTTGTTGTTTCTACGGCATATCTTAATATCGTGGTGACAAGTAATCAGGTTATAATTAATAACCCAACATGCCC
1 AATGCCTTTGTGATGAAAGGTCTTCCTGATTTTAAATGTAATATACATTTTTCTTACATATCCATGTAGATACATATGTCTACACAACTCTACATAATTTTAGTACTCTTGCTCACACAGAGATGGCGCCAACACTTAACTAATTTTTGTTATAACCTATAGATGGGGAGATGCATTCCATGCTCAAAATCATTCCATGCTCAAAATCATTCCATTATCCTGATTTGTAATCCTGATTATATAATACAAACTCAGTTAGATTTGTTGCAGAACCAATGTTTTAATTGTAATTAAATGTGATCACATACATATGTACATTATCCAAAAAAGTTTCCGAAGGGTAGTGGTGGTCTAGGCGGTGGTCGAGGAAATGCTGGGATCGGTGGTGGAGGCGGAATAGGTAGTATAGCAATTACAGCAGAATCAGCCTCTGGCAAGGATCCAATGAATGGAAATGGTGGAGGTGGAAGGGGGAAGCGTGGCGGTGGAAGCGGGAAGGCTGGAGGTCCAATCACTTCGTGGTGGTGATGGTAGTGATG
1 GTAATGGTATTGTATAGCATACTCCCGGGCACCAAACGAGGTCGGACTGAAGAAGCTTATAGCCCGTGATTCCGTTGCGCAAAAATAAGCATACTTTCTGGCTAAATTCCTTATTAAC
0.2506870096914034 TCCACATTCCCCGCGGTGTAAAGAATTTATGTGAATTTTCGTTTGTGCCCCACGAACACGTAACTCGACGATAATGAACGATGATCGGTCATAACAGAAGGAGGTGGAGATCTTCAATCTAGAACGTGCGATTAATGGGAACAGTTGGCTGGGTGCTGTGGCGCCCCCTGGCGTTGAAATTGTCATTGCATTGAAAATGAAAAGCGCCTGCGCGAACGAGTTTCGGCTTTTCCACAGTTTTCCTGAACGCGCCAGCCGCCGGTTTTGTTTTGCTTTCCTATTTTCGCAGTGAAATCGATATCGTCGATGTGTGCAC
0.7281396459718393 AGAACACAATCCACACCCAGTCAAGTTTCATACCTTTGCACAGAGTGGTGTCTTCACTAATTCACCACTCAAAGCCGGGGCACACACCAGCCAAGACACAAGTCAGTTAAAATTTAAAATTCTT
1 TTGCCGGCCACCAGGGGGCGCTTAACCCAAAACATGTGTCGATGGGTAATGCCGCAAAGTGTCTGGCTTTTGCCGGGATTCCCCATTATAAAGTAATTTGTAAGTTTTATA
0.4269474330777264 ATTACTCGAAATGGCATGTAATGAGTTGAGTTCTCGTTGCCCTTTCGTTTTTTGCCGGTGTCTTCAGTTTTCCTGGAAAGCTTATGCCAGATTTAGACAGCGCCAAAGCTCTCTTCGCACTTGCGTATGAAGTGCCCGCCATAGCAAAGCGGATTTTTAGCGCTTGTTTACCAACTGGCTCGTTGGTCTAGGGGTATGATTTCCGCTTAGGGTGCGGGAGGTCCCGGGTTCAAAT
0.914816591776441 TAGTGGCTGCGATTTGCATGACCAGTCGATTGCGATAGGTGTGCGTGAGGCGATCCCCGAATCGAACGTAGTGGGTCCCGCAAAAGCGGAAGATCGAAACTGGAACACTTCAATGTGCCAGAGCAATTACTGCAGCAGTTCCAACTTCTCAGTTTCCCAGTCATGCAAGCGATTTTTCCGGTGGGCATGGGGTATCAAGTGCACCAGAGGATCGGAGGGAAATGGATTTTCTTTCGGTTGGGTTGCGTTGCGTTGTCTATGACTCCCATCGCTGGTTATACTGGCTTAGTAGCTGGCACAGTGAGCCAATTGATCATTTGACCATGGAATTTACATACAGTCCATGGTGGTTAGCACTTTTTGTGGTTTTGCCAATGATTGCTAAAGGAAAAGAAATTGGTAACCGGCTGTGGGGCGCAATTTAGGCGCCTGCTCAGTCGGTCGCCTGCCAATGTAATTGTTTAAAATAAAATTACTATGCAATAATTTTTTACTACATAAAATGCATTATTTCAAACGAAATGAACGGAAGAACTGTGACACCACCTACCGGAAATCTAGTGAATATAAAAGCTTTAAAAGCTCTGTAATCCGCGCCACCTATAGGCAAATATATCAAGGTGCTAAAGTCGACATCTACTAAAATGTTGCATACTTTTAGGGATACACGATAAGCACAGTGGTGTCGCTCTCTAGCGGACGTATTCTTAAACGTGCCGCGCTACAGCGACACCTAGGGGAGCATGTCAAAACTATTTTAAATTTAGAAGAAGTCAGTTTTTCCCAATACTTTTTAACATTAATTGGGAATTTATAGATCTAAAAAAAATTAGTGGGAGCAATGAATGTCTTCAATGTATAAAATGTTAGGCAGGCAAAAGAATTGATAACACCAAACCTCCTATTCCTCCCACTACATACATGCTGTATCCTGATAGGCGAGCATTGAATTGTGCCCCAGAGATT
0.9580049253609747 GCCGCCAGTAATATAGGTGAAAGCTCAACCTACAGTTTGATGACGATTGGGTTGGTGTCTATGACGACTGATCTTCGCCAAATTGGTTGGTA
1 GCATGTGGAAATCTTCGAGCACATTACGTTATTACGTTATAAGCGCAAAACAAAAGCGACAACCAGCAACAATCGGACAATGGGAAAAACAGACATTACAGTTACAAAACGAAACGGAAAATAT
0.3581587990934362 ACACCCTAACGCGTTTTAGTGTTACCGGGCGGTGGCTTGTCAAGAAATGCCTTCCCATGGCTAATACAATTCCCAACTGGAAGTAGTTTGGGTTTCAGAAGTCAACAGTGTTACCGTATTTTAATGTACATCTGGCTTTTAAGCGAGTACACACACATAGCATTGCGATGTTTTTTAAACTTGCACTGCTTGCAAGCAGGGCTCCACTGTATTTCAATGAAAGAACAGCGTGTTGGGCGTTTTTGAATTATACTAATTACCTTCAATAACAATTCCCTATATATCACTTAGTTTTAATAAATAAATCGTTTGAGTGTGGTCTAGAGATGATGTATTATGATGAAGTGCGGT
1 CAAACATTTCAAATGCCGCCACCTCCTGGAGTTCTAACACCTGGATCTGGTCCATCCCAACCG
1 TTTCGGTTTTTTTTTTTTTTTGGCGGTGCAAAACGTGGGGCAGGCAATGATTCAGTACAAAAGCAGCCAAAGGAAAGAAGTCCGCCGAGACACTTGAATATATATGACCCGGCGGACAGACGTCCGAGCACTAGACGCCACCTAGCGAGCGAGTGGGGAAACCAACCTGTCAGTCCAAGATATAAAACTCGGATTAGAGATGTGAG
0.6592630639812159 GACTAAAATAGAAACCATTTTAGTTTAAATAAATTTCTTTGAAAATCTAATTAATACAAAAATCTACTTCTCTTTTGCGACATCTGGCGCTCAGAAAGTATACTAAACAGCACTGTGGCTTGAACTGCTTGCATGGTGGAGGTATTCGCTAGGAGCTGGCAGTACTAAAAGCAGAGAACACAACCGGAAGCGTTATTCCACAAAATGTGGCCTTTTAAATTATATGTGAAAATACGATAAGTACCTTAAAATACCGAAGGCGCGCAGTTTTCAGTATAACAGCTGGCCGAGTAACTGGCCACACCATTCCAATTAGAAAGAAACCTATTTAAGCAAAACGCATCGATCTCTCCGTAATTTTTTGTCCGCTGAGTAATCGGAAATCGGCAACGGAATAATGGGCAAT
0.5006154058934196 CCGGCGAATTATTGATTTTGTGTGAGAGCGAGGGAGCGCGCATAAGAGAGAGGGAGAGAGA
1 AAATGTTTTGCCTTGTATTTTACATAAATTTTGACACAACTTATGCGACCTCTACAGTTAATTTACAGAAGTTGGATACTCGACGCAAATATAAAACACATATGTAGAGAATCCGCTAAGTCTAGGGCCTTAGTTCTTATTT
0.4843707146860929 AGTGTGACCGCACTCTTAAATATACCAGAAACTGCGATGGTATTTTTAATACCCATTACTCATACAGTGGAGG
0.1774393911784503 AGCAATATCCAAGTACGGACTTGTGGAATCCACTCAGTAGTGAAGTCGCCACCGGAGGAAGCGGAAGTGGGCGAAATCGGTAGAAAGTGGAAGTTGGGTGGTGCCACCTCGACTGCTCGCCACAAGATGGCGCTGTGCACTTACTTTTCTGCAGCTTGACAGCGCTCGAAATGAGACAAGTGGCAACAGCACGCGCAGCGAAAACGAGGAAAAAACTCAGACAATGGGGTAGAAGTGGGTGGTGGTCCATCGTCAAAATGCTAATGC
0.9527444475880192 GTCGCTTTGCTTCTAGCATATCTCAAGCAGCTTTACACTTGCATTAGCTGTATATCTTAC
1 TGAATATCCGTTATCCAGTTGGCTGGCAGCTTTTTAAGGTTGTTCGTGCACTGGCTTCACTCCCCACAGAACACAGAGCTTTTGGATCTGAAGGTCAGTTGGGAC
1 CTACGATCCGAATTTCTGACATTACGGTAAGTGGCGTGTTTTTGGCGGGAATAAAGTCGGTTTCTCTTTGTGCCGTATTTCTCTACCGTTT
0.5748419335022209 TACCCATTGAAACTATATTCCTTATAACTAGATCCCTCTATCGGTTCTTAATAGAAGTGTTTTGAAACGGATTTTAGTTCATTCACTTTTCGGTATCAAAGCTTTTATCCTGGACTCCTTTGGTTAAGCTTTTAGCACAACTTATGTTTACG
0.1044544075336782 GTAAGTAAACTTTGCGCTTTTCTCTGTGTATTTCGAATAGTCACAAAAACAACAATGGGGGCAACTGTACGCAATTGCACATTTGCACTTCAGCGCCACCTAGCGAGCAAGTTCATTGACCTGCCAAATAGTGGGCGAGAAGAGTGCGAAGTGGCGAGTGCAAAAGAGAGGAGAGCGCAAGTAAATCACAGACTTGCACACACATTTCCATTCCTCAGCCTGCTTTATGCCACC
1 ACTAAATGTCGAAAAGGGACCTTCAAAGCTTTAGTCCCCACATTTTACGCCCCCTCCCCATAAACCCATTTCCATCTCCATTCACGTTTTATGCCATAG
0.7772133061765147 CCCGCTGCTTATGTACTTCGATCAACTGGGGAGCGGCTCTTATAAAACTGCAGTGAGAGCGAGACGGAAAAAGAAAGAGTTGAGGACGCTCTG
0.6434742398132152 CCAAAAGTTCTTCAATTCACTATTCTGCACTCTATGACTTTTGCGCTCTTAGTGAGCATGAGATTTGCGTATTCAAATTCGCAGATGTTTTTTGTTTTAATTTGCCACCGCACTGGCACCAACACACGCGCGCTAATAGATTTCTGTAGACGGCGAATTGGCTGCACTGTACGATTTTTCCGATCGGAAGATGCGATATCCGTCCGGTCCGCTACGTGCGTTCAATTCGGCGATAAACAGCAGAGTGACCACGGCTGCCAAGGAAAAAATCGCACATAGGGAAATACATTGATGGCACTATCGATTACATTGATGCCACTGCGATATTTCGTATTTTTGCGCTTCACAACACTGAATTTTCGTTTGCTAAGGCGCCACCTATCTGCTTAATGTTTATATCCACCAATACGCCATCTGAATGGGTAAATTTGCAAAAATTGAAGACCGCGTTGTCCCAAAAAATTTCATAACTTTATTAATTTTAAACTAAAACTGAACTCCAAATATTTAAGTATTACAATATTTAAACATCGAAATAAGCGCAATTTCTACATTTTCTTTGTGAATATTGTGAATTATGTTTTCGCCGCTATTAGCCAACCGGTATTATGAATTTTCTTTCCGCAGCGAAAATTCGCCCAGTATTATGAATTCGCTTTTCGCCGTTAATATTCGCTGTGTTTCTGTGAGTTCGCTTTTCGCCGCTTGAATTCGCTGTTCGTTAAGATTGGTTTCGAATCCTTTTAGCAAAGACTCAACCCAAAACTGTGCAAACAGAGTGGCCAGCCAGCGAAAAAAAATTAAAAAGATTAGGTCGCAAAAAAAACCCTATCGCCTAAAACCATTTTCATAATATTTAC
1 CAGCTGCAACAAAAGCAACCACAGCAGCGATGCGTTTATTTATACTTCTTACTCTCTGATTGTGTGATTGTTTAGTTCCTCGAGCGAAGCCACTTG
0.6713724029865263 CAAATCAAATCAATAACTGCACTTGGATGCATTTCGGTATGTATTGCCTAAAAGGCCATCGAGTGTTAAGTGTGAGTTAATTTATTTTAATTCCAAACTAAATGGAACACAGAAACACGACCCAAGCGGGTGGAAGAAGAAGAAGCAGCAGCTGTGCTGCAGCATAGCGCTGCCAGGTCGGGGGGCTACGCTTAGCGAGGCGTTGCCAGCACGCGAAAAAATTAGGGGTGACACAGCTGCAACATAATTGTACTGTATTGTTG
0.07688401922180173 TCATTTCGCTCTCTCATTGCGAGAATGCGAGTGTGTGTGCGTTTCCCTCTCTCTTTCTCACTCTCTCTCTCTCGCTCCCTCGCTAGCTGACTCGCTCTTTTCCATTTCAATTCCCATTTCAATTCAGATTGCGATTTCATTTCCA
0.7598070565378715 CTCGCCATCTCTGTCGCACGCTCAGGTGGGCTGCAACCAATAAACACGAGCGAGCGAGAAAGCAGCATATTTGCATAGCCAGTCGTACATGTTTGC
1 TCATCCAAGTGTCAAAATATGTCATAGCAACCAACTATCGTCAGTAAGAAATGAGTTCTACAACATGCAACTTTTTCATGGTGTCGCAA
0.8038433609790847 AACGTCAAAACAAGAAGAAGTTTTCATCAACACTGAATTTCCGCTTGGTAATCAGCTGATAAGCGTGCTCACGATAGCCGAGTTCACATCCAACAGATGTTTCCCTTAGCAGGGTTTCAGACCCAAATGATGATTTATCTTATTTTGATTAAGCTCCAACA
0.1272742669607489 AAATCAAAAACAAACTTGCCTTCTATCCTGAAGCGAAATTGCTTTGGTTAAAAATAACATTTGATGCTAGCTAGCACTTGAAATTATGCGTATGCCTGCTGCAAAAATATTTCGCTTGCAGCGCCATCTGTTGTCTGAGTGACCTGATTTTTGATGTGCTGATATTGTATGGCTTTATAAAATATTTTTATGGAGT
0.01918580136277025 TGAAGATATGAAACAGGACGTGCGACACGTGCAGACTGGCAAATGGCGCTAGGTGGCGCCACCCCAACTCACATTCCTCGTCCGCGTGGGAAATCAACTTCCCCTATTCGCCAACCCCCTTCGGGCTTATTCACCCCCGCGACAAACCATCAATCAATGAGTCTTAGAGCATTTTGTTGCC
1 TCGGTCAGTTTGTAGGGCTCATCCGAGTCGCGCAGATACTCCACCGTGTTGTCCAGCACCAGATTGAGCAGCGCATCGTAGCCCTTGAGGATTCCGGATGCCTCGCGGCCGCCCGCGAATTTCACGCGGATCTGTTTCTCCAAGTACTTGGAGAGGTCCAGAATGGACTCCTTGCGGCGCTTCTCCTTACCGTCATTGTTGCCACCCACCTGACAAGTCACGATTTTGATGATTAAGCACCACAATGTAGTTATTCTATTTAATTTACCTTTTTATCTGCCATTATTCTGTTTTTGGTAAATGCCGGCTGGTAAAGAGTGACCAAAGCATATTTTTTTAGAAATACACCAAATAAGGCGCTACTAGCCAGCAGATGGCGCTGGTGAAGTAATCTTATGGGCCGCGCTTTTTGAGGTACATAATCGATAATAATGGAATAAACATATGTAAGAATTAATGTTATTTGAAAAATATGACAACAAAGTTCTCTTATTTCTACTGTCATCATTGTGAAATT
1 AGCCACCTTAGGATCATGGGACGCAAGAAGAAGAAGGCCTCCAAACCCTGGTGCTGGTATCCTTTTCGCAAAACAAAGATATAAA
0.4412436541939888 AATTAAGCATTAAATTATTGAAATTTTTCTACGTTTTTTAGTTGTTAAGTGTGAAAATAAAAAAAAAACCAAAACGAAATACGATATACGATATACGAAAATAAAATACAATAGAGCCATCTATTGGGGAGATCAGTCGATTGCGCCACCTTGTGCGCGACAAGCGGGACCTGCACTAGAGAGTCTTTGTCTTTCTACACAAATATTAAAAAAGGGGTAAGTTAAAATACTGATGGATAATCCAAACATATTATCTCATTGAAAAGTATGTCTATACCCTTAATGCTCACTGGAAATAATTATACATTAATGAA
1 GGTTTCGGATTTTCAGTTTCGGATCTGGTCTTCAACAAGCAACAGTTGTAAAATGAATGAATATCA
0.1928317132295165 GCAGCTCATTGCGCCAAACGATCGGAGCAGACGGCGTGTCTGCCGTGCGTCTTCGAAAACTTATTGGCAAAACTCCATGATCATAAATTAAGTCGGCTTCATTTGTTTACGCATCGGCCGGCAGGTGGCGCTTTAATTACATGACAGCATCGGCATGGGGGATTCCCCAGTGGAATCTCATCGAGCCGCTTGCCAAGATTCCGCATTACGCAATAAAGTTCATTG
0.8446069002601665 TCCGAAGAAAAAGAGAGGAGCTCTCTCTCTCGCTCGTGACTTCGCAACCTCAGACAATGCGAACCAGTTTGTGCGTTCTGGTCGCTTTTTATCCTGATATCCGGTCGTCGTTTTCCAGTTCGGGAATTGGCTCGTGTGTGTGTTTTCGTGTGTGCGGGGGTGTGCGTGTTGGGCGCCAAGTAAAAACCAGGTAATAAGGAGAGCGAA
0.2491841124908059 GCTGGTTGCCCCTTTCCATGGGCCAGTGTGTGATGCTCCGGTCTGGGTTGAAATATTTTCATGAGTTTTGACAGTAATGTGTCGCAATGGCTGTCGCACTGTCTTGTTGCAGCGCCATCTAGCGACGGAATGTCCGGAAAGAGAATG
0.07253630632527291 GGAAAGTTTCGATGTTAAAAACACGCCACTGTTATCTGAAACAATTGGAAATGGTACAAACAAGCATAAGGAGAGAGCAGGAGAGCAAAACGAGCTTTTTCTCTTGCGCTTTGCTACGTCGAAGGACATTCCCCCAAGAAGCTTCCAGTGCTGGCCAAGTGAGGGCGCCACCCGCGTGTTAGGCACTGTGAGCATGAGTTTTTTTTAGTCGCTATTTCAACTTTGAAGTGAACGCACGTCATTTTTGTCGCGCGCGTTGTTACAATCCCCTCTTTGTGAAGGAGCCAAACGAAACCCGAAACTGAAAACTGAGCCAATCGAATAACACGCACACTTT
1 TATTTCTCTAATCCACTGTAGTGCCGAACGGAAATCGTTTAGTGGTAATGTGTAGCGTGGATCGCAGAGTGTGGAATTTTCTGCGGCGAGGGCAACGCGCTTTATGGACACTCCGTCGACCACGCCCTCTACCGGCAGCAAACGCAAAAGCGCAACTTGAAATATTTATTGCACTTAACGAGCGACAGGGTCTGGACTGTGTGGTAAGGGGGGTGCATGCATGGGAAAGCAGATTTCACTTTTTCGGTGGCCAACTAGAGGAAAATGCGGGAA
0.6806214575791243 CTCACACACAGATGACACTCAGGGCAACAGTACCGTTAATCCAAGCGTCCGTGACCTGCGATCCGTTACAATGCTCGCGTCGAAATAGACTAAACGTATCTTTCAGATACATTCGCTTTCCGTTTTTCGTGTCCAGACGAAACCGTTCGTGTCGTGGGACCGAAGTTGCGACGATGCCCGCCGACAGCACACGAAGTAGCGCCCTCTTGTGGATTTTATGTGTAACCTCAGTCTTATACGGCTTAACAGTGTTCTAACAGCACAAATTCGATGCAAAATTTCTGAAGAGGAGAATCAAACAGAAACATGCAATATCTTCGCATGGAACACGTTCAGGTTTGAATCAAACTAGGGA
0.3437484819942356 CACCAAGAAGAAACAGGCGAGCCAAACTTTCAATACCGTATGCGCCACTGAAAAATACCGCAAAACTTGCAGATCGCGAAGCTTTCAACGGAGTTAAGTAGTCG
0.6503838382585213 TGTGATAATCATGATTGGTTATTGAAAAAGTGTTAAGACGAAGATACTTTTGTATTAACTTTATTTAGTTCAGCTAAATTTCTTTCAGTGCCATAGTTTACCTAGTGACGCCATCTATCGGGCATGGGCCGACAACAAATGACGGCATAAACTTTATGCAAATTAGAAAAGATTTTTAATTAACTTGCGTAAATATTAACACAGTTCACAGAGGCCAGACAAGAGCAGAGCA
0.2573887679615945 AGGGAGAGAGAGAGAGAGAGTGAGCGGAGAAAATCGGAAAATCGTTATGCGACTACTATAACCCACCACAAAAT
0.913130962506981 AAATATCCTTTTGCCTTGTGTCTCAAAAGAGACATCGATGGTGGCTGTCTTGGATGCGTGTAGAAATG
0.7110818977426722 AGTTTCGTGACTAAACGGCTGCATAATGGGTGCAAAAACTAGTCTTAAAGTAAAATATTTTTGCAGGCCTACCTGAAGCCAACGAGCTGAGCGATCCAGCTGTGCTGCCGCCGCCCTCGTACGCGTAGTTCCTCAAGTCGTCGAAAGGTGGCGCATTTGGATCACCATCGGCGCGCTTTTTATGCTCCTCGATGAACATGCCCACATTGGGCTCCTGACCTGGCATTAAG
0.3015270793463614 GGAGTTAACATTGCAAGGAGTAGTCGAGAACCGAACCCAAAGTGTTAGCACTGGTTACGTTTTGGTTTGTGTACTGAGTTTACGTTACGATTACGTATTTGATG
1 TTCTCCAAAGAACAAGTACTAAGAAGTTTTCCTCGACGTAAACTTAAATTCTGATTTTCATAATTTATACACAAGCCAGCCCGAGGATATGCTACAATTTGCGCAGCATTTATCCAGGGCTGCTCCCTCTTAGGGTTGCCCTGCTCTCTTTTGTTTTATGACAGCCAGATGGAGTTTACGACCCAGAGCTGCGTAAAGTTTTCATATGGGGCAAGAGTCCAGGTATGACATCGCAACGGAAGTTTATATCGCAATAAAAGTTGTCAATTGCGAATAGTTGGGAATTGCGAATGGAGTCAAAGGCCGCATCTTCAAGATTGGCTCTTGGA
0.5102294329631563 TCTGATATGTACATTGTTCCATTTTGCATGGATACATGCCAACATTTATTTGGTAGAAATTAGCAATTAATATAGCCTCCGCTAGGTGGAGCCACTGTATCATCTCGTAACAGTTGCTATCTCCATCTTCCTCGGGTATCTAGTAGTCGAGATAGCCTA
0.6191449364741917 GCTATTAAATCCTCAGTGTGGTTACTATAGCCAAGGGCTGTCGCTTGATGCGTCACTGTCGTTGTGATGCCATTTTAACCCTGCGTTTTAGTTTGGTTCTAGTTTTAGTGAAGGCCATTTATTCTGGCACGCCCTCTGGCGGCTATACGAAGTGAAGCCACGCCCTCAAAGGGAGAATCACACTGGGCAGTCAGTTAGTCGCACGGCTAATTTTCCCATGATAACTGGCTTTAAAACACATGTCAGGGGTCTTAAAATGAAACAAAACCATATGCTTTTTTTTGAAAGCAAATAAAATGTGCTAAA
0.6550233070174 GCCCGAAAAATAAAAGAGGATTCGACTGGCGGCGGCAGAAAGCAAGTGTAAAGCCAAAGAAAGCAATGCCCCGATATCGTTGGGGCTTTAAACTTGTTTATTTGTGCTTTATGTGTGCCGTAGCGCCCCCTGCTGGCGGTTTACAGCCATGGTACTGCCCTCCAATTATTTACATGCTCGGATCTTATTTTTTTGGCTCGCCCCCCTCAGCCATTGGTGTTTCATTCGCTTGTCAGGA
0.8230427727726849 GGAGCTTTCGTTTACAGTCAGAAACAGTCGATTTGCATATCGCCATCTGCCCAGCAGGGAG
1 AAATCTCACTTGAACGCTTTTCATTAGCCCACTCAGCAAGGACGAACTAGTCATTCCACCAGAAAATATAAAACAAGAATTGAAAGC
1 GGTTACACCTTGCATTAACCTTTACAGTAAAGAAAATAGGTTACAGATCGTATACGTATTATGTAAAAACTCGTACTTGGTTCGTTTCTCAGCTTCAAGTATAAGCTTTA
0.7943449562048066 TCCAGTGTGACTGCCAACGGAATCGCCAACGATACTGCGACCCATTAAAAATTCCACAATGGCCGCGGAAAAAGTAGCACTAGCGGGTGGATAACTCGGCTAAGTGGTCGCACATTATCGCTAGAAATGGTGGTGAAACTGGAAAGTGGTCGAGTTTCAAAATACTGGTATTCGTATACTCTAGCACGGGCTCCAACCCGTGGCATCATTAGCAGTCAGGACGGCAATGCTTGATATCCTTATAAATCAATATGGCCGCGCTTAACATCCTTAGAATTCAGGATGGCAGCCCCGCTAATGCTTAGAATTAACAAAATGAGTGGAATTACTTGAAAAATC
0.01677312695650532 TTTATTGTAATCACTTAGATACACGCCCTTTCACCTGTAACCACCTGCGTTTCCGGGTCACTAGACTGCCCCACAGGTGGCGCTTTAATTTGCACCTTTCAGCGGCGCCGGGATCGCTGTCATCGCCGCTGGCCTCGCCCCAAAGTCATCCGGGAAGGCAGCTTGGAGG
0.1332430438078563 AGTTGCTCCCAATGTTTCAGCTGTTGCCGCGGAAAACTTTGAGCATCAAGTGAAAAACAAGTGGACAGGCAGCTGTTGTTGACACCGCCCTTTTTTAGACGGGCGAAACTTTGCCTAAAATGGGTGGACACTTGCAGGATCCACTCCTGCGAAGGTAAACTGCACGCGTCTGAAAACAAAAGCAAGCATGTTGCCGCTAGGTGGCGACACCGTGCAGACAATTAAACGCAACAACAGCCACATCTGCCATAGATTTTGCATAACAACAAAGCCAAAAAGAGTGCGGAAAATTTGAGTAGTGTGATAGAGTTAGTTGCCATAAATACATCATGGGAGAAGAA
1 AAAAAAATGTCTACGGCTCAAGAAAAAAGTATGAAAAAAGGGTAAGCAGGAAAAGGAAGTGTACACACACACACACATACAAACACACGCATGTAACCCATTGGAGGCAGGTCCTTACTTCCCCCAGCACCCACGACCGCGCACTCACGTCTGTGTAATTTATGCCAAAAAACAGTATGCAAGGACGCACCCTAGCAAAACACAATTGCAATGGGTATATTGGGCTATTTAGGTGCAGCCT
1 TTTTTAAGCTCATATACAATTAGTCCTGAATGACTAGTGCATTTCTAGATAGTAAACTAAATGTTTATAGGATTTTATACATTTGACATGACACTGTGGCGCCATTGCGGAGAAATATCGTAGCTTTGCTTTTCTACATACAAATTTTACTTACAAGGCGTTTTGTTGGTTCAGAAACTTTAAAATTACTTAGTCCATATTAAATGGTTATTTATAAGTTAAGTTTTAAGTAGTTTACCCAACTCCTCCGCCTCCTGACTCCTGGATTTTAAGCAGATGGAGCCCGGAAATGAGATATCACACACGACTTAATCGCAGGAACACGAACAGGAAACAGATGGAATCGTCGATGATGGA
0.8380421701747075 GATGTTTACCTGCGACAATCGATTGTTTTCGGTGGGACCAAAACGTTCAAATCAAATGTATCAGCTTAGCGGTGACACAAACGAGAGGATATTTGAACAGTGCCTAAGCCTGTCAGCTTAACCGATTTAATTTGCTTTTTTTCGG
1 CTTTTCTTAATCGAAAGGTCTAAATGTTTTTGGCTGATTTCGATTAGCAATTGAGGTGCCGCCCTTACACATAGGCATTATTTTCGGGCGAAGCCTCCTTTTTGATGACATTTAGCTGTCCAATTTATGGCTGTCGGACATGCGCCACCTGTCGGCGGTGTTTGCCTGGCATTTTAGCACCCGACTACTAAACGAAATGTTTGGCCAAACAATCAACGTGGCCAAGTCAGCTTTTGTGTCTGGGCATCGCGGGGATGCCCTATCACTGATGGTTTGCACTCGATTTCTAAATGATCCCCAATGATTGCCCAATGCCAGAGACCTTTGCAGCTGGCTCTGAAATAGAGTCTTAGACTGGAACGGGAATTGGAATCGGAACCCCCAGATCGAGACTGGGTCTGGGAATGTCTACGGTCTGGGGTAATGGGGTCTT
1 ACCACTCACGTGTGTTGTGTAATTTCGAACATGCAAAAATATGCATCTTGATTGGCGTTGACGACTCTTCAGTGGGATTGCCATGCACATAGATCCACATTAAAAGCGTTTACTGAACTTTTGATTAATTGCACATTCCCAGGCGCCGGCCACCGTTTGCCTTGCATATGAACTTGGTCCGGAAAACGGGTTGCATGTGCTGCAGTCAATTTTGATTTATTTGACAGACTACCGAGATGCGGTAGGCGGTCCAATGCGTTTGACACTTTTCCCATTTGCATAATTCCGCCGATGGTCCAGGTCGATGGAACTGGTGGTAATAATGGCCAGGGGTTGATTGACTACCAGGCCTGAATTGTTCGAGCTACTCTTGTCCAGCAGGTGAGCGACCGACCAAAAATGTTATATCTGCAACAATGTTGTTGTTTTGATGATCACACATATTTGTATAATATCAAATATGTAACAATCTGTTTGAAATAAAGCATTCTATGGATTATTTACTCTTCAAATCAACTGCTACTCCATTAAAACTTATCCGCCTGGCGGCTAATCTGAGAACTACTCGCAAGCAGCGCTCTAATCGGCTAATTTCGGAAACTTCAAACTATACATGTAGATAGTGCTGACACTTTTTTTTTACATAGCTAGAAAAAACACAAAGGCAGTTGAAGGTTCGCAGAAGAATGTAATGAGGCACTATTATTTACAATAAGTATCAATTTCAAATACGAGTTTTTTCTCAGATACTTTAATGGAACTTCCACCAGTTT
1 TGTTACCCCATCCATGTTCGAGTGGGTAAAAAGAAGCAATACGATGTTTTTGCCCTACAACCCGGCGAGGAAGTCAGTGATCCAAACACTTGCGGCGTGCAGGTTTGCATGAACTCCGAAGGACTTACTCATGTCTACTAGTAAGATCGATCCAATTTGAAATGATATACCCTAATGCATATGATATCCAAGCTATTTTCCAGCTGTCCTCGC
1 TGCTGCGGCTGCTGCCAGGACCTTGCCGCCGTTCATGAAGTCCTCGTTCAGTT
0.4165850697902045 AAGCGATAATAATGACTAAAAAATGCAATACCATTCCCTTAGCAAAGGTCCCAACCACAGAAGCAGTTCAGACACATTCCAATTGGATTCATATTACACATTACCGTGACTCAAACCGTATGGAAGCAGTTCATCAATTGTGTTAAGCAGTACTTTTTAGCATTGCAAGCAGTG
0.02826889533169482 AATTTTTATGCGAATAAAGCGGCAAGCGGCGCTTTGAAAAACCGTATGGGGTACGCTTCTAAGTTATACATGTAGGGTAGCTCCCGGATTAGCGGCTTGTAATGTGCGCCATCTGTTGGCCACTTGAGGGCATTACTCATGCCACATTTGGTCCGATTCAAGTGCTTAGCGTGTTAATTTGCACCAGTTTTTGGTCCCAGTATCGGGATCTTTAACAGGGGATGCGGCCGGTACTATTCGTATCTATCTATCTATGCATATA
0.3110709776446088 GCTCCATCCGAAAGCTCACCGCGGGCGAGCGAGACAACCCGAGCTCCGGCAGAGCGGGACAGTTAGAGGGCGAGAATAATCGCGGCGAGTCGATGAACCGGTCTATCGGCGCTGTGCGCCTG
0.5325057969772962 TGTGACCGACGGGGGGATGCGAGAAAATACCACCAATTAATACAAATAGGGTTAAAATACCAATTAGCGTGTACACAATCCACAATTAGCGTGGACACGCACCGAAACTATCTTTTAGCCAGTACAACCTCCAAAGTTATGACGATTGGTAACGCCGTTTTCGACTTCGAATATTTGTAGTTGCCAACCTTCTTGAAGATTGTATGCGTGCGT
0.03725694275866991 TATCTGACAGCACTTGAAAGTATGCTACACAAATTTGTTTCAACTTGTTACTGCAACAATAACAAC
0.701742078539864 CCGAGTGCACATCTGCATATTATTAATGACCGGTAATTACCTAGGCGGAGTCTGAGGTGGGGAATCGCACTTTATGGGATGGAATGGGATGGGTTGGGTTGGTGTGGTTCGTTTTCCTGAGAAATTGCGAACATCACCGCCAGGGGGCGCCTCATGCAATTTCCCGGCTAATGACTGGCCATCCCAGGCAGAAAGTACCAAGAAAGCCAAAAGGATACTCGAGGAAAGTGGGGAAAAATACAAAATCTGGCCCAAAAA
1 GGCGTCGTTTTAGCACCAAAATTTCATTAAAAGCATTGTTTAACCGGGCAATTCACTTTATTTTGGTCTTATAAATAACAATTCGACTATTTTTTCACGCACATTTCATTTTAAACGTTGTTTCCGCGGGTTTTCTTCAGTTTATGACTGTTTTAGCTGTCTGGCAGCTGCTTGTTAATAATTTTTCAACTTTTCCCGGCCGAGTTCGAAACCAAACTGTCCAACAAATCTGACCCGCTCTCCTCTCTCGACGAACACGTTCGCTTCGAACATCGACGTCATAGCTAGAAAT
0.7496703000430313 TTTAGCTACCGTCAACATTTTTTAGCTATTTTTAACTGTTTAACTGAAGAGTTGGCAACACTGCTCAGAACTTGTTTACACCAGATGTTCGAACATGCGAATGCCCGTAGAAAATGAAAAGAGCTGACTGAACAAAGCACCACCTGCCGGCGGTTGCATGCAAATGGATAAGTTACATGTTGCATGTGGATCGCAAACAAAGTTGCAAATAGGATTACCACCGAAAACATATACATACATATGCATGGCTAGAAAATACCTATAGACAATAAAAAAATAAAT
1 TTCATTCAGCCAGCAGCCCGAAAGTATGCCTTTGTCCGAGTTTGGGTCTCCAGAACACCAAACCCACACACCAGCCAGATACAGATACTCGAGTGTAAAAGTTTTTCTGGTCTTGAAGGGCCGGCCCATA
1 TATATGAATATATAGCTTATTATTCCATTCTACTTTTACATAACCGCCAACAGAGGACGCCAGTGTGCCAATTTTCAAGGGTCGTGGTGGCAGCGAATCAAAGCACAAGACCCGCAAGCCATATGATCCCAAGTCGCAGTGGAATCCCAACTTCTCCGGCGAGCAGCATGGCTACCAGGGCGCCAATCGAGG
1 GGCACTCGAACTGTTTTATCTACAAGCGTGCAAACGACTGAAGCCGTAGAAAGGAAAACCCTCAAGAGGTGCTGGTTTTGAAGCCATTGTTGGCCAGCAAAACAGTTTAGCATTCACTGTTCTCAACTAACTATCATCTTATGCACAAAGAGAAGTTTCAAACCAATGGGAATAGGCTTAGTAAAGTTCTGCGCCCAAAATGAGAAC
1 AGCTTTTGCGACGAAGATTTGAGATTTTCTCTCTTGAGTGTTTTTCTTTGAGT
1 GATCATTCACATGAGTACAAGGGTTTCGAACTTGGGGCTGCAAGAAACCACACCCTCCTTGCTTTCTAGAATTGTAAATGATTTCACACTGGAAGTGCTGAGCGCGATGCT
1 ATTTCTTAAAACAGAAGTGAATAACAGATTAATAACTAAAAAGATACACAGAACACACGTTGCCATTCAACACGTGAGGTACGTTTTAGCCACTCTTCACTGTAAACGAAAATTATTCAAGCGTGAGATTTTCGACTTCCTGTGTCGCCACCTGGCGGCCAACGGCAGAATCCTCAGCTACATGTTAATTAACTCCAATTAGCGACTGACCTTGAAGTCGCAGAATTATCTTTGCGGCTTTTGCCTACGTCACACGGTTTATGCTGTGGAATGCTCCGCTTGAGGAAGTCGCTTTTCCCCGAGGAAAAGTGGACCACCACTTACTTACCCAAATCGTCCATGGCGATGGTGTTGTTGTTTTTCCGCCCTGTGTGCGTTAGTGTGCGTGTAGTTTTCCGCTCTTGTCCAATTGGAATGCTCAGTTTTCTGGATTTATTTGGCACAAGCACACGCGTTTTTTAATTGATGCTGATTGAAAGCGAAGAGCGACAAGTCCACGCAAACACTTTATTTTCCTGTTCACCCGCAACTGAAAAGCGCGGAGTTGGCCGGAGACTAATTTTAAGCTGTTGCCAGCGACCGAATGGCGAGTATCGGTGGATTTCGCCGCGAGTTGGAGACGAGTTTTATATATGAATCACTTTAATTTTGGAGCGGCGGCGGTCATAAACAATACAAAAAAAAAAACATTGAATCACGTACACGAACGCAGGAACACACACAAGCACAAGCGCACGCTCGCTCAACTGGAGAGAGCGAACAGCTGATTAGCTATCGATAGCAGTTGGAACTATCGCACCGACCGAGGAAGAAATCAAGTGGTAAACTTAACTAAAATACTTATCAACTTACCGCTGTCGATAATACCAACCAACGGTTTAAAACTAACTGTTGGAAA
0.6048865424572893 TATTGCTGGTTTTAGAGCTGGCAAGGCGCACAAATCGATGTTTGAATGAAATCGCTATCGATAAGTCCCATAACAGTGTTGTTTGGGTTGGTGCATACGCTCATTGTGAACAGGGCTAAACTAGTAACTGCGGTCGGTGACTCCGCTAAAAGCGTGATCGCCAAAATCACGGTTTTTTAGTTCTATCTCAATCACGTGATGAGTTAAGCAAC
1 TTGATGTCTGATGATGAAGCTAGTGAACATAGATCTTAGAATTTGACTTAAAG
0.2414274676713282 ATTAAGAGCTTGAGATTTTAACACGTATCATACACTAAGTAGTAGTATGTGCAACTGCCGCTAGGTGGCGTTGGTGTGCCATCACGAAAATAGTATCTTTCTATCTTTCATATCTAAATCTCAACTTGCAAGTATCTGGTAGTCAAGGAATTCTACTGTGGCATCTTCTCCTGAA
0.8604700765470564 CTAAAGGCCGTTCCATTTTGGGCGTATACTCAGAGATAAGCACGTCTTGATATCCCCGAGCACATTATCACGATTTTTCCTTATATTGTATCCATTCTGCATCAAATCGGAATATTCATTAAAAAGTTATAGGCAGTTCATGTAACCACCACTAGGTGGCGCTTTTGTGATGTCTTGCTCCACTTCCTTTGGAAGTTCATCAGCTTAGTAA
0.02017532256564308 GCATATTTCACTACTTGATTTTTCTATTGAATTTGTTAATAACGATTTAATTCAAAGTCCTTTCAAAAGTAATATAGCGCCATCTGTCGGTTTTTGGTCTCCACCTAAAGGCGGGGTTTTAAGTAAACTCTTTAAATTTCCCACAAGCGAATAAAAGGAAATAGGTTTGTGTCTTTGCTCGACACTTCCGCCGTACATTTCTATATTTCGATGTTTTTTCAGGAAAGGACGTGTGTAGAATGTAGGATGTCGAAAAGAAAAATTAACTAAGCGATATAAGAATAGAATACTTGAATACTTCAATACCGTGTCGATGTGGCGATATCCGTT
0.04269298231233451 CAAACACGTTGTTCCTGACTTCGTTGCATACTTTTAGACGCCCCGAATTCTACTTATATTATATATTTTACATGTTAACTTATACTACATGTCAAAAATGTTTGCTGAAGTGACTTCCGAGTACAGAGTGAAGCCATTACATACAGAGCCATCTAGCGGCGAGCTGCTGCTTCTGTCTTGTGTAGCAACGAGCCTTATATCGACAGCACTTTGTGTTACGCTTGCACTAATTGTTAGCAGATACTCAAACCATTGGGGTCGCTTTAAAAATTATGAAAAATCTCAAATCTAAATACCCATTCAAATTTTTATTTCTAGCAGAGTTTAAAT
0.5302525411228047 ATACATTCGACATGGTTTCAAAAATGACTAAATGTATCTGGTACTCAAACCTAAGTCTCCAATTGTCGACATCCGTACAAATCAGGGTGGCAGCGCGTGATATGTTTA
0.4497754735074213 TGTTGCAGAGACAAAAGTCAGAGCAGCAGTAACAATAAATACTGAAGTACACCCACCAAGCGGCAACCGGTTTGGCGATCTCGAGAGTTGGCCAAATAAAAATAAAATGTATATCGCAGCCATAAGCATGCTATATATACATATATATATGGCTAAGCCAAATTTCAATTGTGACCGAAATGCGAAACGGGAGCCGCCAGGGGGCGCCACGCACGCAGTGGGCCAGCCAAAAGTTTAACTTAACCCACTGCCCTCGGTTTATTTTCCATTTTTCCGTTTTCCCAAGCTGCTTTCGCAAACGAACCCAGTGCTCGGCCATAATTATGCCATTTTGATACGCTTACCAAGTCTGGGCTGAAAAAT
0.7784352880742997 CAAATGAGGGTATAAAATGCGTGGGCGGCAAAATGTTCTCCATTAGCGAGGACTCAAACCTCGGGTAGCCGGCTAGCAGGAAAAGCTTTTGATTGAAGAAGCAACAGGAGCAACCAGTTGAAGTTGAACTGCCTGCCACATGCCGACA
0.4713070485686321 ACGTTTACATTTCACATTGCTTAACGGTATAGTTGTGAGCAACGGTATTTTTTAGGGGATTTCCCGCCACTATGGACATTTACCGTTCGCTTGCAAGCGGTCACACA
1 ATTCGATGTATTCTGTTGGAGGTCTCTCGTGAAACTGAAAGCCGAACACTA
0.3795538399558701 TTATCCGCTAGAGCAGCTTGGTGGTGGGTGGGTGTGGTGGGTCCGTCTATTGGATGAGAGTGCTTGACCAGATTCTTCCTTTTTACCTTGACTGGCTCGAGTGTGTCGTAGGAGTCCGAAGAGGAGGAGTTCTTTTTTTCCTTTTTCTTCCGTTTGATGCTAGTCGCAATAGGCACTGCTTGCCAGTCCATAATAAAGGAGCAGCCTGAAGCGCCAACTGTTGGAGCTTTACGGAACTGGTTGACACCCTCTGGCGGAGGAATTTTAAACTATAGCGACAGCTATGTCGATACTGGTTCTACGGTGCGAAAATACGAACGCACAATGCTCACACAGCACACAAGCACACAGAATGCCAATTTTTACGGTTTACCGTTTGCATTCTCTTTCTACTGATAAAAACGCACGCAGACAACTAATTTTTTCA
0.4046833293215738 TGATAGTACAGTTGGCAACACTGCAGGAAACTATCGATAGGAGCAGAGTGCATTGGCAGAGAAGAAATCGAAAAGAACGGTTATAAAACGACAGTAGTGGAAAGGTGGA
0.9667774696019494 CCCACAGGCGACAGACAGCCCCAAAATATGCAAAGAATTGTGCACTAAGTGGGAGTTGACAAACTTG
0.2746312288685718 TTCCGCTGCCGCGCCCGCACTAAACCAACAATGTGCCATAGCTAAATACTGAAATGCGTTGCATACTTTTGTGCGG
1 AATTGGGTATATCACAGTCGCAAAACTGGCGTCTTTATTATATCACGCTTTTGCCATCCGTGCTGTAGTTGTAGTTGTAGTTGTAGTTGTACTTGTACTCATTAAGGTCTTTCGGGCAAGTGATTAACACAAGCTGTTGCATGCCCCCCGGCGTAGGTTGCGAGCACCAGCCCGGCCCAGAACAACAGTGGCAGTAAAAAATGAAGTGTTGCCTGCCTTTGGGCTAACCCATTTTGGGTGTTGGTGCAGAAATCCCGGGTC
0.3741415293076287 CATTTATATTGCAAAATTGGTTGTTCTTGGCACTTGACTAAAGCAACATATATTTTTACTAGGCGCAATAATTTTGTCGTTAGCAAGTGAATTTTTCAAAAGTTATTTTGTGGCGCCACACAATCCAGTCTTTTTGTGCGGCCATTTCGTGTACTAGGTTTCATGCTTAGCAAAGACAGGAACCAACGACAGGTGGTGCCTGACTAGGGTAACAGAAGTCTTTATCAAAAAGAAATGAACCGCGCAAAAGGCAATTTAAATTCGTATTTGAGTTAAATATTAAGTGATTTTTTCATAATACATGCATTTTAAAATAAAGT
1 GCTTCCCAAGAGCCAAGTGCACGCCAAGCGATTTGTTTATCCATCTGCTGCGTACGCGCGAATTTGTTCGTTATTAATTGCAATAAATGGTGTCGGCGTGGGCGCTTTTATTTATTTCTGTTTTTTGTTTTTGGTCGGTATGAAATGTTTGTTTCTAATTTTCGCGTAACCGAAATATTTGAATAATTCAGCGCCCTCTGGTGGCGGGTAGCGTTTGATGGCGATGGTTGTGGTTACGCATTTCAATGCTTTTCAGCACTGGTAATTTAAACAACTCAATTTGAAATCTACAAATATTCAAACCTTTCTTTTTCAATATTGCCTTTTGAGCCACAATATTTAGTAAGTTTATTTATTTACAGATATTTTCATGCTTACACTTATGTAATAACCCTTCTTCGTAATACTTTTGCAGCTAATCTACAACATTCTAATTTCAGTTAATGACCTGACAAGGTGCCACATCCTCGATCTCCTCGCCATCGAGGGCTTTGATTTGGCACTGGCACAGGAACTGCACGATCTTACGCTCGGCACTTGCCCGCTCAGACGGACTCAGTCCGTCCA
0.3068837172744077 CAATTACAAACACATTTTTTGAAATAAATTTCCCACTTCTGAACTGATTGTGGCAACAAACGCCAGATGGCGTTAAAGGCACATGAACGGGATTGAGAGTAAAATACCGAGAATGTAAAAAACACGGGCAAATGTAAAGTTCATGTGTCGAAATGATGTAAATATACGCACTAGAAAAATTAAAGTTCATTTTGTAG
0.1816373616320369 GTCTCGACTATCAGATATCCGTTACTTGGCTTAAGAAATGCGATGCTGGTTATGATTTACAAGAAGCACAGTGACTGATGTCACTCGAGCTCCACCTAGCGGCGGGTGCATAGACCACTTGATGCCCTTTAAAGGCATCTGAACTTAACCAAGGTCCAAAACTAAGACTAAGCTACAGTTTCAGTTCC
0.9601298946718207 CACCAGACAGACGGAGATAGCGGTAGTCAAGCACTCAGGCCATCTTGAATTTCGACCGAGCAACGGAAATGAGGGTTAAAAACGCCCAAGTAAAGGCACTGCTCGTGCGCTAGAAAGAG
0.2782160822159843 ACATGCCGCATTTTTGTACCCTGCAATGGTTTGAAACCGAGCTAAAATTTATGTGGGTCAAAATGGATTGAATCCATGTTAGCATTGTCTGGAGCTGCCATCCTGATTTCTACACATGTAAAGAGTTGCCAGTCTGGTTTCTACACTACTGGATTCTATTCTAGTCGATAAGTTGCTTTCTATTCGATTATCTTGTCAATTATCG
0.4505079221967893 ACTTAGTGTGGCCGTGAAATGTATACGCATGAATTCTCGATTAAAATTGCAAGCCGGTTCTTAAGAATACCGCCTGTCCGCTCGTCTGTCGCTTGCACTTTTGCTCTATAGCGCTCACAAGTGGACAAAGCATTATCATCAATAGGTTTTGGCTCCTCACATGCATAATGTAAAATTCTAAAGTATTGACTTTCGATTTATCTACAAACAAAAGGTACGAGCAGTTTATGTAACCGCCGCTAGGTGGCGGTGCAATAAAAAAAAGTTTTTTTTATCTTCATCTTAGCTTAGTAACAGGCATTTATCAGTATCTCGAGTATC
1 GATATTCGTGATTCCACCGTGGGATTCTACGGCTTTGGAGGCATTGGTCAGGCTATTGCCAAGCGTTTGTCTGGATTCGACATTGACAAGGTGCTGTACACCACCCGTCGTCGTGTTCACAAGGAGATCGAGGAGGAGTT
0.5019344292936333 TTGTGTCAACGCTTAGCGAAGTTGCAAACCACTCTGTTTTGGGGTGACCATGCCACCATTCAATTGGTTC
0.5086504476337973 ACAACTCTCGATGAGGTCTAAAATCTACAGAGAATAAACTATGGCGCAGTTCACTTCCAACTGTAAGCAGCGGCGGCGGCACGGCAGCAGCGCATCTCAAACTGTGGCTCGGCGGCACTCAAACTGTAAGCTTATTGCGGACTTAATTTAATACTAATCATTTGCGACTCTCCAATTCTCAG
1 GGGTTCGCAGGCACTTCTTATTTTTGTTCTCCATTTTCCCAAGGTCTTTGTTCGATTCTGTACTTATATTAAACTGAGCAGAGGTAAATTAAACTTAATTCATTGATAATACCGAGCCGAGCCGGCAGGCGACGGAATTAAAAGCGGAATGAAAACAGAACGGAGCTGAGGAGCGAGATTCTGACTTGTGGTGACTTTAAGCAGCTGAGAGTCGCTGAGCTGGGCTGTGGTGAGATTGAACAGCTGGCGAGCAAGAGGGCGCCACTGTTACGGAGAGTGCCAGAATGTATGTAAATTATTCGAGCTTCTACAAACTTTTTTATTTTATTTAAATGAGTATACATGTTATTATAACCTCCAAAAATATTCATACTATATTCATGTAACAGGCACAAGGAAGCGTTTCCGCGCATATTAAGTATATACATTCTTGATCAGGATCAATAGTCGAGTCGATCTGGCCATGTCCGTCTGTCTGTCCGTCCGTTTGAACGTTGAGAAGCCAGGAACTTTAAAAGTTAAAAAGTTGAGATTAGAAACAAAGATTCTAGGGACATACAGGCAGCGCAGTTTGTTGATCCATGTCCCACGCACACTCTAACGCCCACAACGTTTCACGTTTTTGAACCGTTTTTCGGTATTTTTTCATAATGGTATTAGTCTTATAAAT
0.5546711304305746 GCTTCAGTTTCAGTTTCCATGTTTGTTTACATTTCGAACCTATCGATTTCGATGTAGGAGAAACGGCCACACTT
1 GATTTTGGTCACACTACTGCGCCATCCATCTCTTGTTCACACAGCCATTTCATAAAATGAAAGAAGAGGACAACAACATAATGGTAAAAATGTTTTTTC
0.8986687296378372 AGACTGGCGAGAGAAAAAAGAGATTGCGCACGAAGAAAGCAGCGCACAAAGCGAACGCTGAAAATGTCAATAAACTCTGCGAAAGGTGAGGAAAACGCAACAAGAGCGCCGCAGTCGTGTAAAATAAAACCCAAGACTCAAAGAAAGCAGTAGAAAGAGGCAAGTGCAAGAGCAGAACTTGTGCGTGTGAGTGCTGGTGTAGTGTGTGTGGGAGA
1 AAGCGAGCGCTATGCCGTCGTTTATGCTGGCTGTATTTTAGTTTCTACTACGGCTGGCTTTATCTTTGCGCTTTTACATCCGAGTCGATTCCACATAGCCATTTATAACCAGACGGGAAATTTTTACGAGGCCGTCATATTTCGCAGCACGTGTGTGGTGCTTTTCTTGGTTTATGTGATATTGTATGCATGGCGGCATCGGTACAGGGATTTGGTTCAACATATATTGCGTCTTAACAGACGCTGTGCTAGCAGTTGCACAAACCAACAGTTT
0.9169209149259109 TGCTTTATACCCTCGGAAAGTAGTGTTTTGTCGATATCAATCCAGGCGTGCGCCACATTT
0.7488941529476343 ATGGCAACTTAAGTAGAGGTGAACGTACCCAGAACATTAGCAACAAAGTCACGTAAGCGAGCAATAGACGGGATGCAGCCATTTTTTGTCCTTGCATTTGTTAGTCGAGCCACGTCATTTAGCAACGCATCAATTCAGATGTGGATTAAGCAGATTTATAGCCTTTGCGTAGGCAAAGTTTTGCAGCTATTGGACGGAAATAACGTCCAAGCTGGTCGTCTGTCATATAGAGGTCGCAAACGAAGCTACATATCTGTTCCAGCGCCAACTCGCATAGCCCTCAGCTGAGCGGAAAGCTATGTGCGCGAGGAGAGCTTAAGCCCACCGCCCCCATACGCAGCTGGCGGCACACACCCCCTTAGAACGACGAAACTGCCCGGAGCCGAATACGAGTGCGAGCCGAACCATTGTCGATATGCCTGG
0.2601962198729412 CCAGCGTCGTTTTTCTTTACTTGGTGAGGCTGCTCAAGCCTCACTGAAAAACTTCACGAGGCGATCAGCTGTGAGAGCTTTAAGAGCTGTAAGAGCTTTAAGCCCTGGCTGGTTCGTGTCCACGGTACACTACTACTTACAAGGCGTGATCTTTAAGCTCTATCTGGATCGTGTCTTAGATACTCTGCCGCTAGAACTTTAAGCTTCTAGCTGGTTCGAGTCGTCGCTAAGCATTTTTTGAAAATAGATAA
0.7999098901463145 CACACGCTAATGAGGATAACACAATAAGAGAAAAAAGCTTTTGGTTACCGCGACCAAAAGAGGGAGACACAGTGCATTGAC
1 CTTGACATTCTGAAAATTTGTTGGTCATGTCGGATATCGAGTTAATATTCATTTTACTTAAACGGCGATATTGCTTAGCAAGGACTTCAACCCACACCGGCGCGGTAGGAACGGCTGACTGCATTATTTTCACAAATGGACGACCAGACTAAGTAATAAAAACTAAAA
0.5564754382003753 TGATATTTTCGATAGTCGGAACCAGTAGTTGATCGATAGTAGTTCACGTGACAGAT
0.9473646604820897 TTGCTCTAGCGTCACTTGAAACTTTCGAATTAGACGGCCTCATGTCACCTCTGAGTTCAGGTTCGTATCATTGATAAAGCAGCCTTGGAAACT
1 TCGTTTTGTAAATTTCCATAAATTTTTAAAAATTAAACCACGTACATATTTGCCCACCGGTGCCCACGCATCAAATATAGAAATGGTTCGTGAAGCTGCTTCAAACTGTAGAATAGCTCTCTTGCTGAATTTAACAGCTTTCGGGAAAGAAAAGAGCTTTTTCTTTTTCTCATTATTGTGTTCCACATTAAAAAAAAATCACTCAAACAATACCCCTCACCACCTAGAACTCACCTCACTTACCCCTCACCAACCAGAACTCACCTCACTCGAATTCAAAAACTCACTCGTTCCAATGTTGCTGCAGCATTGTTGCTCGCATTTTGAGTCAAGCTCGTTCTAATGTTTCGGCAGCATTGTTGCTGCGCGAAGACGGC
0.9054249617076088 AGTAAACAACTGAAAAATAACAAGTGCATGCTGACTTAAGCTGGGTGTTACGCGA
0.4722956312409013 GTAATTAATTCCTATGCACAAATGCATTTTAGTATAACAACGCGCAGCACGTCGAAAGTAGCGCCGTCGCCCTCTACCGCCGAGAGGTGGGAACTACGGCTATACCGGATAGTCGCCCCGATTTGCCACCATTTTCGTGTGTGCATTTGTTTTGTCAAAAATAATGCTGCTTAATTATTATATTTGTAATTTATT
1 ACTAGCAAGCTGGAAATTCAATTACCACCACTTTGACGAACGGCTGTCCATCAAAGCGAGTCGGACAGGGACGGCCATAGTGGCGGAGTGACGAAAGGCGACAACACGAGTTCGTCAAAGTGGAATTGGATGGTGGCGAGAGAGACAGGCATAGCACAGTGGGTGTGTAGAGAGCAAGAGAGTGAGTACTCC
0.7548242324870995 CTAACCCCTATGCCAGCTACATGTACATGTATAATACAGTGGTTCGACGCAGCCTTCTCTGACTTATTCGAAAGTTATGTACATGTAGATAGCAGCTTAAAAACTGATAGACTATACTTCACATGGCCGCTTGTGTCAACTCCACTGCGTTGCACACTTCAGACTAAAATCGATATATCATATGCAAGGGTTCAAACCAACGAATTCCTTACAAATGTATGTATAAAGTACTACATATCGAATGAACTGTCTTAAGGTCGTGTAAAATACCAAGGCCAATCTACGGCATAGAAAAAAACGAAGTCAACGCAGGGCTCTTTTGACACAGTATCCAGAGATAGAGATAGCTGATGATTCGCTTGCAGCAACAAA
0.7492647868143245 AAATTAGAAATGATCTAAGAATCCTTGAAAATGCATTTAAAAATTATGCAGTGTTCTCAAAATTCGACCAAAAGGGTTTTGAAAATACCGCCAAATGCTGTACCTGCACCACAGGGAAATCCATGTTATGAACCGATGTATAGCACTATCATTTCGACGCTAACTTTCAGAATGTATTACACCGTTTACAGAGCGTTTTGCCAAGTGGCCCGGTATCTCAACCTTTTGTTTTTAATTTCATTAACTAGCTGTGAAAGCTTTTGCATTAAGCTATGTAGAGTTTTCCAGGAAGTTGCAATTT
0.7545627043575632 ATCTGTAAATGGTGTAACACATTTAGCAAGTTAACATTGGTATGTTGTTGTACATCGGTTCATGTCACTAATTTGCTTGGTGCGAGTGCTGGAGCTGGCAGTATTTTCAAGTCCCTTTGAGCTGTTCCTACTGTAAGGCGAATTTTCGGAGAGCTGTGCA
1 TCATCGCAAGCCTCCGCCGCACCACTGGAGTGAAACTGTGGCGCTCCGTGGTGGCCGTTATCTGCACTCCGACGTGGGTGATAACCATATCTCCCAATCATATCCAAAAACCTTTAATGCCTTTAT
0.5310547355841443 GAGCGGAGAGAGAAGGATGAAGTGATAAAACAGCATGAAGGCGGTACCTATATGTGACCAGTGGAACTCGCTGAGGTCCTCGACAGTGTACGCTCCTGAAAGAGAAAACAAGATTACTTTTCCGACCAAATAGATGGCGTCTCCTAGTTACCGCTTCGGATAATGTAAATCGGTATTATATAGAGCAGTGCATGCTGGATCCAATAGGTGGCCTGCTCGAAGGGATATGTGCGGCCCTCCACCTCGGGGAAAAGAAACGCCAGAAATGGGCCGTTGAGATTGCTCATCTGTATACGAAAGAGCG
1 CTCTTTTTGTCCAGCTTGGGTTATGATAATGGAAAGAAGTAAAACTGAAGTTTAACGTCGCCGATTATACATACGTAGTTCTGATAACGCCTAAAGCTAGGCAATTATGAGCGGCAAACCAGGTAGCTTTAACAAGGCTTGTGCGTTCTAAGTTCAA
1 TCACATTTTCTTCAGTTGTCTTACACATCAAGTCGCGGTCTTTTGTTCGGCACAAGCACCAAAT
0.9097588564738364 GAGTTTGACTTTCTACTTCTTTGAACTGTTACACTTGCACGCCAAGCGGTCCTGTGGCGCAATGGATAACGCG
1 GGGGCTCGAACCCACGACCCTGAGATTAAGAGTCTCATGCTCTACCGACTGAGCTAGCCGGGCTGTTTTTGCAAGAGGTG
0.1919754146589689 ACATCGAGAGGGTGTCTAACGAAAGGGTTGTTTTCGGTCGTCGGACTCTTCGGGGCAGATATCAGTGAAGGCCTTGATTAAAAATCCCACCATGTCCCTGGATGGTTCTCTGATGAGTGTTTCTTCGCCGACAAATGACTAAGTTTGTCCACAGATGGCGCCAAAAGTACTCAATATGCGTATGCCCCTGCATCCTGCGATTTCGATGGCTGCTTAAGCGCCTTTAAGTTTTGCTTTTAAGGGGCCTTGCCCACAAGCCCAAATCGGCACTAAA
0.9528138506408945 CAGAAGCATCAAGTCGACTTGTAGACTGTTTGATGTTCCCGTGGCAAACGAAGCGTGCCCAAAACAACTTTCAAGCACATTTCCCAGTCCCCACTAGTCCCTCGGTTCGCCGATAGATGGCAACAAGCTAACTGCCAGTTCGCAGTTTTCACGAAACAATTTCCATTACTGCAACTTTTTAATGCCCCACGATGACTGCAGGCCATTCCGTCCGCCCTT
1 CGGAACTGCATTACTTTATGTCCGTGTTTAGCAACACTGGAAACGCCGTGGAG
1 AACCGGTAGGTGGAGCTAATGTGCGCACTCGGAGAATGTCCTTTTGTTGATGCCACTTATAAATTTCCCTCGCAGAAGGGCGTTTAAAGGGTATCTCATGGT
0.3437815049608324 ACGGGATCCGCACTCGGATCCGAATCGCCCTGCCCACCGGCGGCTGCCAGCCTGGAAAATGGCACAGTGAGCAGTTTGCACTAAATCAATTAAAACTAGTGCAGCACCGACCGCAGCATCCATTAAAAGTAACTAATGGAATTTCATTCGAATTATATATTGCGATTCCCATAAATTCTGCAATTGCGTAAATGCCGATTGCCGGCTTAAAGCAGCCGTGCTGCTGCTGATTTGAAATTTGCATATTTATATGGGGGGTGTGGTGTTGGATTTCGGAATGGGGCATCTGGGGGCTTGCGAGGAGCCAGCCGCTTTGGCGTTCGCGGCAAACAATAAACAGCTTTGCTAATGAGATTGCATTATGCGCAATTCAGAATGCAATTTACTGTGGCATTGATTTTGCATTAAATTGGCTTAGGCCGAGCGCTCCGCTTGGATCGGAAAAGTGCGGGAAACCCCAATTTGCTGCTGGCACGTCTGAGCTTAGAATTATGTTCTTAGAACGACTTAATGCAAATTTCAAATTCAAATTGCAACGGAAGTGCGGCGCCACCTGGCGGTTACCACGAGCGCGTTCAGGCGGCGCCCTCTTGCGGAAATCTCGCAAGTGAAACAGCTGTTTCCAGCTGCTGGTTTTTTTTAGCACATTTATCCATGCAGCGGCGTTGTTTTGGAATGGCCATGAAATATATTGGTAACTTGAGAGAAATTAACTCCTGCAGGCTTGACTAGCTAACACCTGGCAATGCTCCACAGACATTGGGGCCAACCTGACGGACCCCATGTTCCAGGGCTGCTACGGCGGAACCCAGAAGCACGAGCCCGACCTGCACATCGTCTTGGAGCGCGCGTGGCAACAGGGACTGCAGAAAGTCATCGTTACCGCCGGCTGCCTGAAGGATGTGGATGAGGCACTGGAACTGGCCTCCAAGGATGGTAAGCTGACCTTTAGGATGTTCCCTTTGCAAATTGTGCTTTAAATTGGGAGTCCCCATTG
0.7856145780501843 AGGTGTTAGCTCAATGGAATCTAGTGGAAATGTGCAATTGAAAGGCGGTTACCGAAGTTCCGCTCCTTATCAAAGTTCTCTTGCTGTGCTGACTTTTGCTGGCATATTTAGGGCTTGTTTTGGCGAATCGGAGGTTATAAGAGCGCTCCGCCACGGTCACACTG
0.3961298837640706 TAAAAGCCACTTCTGGGACCCGCCACTCAGCTTTTCTTGTCAGCCTGGCAACGTTGATGTCATTCGGCACGCAAAAGCTACTTCGAAAGCTTCGGAGAAGAGATAGAGATAGCCGGCAGTAGAAGCGCCGTTCAGTGAATTTCTAGCCGACGGACAGAC
1 ATTCTTTCTTTTAGCAACATAAACTTCGTGTTTAGAGCCACCTCTCTAAACATTTTACTGAAGTTGAGCGATAGTTTTTTTCAGTGATGTTGTGCGTTGGAGAAAACTGACCACTAGAGGGCTCTTCAAACGAATTGCGCAAACAAAAGTCAAGCGAACTGTTATGAATGGAAAACCAAAGCCAGAGACAAACACAATTAACTCCAAATGACGCCTCCAAGTCATTTATGGCCGTATACATACATACATGCGTGTGTG
0.7905478702946703 TGCAAGACCAATCAAAACAAGTGCGGGCAATCAAAACGGACGGCGAAGAGCGGCCTTACCGGCGATGTTGCATGCAACGCGGCGAAGAGCGAAATTCGTGGGGCGCCTGCGCGTATGCAACGCGGTTCGAAGCGGAACCAAAACAAAGCGCAACACACACACGCACCCCCACGCCGCCGGAGTTCGACGGCAGACACGG
0.03407575517155426 GACACGTGCGACAAGCCGCACAACAGTCGGTGTTATTGCCCCGTTGCTGCCTTTTTTACAAAGTGTAAATTGTTTTAATACTTTTTAGTGCCACGCAGCGCCATCTTGTGTCGCGTAGTGGCGGCAGCTGCGCCAAACAGCCACGCCCCTCCTCCGACCATCGCCCACCGCCCACCGCCCGGGGCAACTTTTGACTTACACGTGTACGTTGCACGTTCAAATCTCAA
1 CTACTAAATTCTTACATCCATGGGAAGGTAGATTACGCAATTCACTATTTATGAACACGAGGCATTCTATGTAAAAGCCCTATTATTGTCCCATAGAGTCCTGGAAAGTTCTTCAGATACTTCAGCATCTAGAATTTTAGAACCCTATATTGTTTGCAAAAAGAAACAAGAAACTTATATTTCTACATTAGACTTAAACGATGAAATATTAGGAACTCAGATTCTACAGAGAATCTTACGCGCAAATCTACATGTATATGATTCTAAAAATGCGTAGTAACGAAGCATACTTTTGGGATGGTAGTGTAAGCAATGGAGCTATCAAACAAGTTCGATGTTGCAGTTGCGGATTGAGTTGCAGCTTATGATATTTGGCGTTT
0.25539827080419 CTGTACAATTGGTCCGGAATGGCCCTAACCAGGAGTACAGTGGAGTGGATTTCGAGGAACGGCTGCCATAAACTTATGCATTCCTATGAATACCTGCTATTTCCTCCGCCAGGGGGAGCCACTCCACTGAAACCGCTTAATTGCACGAATCCGGCCAACTGAGGCGGGCAGCTCTCGGCGGGTTGGAATCAATTAAAGCTAACTGCACTGTTTACTGGGCCATTTGAAGCCGG
1 AACTGTAAGACTTTCAAGTGCATGGCTCTAGCTCGCTCTAACTTGGAGACTTAGTGCTGCATAAATCAATGGGCTTGCTAGAGAGGGACGACTACTGGTTGAGTGAAAGAGCGAGATAGCTATT
0.2711796767860403 ATATTTGAGGCAACAGAATATTATATTTAGTCCCTTTGGTTGGATAGTGCAAAATGGCAACCACATGTGCACAACCCTTCCCACCCACGACGCCCTTCTTGACCGACTAACTCGTCGCCAGGGGGCGCTGCAAGGGGAATCCCGCCGAGTGAAGAGCGGCAACGGCGCGTCGCTCGAATTCAGCTTGTCAGGCAGGGAAACGTAAATAAGTACATAATAATTTTCCAGAGGGTAGGACAATG
0.6551698423022632 TGCGGCCGCACTGCTGGTAAATGCCAAAAAATACCAGGCCTGCGAGGAAAAGTTATTTCTATCGAAAACAGAGTGACCGTTGCCGAAAAAACGGTTCCTTGTTCGAGGTTGGGCACTTCGCTGCGCTCTTAGCCAGCACTCCAACCACA
0.6866309463784525 TTTGGCGCAATTCCACCTGCGGCGTTTTCCAACACCAATCAGTCCGGCTTGGGCTGCCAACCATAAGAGAAGCGCTTATGGGGTTGCCACATC
0.9247503089610187 CGAAATTTTGTTCGATTCCTAGCACTCAGCTTTTTGTCAGCTAGCACAGTAACTTAGTTGACCAAGATTGACATTT
1 ATGTGAGCATTACAATCGAAAACGCAGTTTATATTGCCTATTTTCAGGCTGGGCTCAAATGCGAGTACGCCTCGTACTTAATATTCAACATCTTCATGGCCAAGATGAAACTGAAT
1 CTTGTTTATGCCGTCCATTTGCAGAAAGGAATTCTCTTGGAGCACGACCCGGTTAAAGTGACCGTATACGCCGTGTTGATGCATGTTTCTTCTTCTGCCGCGGAGGAAAATTGCACTTTTAGGAGTCGGTTCCGTTGCCACTATA
0.798628794607658 AAATTGAAGTAAATGCGTATGCCTTCTATACACGGTCACATTGGTTTGAGTCCTGGAGGAGTTGTGTTTCGTACGGGCATTAGGGTGAACCTGTATAAGACTATATAAGCATACCCTA
0.6343345215701764 CGCTTTGAAGAGCCTAACAGCGATATTTGATATTATAAACTATAATATAACTGCTTTCCGTGTAAAGAATTCCCTGAAAAATGAGATCGCCACCAATAGTGGCGCCCAATAAATAGATCGCCAACGATAGCTGGTCTTAAGCGATACCACCGTCGAGG
1 AAACGATGGTGGATATATGAACACATATTGGACCTACATACATATGTAGGCATGAAAGCAGTTGCTTAAGTCACC
0.8886915817413553 ACAATTTGTCTATTCGGACCATTCACTAAGAAGTTATAATAGAAAGAACTAGTCGCTAGGTGGAGCCACTTATATACTTGCTTTGCTGCTGTCATATTGGAAATTCGAGTTGCAGTGACGTATAAAAGATGGTCTAGGTCCTTGAATGTAGCATACTCTTTGGCTATATGTTAAACCTAGCTCACACTCCTTAAAATTGTATTACATATATAACT
0.204807477896432 TGTCAAAAATTTTAAAAGCAAAATAAAATAACGGTATTGTGCATAACTTAACAATCTTATCATTTTTACCTTGCAATGCTGCATATGTAAAGCGCCACCTATGGAATTTTACATGAACCAATCAAAAAATGCTGCGTACTGCTTGTTTAACAGCTTATTTCCGGTAATTGCTTATTTTCTGCTATAACTTATGTTATTATAGCTGTTATAACATAGACTCTCGGCGCACTGCTCGATGCTATAAAACGAAAACTGCTTCATTCAAATTCTGTTATAGCCGCGTTATGGTAACTGT
0.5463501138879713 AAATTTTATTTCTACCGCATTAAACAGGCGTTCACAAGCGGTGTAGTTAACATCGTCAAGCAGTGCCCTAACAGTGGTAAATCAGCTTAACATAGGCGAACTGCTTTAAAGTTTCCGCAAGCAGTTGGGATTTAGATTTTTTCAACCGTTAGCGGATAACGGTGGCAAAATGAAACATATTTGTATT
0.7689799246664347 AACGCTAGCTAAAAGTACAGATCAAATAACAGAGAAGATGGGAACTAAGCAATGTGATTGGCTTCGAGTCCTCCTTTTTTACATACATAAGCATTATGGATAAGTGTGTTGTTACTTTCGCTAGAACTCGTGAACATCATGGACGGATGTTAATCTGAAGTAAAATTTAGCGCACAGTGGCGCCATGCTGGCTGCATACAACCCGTGACGTCAGCAAGGGGTGGGGTGTGGAGGTTTGAAAAGGAAGTGGGAAGTGGGTAGTGAGTAGGGGAGTAAAGGAGTAGGGGAGTAGGGTCG
0.4007533298100965 TTTTATTGCGATTTTGTGCTGCTGGCGTCTCGCTGTTGTTACCCTATCGATATGCTATCGAAAGCAGCAGGCCTGTTTCGCTGAC
0.4369664294861335 ATGCTCACTTTCGCCGCCCTTTTCTCATTGACAGCTACCATACATACATAGTTACGACAACTGCCGTTTTGAGTACCACGCCGGAAGCTTTTGCGCCAACAAAACCGAGCTTTTGTAGCAGACGTAAACAAACCCAAATCCAAAGCAATGGCCGATGAAGATATCACATTGAACGAGGATCAGCTCCTGGAGTCATTGGAGGAGAC
0.7801483617283378 GCGAGAGAGAACGAGAGGCAGTGAGTGAGAGAGACCCCGGTCGCTTTCTCGCTCGCACCCGCTGAGCTGGGCCTGCGGCTTCGGGTTCCTCGCCTTCGTTTTGTTTGCTCGTGTTTGCCGATGTTGTTGCTGCTGTTGTTGCTGCTGCT
0.4639891966640723 CCTCTCTCTCTCAACATCGAATGTCGAATGCCACCCACCGCAAACTGAAAACCGAATATCGAATGTCGAATGTCGAATGTCAAATGCCAACTGTCGAATGTCGAATGCCACCTATCGAATGCAAGCAGTGCACTCGCTGCGCAGATGTACGCCGCTCAACTGTCGACGCAGCAGCAGAACATGTATGTGTG
0.5991688887270682 TTAAAAATACGTGAAATTCAAACTGGAAACTCACCCCACGCAACCCACTAAAATAAAAATAATCAAAATCACCAATTTCGTGGAGGTGCAAAGCTGCGAACTGATGACGTAGCCGATAACAGAACCAGTGCTTTCCCACAGGCGGAAGTTGCTATAAGCGGCAATCAGATGGTTCGGAAACAGAATGCCATAAAAAGCTGTAAATACCAAAGCTTAATACCCAATCTTGGTGACAAACCTGAACCCGAGCTTCACTCACCATTGACCACAACCAGCCAGACTCCATCGCAGATGCCCCAAACCGCCGCAAAGGTGCAGTAGCTCATATAGTCGCCCTCTCGCGCTTCCCAGGTGTACATGTAGGTGAGCAGACAGAGGTTGACCACGGCACATAGTGCGGCCAGAGTGACCCGTCCAATGCGCTCCACCAGCGCGCCTGCGA
1 GGTTTGAGCTCTCCGCTCTCGGTTTGATGGCGCTGGATTTGCATAAATCCGACATTTCAGATGTTTCTGATCGCCTCCAATATCAGCATCCGAGGCTTATTTTGTGGCAGTTAAAGAAACGTGACGCCGGCGGAGGCGTGTCAAGGTTCTAATTCCGATGCCCACTTGGCCACAAATCTGCGGTTGACCACCAGGTGGCGTGGCATCTTCACTTGGCAGAATCTCAATAATTATTATTAATCATACGCCGCGTACTTCGCCGCCAACTCAACTTACCCACTGATTCATGTCGAGCTAATGAACCTTGCTTGCTTGTCGAGGAAGTGTAATGAACGACAAACACTGGCGATTCGATTTAGATAGTCGCTTGTCTTTGGGC
0.6900541002439338 AAGCGACAATAAAGCTAATTGCTATAGCACTCAAGTTGGTGGATGACATGGACAAACCCATGGACTCAGCTTTACTCACACTTAAAAGCTGACTAATATAGCGTCTGGAAAAGTTTGTTATCAGTCAGTTTCTTACCAA
1 CTCCTTGGCTTAAGTCTCGGGTAAGCTGTTCTACACGGTGCAAAAAGTTATGTCAAAACCTTGAATGTCAAATTCAGTTTTCTATATATAGCTA
1 TGTTTGGGCGATCTGGTTTCACTTGTTTTCGAGTGAGTACTCGAACCTTGATTTGATTCATATTCGCAAAACGAAAGA
0.8591882520981647 TCAAGTTAGTCACCCGCTTCCAGTGACTCAGAAACTGCGCATAGTGCTACTAAAACTGCGCGGCAGATTGTTTAATTTAGAAGAACTGCATCTGTTGACC
1 ATGTTAATCCGCTGTTAAGACAGCTGAAGCACCGGGTGACTCCGCTCATAATCCGTACACACACATAACATTAATAAAATGTTGTGCACCCATGTAGCGACCACAAGGTGGAGCTCGTGTGCCAGTTATTTAAGCTTAGTACCAGGTATCTGATAGTCGGGTACTCGAATATGCAGTTTTTGTTTCCAAATGAATTAAATACCAATAA
0.8712567312807464 TTCCATAAATGTGAATTTGTTGCACTATTAACAAGAATTTACTACCTTCGCAAGCTGCAAATTATCTAGTGCCTGCTCACTTTTTCTGCATTTAACCTGGCCTCTGGTTCCTGAGTCCTGCAACTTCGTCCTGCGGCAGGGAGATTGGTGTCCTTGGGTCGGCGGCAGGTGGAGCGAGTCGAGTGGAGTGGAGTGGAGTTGCCGTGCCGGCCAGCAGGTGGCGCCTGGAACCTTTACTCGGTTTTAATAACGCTCGCCTTGATGATGTTAATAATGTTGCTGGGTGATTACCATTTACGGCGCTTGTTGTTGCCCTCCTCCTGCTCCTGCTCCGGCTCCTGCTGCTGTTGCCATGGTTGCA
1 ACTCCTAGATCGTCTGCACCGGTAGGCAAAAGGACATAAACTGAAATTTTCAAAACGACTTAACCGCCGCTAACGGCATAATTTTATCT
0.682906942717076 CTATGGTTGCGAGCCTGGCTATGTATATAGCTAACGCCAAATACCAAGATCCGTTTGGCAACGCTGCGCAAGTAGGGTTACCAGGTAGCTGAAACTCGC
